digraph Tree {
node [shape=box, style="filled, rounded", color="black", fontname=helvetica] ;
edge [fontname=helvetica] ;
0 [label=<DT_home_ats &le; 0.5<br/>gini = 0.4999<br/>samples = 17688<br/>value = [8971, 8717]<br/>class = y<SUB>0</SUB>>, fillcolor="#e5813907"] ;
1 [label=<DT_away_movement &le; 0.5<br/>gini = 0.5<br/>samples = 11339<br/>value = [5650, 5689]<br/>class = y<SUB>1</SUB>>, fillcolor="#399de502"] ;
0 -> 1 [labeldistance=2.5, labelangle=45, headlabel="True"] ;
2 [label=<true_home_game &le; 0.5<br/>gini = 0.4999<br/>samples = 8024<br/>value = [4056, 3968]<br/>class = y<SUB>0</SUB>>, fillcolor="#e5813906"] ;
1 -> 2 ;
3 [label=<DT_away_tPAr &le; 0.5<br/>gini = 0.4973<br/>samples = 922<br/>value = [427, 495]<br/>class = y<SUB>1</SUB>>, fillcolor="#399de523"] ;
2 -> 3 ;
4 [label=<DT_away_FT &le; 0.5<br/>gini = 0.4924<br/>samples = 657<br/>value = [288, 369]<br/>class = y<SUB>1</SUB>>, fillcolor="#399de538"] ;
3 -> 4 ;
5 [label=<DT_home_public &le; 0.5<br/>gini = 0.498<br/>samples = 429<br/>value = [201, 228]<br/>class = y<SUB>1</SUB>>, fillcolor="#399de51e"] ;
4 -> 5 ;
6 [label=<gini = 0.4999<br/>samples = 181<br/>value = [92, 89]<br/>class = y<SUB>0</SUB>>, fillcolor="#e5813908"] ;
5 -> 6 ;
7 [label=<DT_home_reb &le; 0.5<br/>gini = 0.4927<br/>samples = 248<br/>value = [109, 139]<br/>class = y<SUB>1</SUB>>, fillcolor="#399de537"] ;
5 -> 7 ;
8 [label=<gini = 0.4806<br/>samples = 127<br/>value = [51, 76]<br/>class = y<SUB>1</SUB>>, fillcolor="#399de554"] ;
7 -> 8 ;
9 [label=<gini = 0.4991<br/>samples = 121<br/>value = [58, 63]<br/>class = y<SUB>1</SUB>>, fillcolor="#399de514"] ;
7 -> 9 ;
10 [label=<DT_home_winner &le; 0.5<br/>gini = 0.472<br/>samples = 228<br/>value = [87, 141]<br/>class = y<SUB>1</SUB>>, fillcolor="#399de562"] ;
4 -> 10 ;
11 [label=<gini = 0.4636<br/>samples = 126<br/>value = [46, 80]<br/>class = y<SUB>1</SUB>>, fillcolor="#399de56c"] ;
10 -> 11 ;
12 [label=<gini = 0.4808<br/>samples = 102<br/>value = [41, 61]<br/>class = y<SUB>1</SUB>>, fillcolor="#399de554"] ;
10 -> 12 ;
13 [label=<DT_home_FT &le; 0.5<br/>gini = 0.4988<br/>samples = 265<br/>value = [139, 126]<br/>class = y<SUB>0</SUB>>, fillcolor="#e5813918"] ;
3 -> 13 ;
14 [label=<gini = 0.4979<br/>samples = 156<br/>value = [73, 83]<br/>class = y<SUB>1</SUB>>, fillcolor="#399de51f"] ;
13 -> 14 ;
15 [label=<gini = 0.4777<br/>samples = 109<br/>value = [66, 43]<br/>class = y<SUB>0</SUB>>, fillcolor="#e5813959"] ;
13 -> 15 ;
16 [label=<DT_away_TOVP &le; 0.5<br/>gini = 0.4998<br/>samples = 7102<br/>value = [3629, 3473]<br/>class = y<SUB>0</SUB>>, fillcolor="#e581390b"] ;
2 -> 16 ;
17 [label=<DT_spread_diff &le; 0.5<br/>gini = 0.5<br/>samples = 6107<br/>value = [3084, 3023]<br/>class = y<SUB>0</SUB>>, fillcolor="#e5813905"] ;
16 -> 17 ;
18 [label=<DT_home_FT &le; 0.5<br/>gini = 0.4997<br/>samples = 4766<br/>value = [2438, 2328]<br/>class = y<SUB>0</SUB>>, fillcolor="#e581390c"] ;
17 -> 18 ;
19 [label=<DT_home_tPAr &le; 0.5<br/>gini = 0.4993<br/>samples = 3107<br/>value = [1613, 1494]<br/>class = y<SUB>0</SUB>>, fillcolor="#e5813913"] ;
18 -> 19 ;
20 [label=<DT_away_big &le; 0.5<br/>gini = 0.4982<br/>samples = 2102<br/>value = [1114, 988]<br/>class = y<SUB>0</SUB>>, fillcolor="#e581391d"] ;
19 -> 20 ;
21 [label=<DT_home_TOVP &le; 0.5<br/>gini = 0.4978<br/>samples = 1999<br/>value = [1066, 933]<br/>class = y<SUB>0</SUB>>, fillcolor="#e5813920"] ;
20 -> 21 ;
22 [label=<DT_away_public &le; 0.5<br/>gini = 0.4984<br/>samples = 1748<br/>value = [923, 825]<br/>class = y<SUB>0</SUB>>, fillcolor="#e581391b"] ;
21 -> 22 ;
23 [label=<DT_away_reb &le; 0.5<br/>gini = 0.4973<br/>samples = 1079<br/>value = [579, 500]<br/>class = y<SUB>0</SUB>>, fillcolor="#e5813923"] ;
22 -> 23 ;
24 [label=<DT_away_FT &le; 0.5<br/>gini = 0.4993<br/>samples = 775<br/>value = [402, 373]<br/>class = y<SUB>0</SUB>>, fillcolor="#e5813912"] ;
23 -> 24 ;
25 [label=<DT_away_tPAr &le; 0.5<br/>gini = 0.4975<br/>samples = 557<br/>value = [298, 259]<br/>class = y<SUB>0</SUB>>, fillcolor="#e5813921"] ;
24 -> 25 ;
26 [label=<DT_home_movement &le; 0.5<br/>gini = 0.4924<br/>samples = 356<br/>value = [200, 156]<br/>class = y<SUB>0</SUB>>, fillcolor="#e5813938"] ;
25 -> 26 ;
27 [label=<DT_home_winner &le; 0.5<br/>gini = 0.4954<br/>samples = 250<br/>value = [137, 113]<br/>class = y<SUB>0</SUB>>, fillcolor="#e581392d"] ;
26 -> 27 ;
28 [label=<gini = 0.4883<br/>samples = 137<br/>value = [79, 58]<br/>class = y<SUB>0</SUB>>, fillcolor="#e5813944"] ;
27 -> 28 ;
29 [label=<gini = 0.4996<br/>samples = 113<br/>value = [58, 55]<br/>class = y<SUB>0</SUB>>, fillcolor="#e581390d"] ;
27 -> 29 ;
30 [label=<gini = 0.4822<br/>samples = 106<br/>value = [63, 43]<br/>class = y<SUB>0</SUB>>, fillcolor="#e5813951"] ;
26 -> 30 ;
31 [label=<gini = 0.4997<br/>samples = 201<br/>value = [98, 103]<br/>class = y<SUB>1</SUB>>, fillcolor="#399de50c"] ;
25 -> 31 ;
32 [label=<DT_home_reb &le; 0.5<br/>gini = 0.4989<br/>samples = 218<br/>value = [104, 114]<br/>class = y<SUB>1</SUB>>, fillcolor="#399de516"] ;
24 -> 32 ;
33 [label=<gini = 0.4945<br/>samples = 114<br/>value = [51, 63]<br/>class = y<SUB>1</SUB>>, fillcolor="#399de531"] ;
32 -> 33 ;
34 [label=<gini = 0.4998<br/>samples = 104<br/>value = [53, 51]<br/>class = y<SUB>0</SUB>>, fillcolor="#e581390a"] ;
32 -> 34 ;
35 [label=<DT_away_ats &le; 0.5<br/>gini = 0.4865<br/>samples = 304<br/>value = [177, 127]<br/>class = y<SUB>0</SUB>>, fillcolor="#e5813948"] ;
23 -> 35 ;
36 [label=<gini = 0.494<br/>samples = 200<br/>value = [111, 89]<br/>class = y<SUB>0</SUB>>, fillcolor="#e5813933"] ;
35 -> 36 ;
37 [label=<gini = 0.4638<br/>samples = 104<br/>value = [66, 38]<br/>class = y<SUB>0</SUB>>, fillcolor="#e581396c"] ;
35 -> 37 ;
38 [label=<DT_away_ats &le; 0.5<br/>gini = 0.4996<br/>samples = 669<br/>value = [344, 325]<br/>class = y<SUB>0</SUB>>, fillcolor="#e581390e"] ;
22 -> 38 ;
39 [label=<DT_home_reb &le; 0.5<br/>gini = 0.4961<br/>samples = 421<br/>value = [229, 192]<br/>class = y<SUB>0</SUB>>, fillcolor="#e5813929"] ;
38 -> 39 ;
40 [label=<DT_away_reb &le; 0.5<br/>gini = 0.4998<br/>samples = 286<br/>value = [146, 140]<br/>class = y<SUB>0</SUB>>, fillcolor="#e581390a"] ;
39 -> 40 ;
41 [label=<gini = 0.497<br/>samples = 156<br/>value = [84, 72]<br/>class = y<SUB>0</SUB>>, fillcolor="#e5813924"] ;
40 -> 41 ;
42 [label=<gini = 0.4989<br/>samples = 130<br/>value = [62, 68]<br/>class = y<SUB>1</SUB>>, fillcolor="#399de517"] ;
40 -> 42 ;
43 [label=<gini = 0.4736<br/>samples = 135<br/>value = [83, 52]<br/>class = y<SUB>0</SUB>>, fillcolor="#e581395f"] ;
39 -> 43 ;
44 [label=<DT_away_reb &le; 0.5<br/>gini = 0.4974<br/>samples = 248<br/>value = [115, 133]<br/>class = y<SUB>1</SUB>>, fillcolor="#399de523"] ;
38 -> 44 ;
45 [label=<gini = 0.4938<br/>samples = 144<br/>value = [64, 80]<br/>class = y<SUB>1</SUB>>, fillcolor="#399de533"] ;
44 -> 45 ;
46 [label=<gini = 0.4998<br/>samples = 104<br/>value = [51, 53]<br/>class = y<SUB>1</SUB>>, fillcolor="#399de50a"] ;
44 -> 46 ;
47 [label=<DT_away_public &le; 0.5<br/>gini = 0.4903<br/>samples = 251<br/>value = [143, 108]<br/>class = y<SUB>0</SUB>>, fillcolor="#e581393e"] ;
21 -> 47 ;
48 [label=<gini = 0.4962<br/>samples = 127<br/>value = [69, 58]<br/>class = y<SUB>0</SUB>>, fillcolor="#e5813929"] ;
47 -> 48 ;
49 [label=<gini = 0.4813<br/>samples = 124<br/>value = [74, 50]<br/>class = y<SUB>0</SUB>>, fillcolor="#e5813953"] ;
47 -> 49 ;
50 [label=<gini = 0.4977<br/>samples = 103<br/>value = [48, 55]<br/>class = y<SUB>1</SUB>>, fillcolor="#399de520"] ;
20 -> 50 ;
51 [label=<DT_home_big &le; 0.5<br/>gini = 0.5<br/>samples = 1005<br/>value = [499, 506]<br/>class = y<SUB>1</SUB>>, fillcolor="#399de504"] ;
19 -> 51 ;
52 [label=<DT_home_TOVP &le; 0.5<br/>gini = 0.4998<br/>samples = 855<br/>value = [435, 420]<br/>class = y<SUB>0</SUB>>, fillcolor="#e5813909"] ;
51 -> 52 ;
53 [label=<DT_away_reb &le; 0.5<br/>gini = 0.4989<br/>samples = 733<br/>value = [384, 349]<br/>class = y<SUB>0</SUB>>, fillcolor="#e5813917"] ;
52 -> 53 ;
54 [label=<DT_home_winner &le; 0.5<br/>gini = 0.5<br/>samples = 369<br/>value = [183, 186]<br/>class = y<SUB>1</SUB>>, fillcolor="#399de504"] ;
53 -> 54 ;
55 [label=<gini = 0.4954<br/>samples = 188<br/>value = [85, 103]<br/>class = y<SUB>1</SUB>>, fillcolor="#399de52d"] ;
54 -> 55 ;
56 [label=<gini = 0.4966<br/>samples = 181<br/>value = [98, 83]<br/>class = y<SUB>0</SUB>>, fillcolor="#e5813927"] ;
54 -> 56 ;
57 [label=<DT_away_FT &le; 0.5<br/>gini = 0.4946<br/>samples = 364<br/>value = [201, 163]<br/>class = y<SUB>0</SUB>>, fillcolor="#e5813930"] ;
53 -> 57 ;
58 [label=<DT_away_public &le; 0.5<br/>gini = 0.4914<br/>samples = 214<br/>value = [121, 93]<br/>class = y<SUB>0</SUB>>, fillcolor="#e581393b"] ;
57 -> 58 ;
59 [label=<gini = 0.4922<br/>samples = 112<br/>value = [63, 49]<br/>class = y<SUB>0</SUB>>, fillcolor="#e5813939"] ;
58 -> 59 ;
60 [label=<gini = 0.4906<br/>samples = 102<br/>value = [58, 44]<br/>class = y<SUB>0</SUB>>, fillcolor="#e581393e"] ;
58 -> 60 ;
61 [label=<gini = 0.4978<br/>samples = 150<br/>value = [80, 70]<br/>class = y<SUB>0</SUB>>, fillcolor="#e5813920"] ;
57 -> 61 ;
62 [label=<gini = 0.4866<br/>samples = 122<br/>value = [51, 71]<br/>class = y<SUB>1</SUB>>, fillcolor="#399de548"] ;
52 -> 62 ;
63 [label=<gini = 0.4892<br/>samples = 150<br/>value = [64, 86]<br/>class = y<SUB>1</SUB>>, fillcolor="#399de541"] ;
51 -> 63 ;
64 [label=<DT_away_FT &le; 0.5<br/>gini = 0.5<br/>samples = 1659<br/>value = [825, 834]<br/>class = y<SUB>1</SUB>>, fillcolor="#399de503"] ;
18 -> 64 ;
65 [label=<DT_home_big &le; 0.5<br/>gini = 0.4993<br/>samples = 1108<br/>value = [533, 575]<br/>class = y<SUB>1</SUB>>, fillcolor="#399de513"] ;
64 -> 65 ;
66 [label=<DT_away_tPAr &le; 0.5<br/>gini = 0.4981<br/>samples = 840<br/>value = [394, 446]<br/>class = y<SUB>1</SUB>>, fillcolor="#399de51e"] ;
65 -> 66 ;
67 [label=<DT_home_movement &le; 0.5<br/>gini = 0.4995<br/>samples = 570<br/>value = [276, 294]<br/>class = y<SUB>1</SUB>>, fillcolor="#399de510"] ;
66 -> 67 ;
68 [label=<DT_away_reb &le; 0.5<br/>gini = 0.497<br/>samples = 401<br/>value = [185, 216]<br/>class = y<SUB>1</SUB>>, fillcolor="#399de525"] ;
67 -> 68 ;
69 [label=<DT_home_winner &le; 0.5<br/>gini = 0.4996<br/>samples = 257<br/>value = [125, 132]<br/>class = y<SUB>1</SUB>>, fillcolor="#399de50e"] ;
68 -> 69 ;
70 [label=<gini = 0.4996<br/>samples = 134<br/>value = [69, 65]<br/>class = y<SUB>0</SUB>>, fillcolor="#e581390f"] ;
69 -> 70 ;
71 [label=<gini = 0.496<br/>samples = 123<br/>value = [56, 67]<br/>class = y<SUB>1</SUB>>, fillcolor="#399de52a"] ;
69 -> 71 ;
72 [label=<gini = 0.4861<br/>samples = 144<br/>value = [60, 84]<br/>class = y<SUB>1</SUB>>, fillcolor="#399de549"] ;
68 -> 72 ;
73 [label=<gini = 0.497<br/>samples = 169<br/>value = [91, 78]<br/>class = y<SUB>0</SUB>>, fillcolor="#e5813924"] ;
67 -> 73 ;
74 [label=<DT_home_winner &le; 0.5<br/>gini = 0.4921<br/>samples = 270<br/>value = [118, 152]<br/>class = y<SUB>1</SUB>>, fillcolor="#399de539"] ;
66 -> 74 ;
75 [label=<gini = 0.4975<br/>samples = 155<br/>value = [72, 83]<br/>class = y<SUB>1</SUB>>, fillcolor="#399de522"] ;
74 -> 75 ;
76 [label=<gini = 0.48<br/>samples = 115<br/>value = [46, 69]<br/>class = y<SUB>1</SUB>>, fillcolor="#399de555"] ;
74 -> 76 ;
77 [label=<DT_home_public &le; 0.5<br/>gini = 0.4993<br/>samples = 268<br/>value = [139, 129]<br/>class = y<SUB>0</SUB>>, fillcolor="#e5813912"] ;
65 -> 77 ;
78 [label=<gini = 0.4982<br/>samples = 134<br/>value = [71, 63]<br/>class = y<SUB>0</SUB>>, fillcolor="#e581391d"] ;
77 -> 78 ;
79 [label=<gini = 0.4999<br/>samples = 134<br/>value = [68, 66]<br/>class = y<SUB>0</SUB>>, fillcolor="#e5813908"] ;
77 -> 79 ;
80 [label=<DT_away_tPAr &le; 0.5<br/>gini = 0.4982<br/>samples = 551<br/>value = [292, 259]<br/>class = y<SUB>0</SUB>>, fillcolor="#e581391d"] ;
64 -> 80 ;
81 [label=<DT_away_public &le; 0.5<br/>gini = 0.499<br/>samples = 412<br/>value = [215, 197]<br/>class = y<SUB>0</SUB>>, fillcolor="#e5813915"] ;
80 -> 81 ;
82 [label=<DT_home_public &le; 0.5<br/>gini = 0.4969<br/>samples = 267<br/>value = [144, 123]<br/>class = y<SUB>0</SUB>>, fillcolor="#e5813925"] ;
81 -> 82 ;
83 [label=<gini = 0.4982<br/>samples = 149<br/>value = [79, 70]<br/>class = y<SUB>0</SUB>>, fillcolor="#e581391d"] ;
82 -> 83 ;
84 [label=<gini = 0.4948<br/>samples = 118<br/>value = [65, 53]<br/>class = y<SUB>0</SUB>>, fillcolor="#e581392f"] ;
82 -> 84 ;
85 [label=<gini = 0.4998<br/>samples = 145<br/>value = [71, 74]<br/>class = y<SUB>1</SUB>>, fillcolor="#399de50a"] ;
81 -> 85 ;
86 [label=<gini = 0.4942<br/>samples = 139<br/>value = [77, 62]<br/>class = y<SUB>0</SUB>>, fillcolor="#e5813932"] ;
80 -> 86 ;
87 [label=<DT_away_tPAr &le; 0.5<br/>gini = 0.4993<br/>samples = 1341<br/>value = [646, 695]<br/>class = y<SUB>1</SUB>>, fillcolor="#399de512"] ;
17 -> 87 ;
88 [label=<DT_away_reb &le; 0.5<br/>gini = 0.4978<br/>samples = 913<br/>value = [426, 487]<br/>class = y<SUB>1</SUB>>, fillcolor="#399de520"] ;
87 -> 88 ;
89 [label=<DT_away_ats &le; 0.5<br/>gini = 0.4937<br/>samples = 595<br/>value = [264, 331]<br/>class = y<SUB>1</SUB>>, fillcolor="#399de534"] ;
88 -> 89 ;
90 [label=<DT_away_FT &le; 0.5<br/>gini = 0.4981<br/>samples = 358<br/>value = [168, 190]<br/>class = y<SUB>1</SUB>>, fillcolor="#399de51e"] ;
89 -> 90 ;
91 [label=<DT_home_big &le; 0.5<br/>gini = 0.4931<br/>samples = 256<br/>value = [113, 143]<br/>class = y<SUB>1</SUB>>, fillcolor="#399de535"] ;
90 -> 91 ;
92 [label=<gini = 0.4946<br/>samples = 125<br/>value = [56, 69]<br/>class = y<SUB>1</SUB>>, fillcolor="#399de530"] ;
91 -> 92 ;
93 [label=<gini = 0.4916<br/>samples = 131<br/>value = [57, 74]<br/>class = y<SUB>1</SUB>>, fillcolor="#399de53b"] ;
91 -> 93 ;
94 [label=<gini = 0.4969<br/>samples = 102<br/>value = [55, 47]<br/>class = y<SUB>0</SUB>>, fillcolor="#e5813925"] ;
90 -> 94 ;
95 [label=<DT_home_reb &le; 0.5<br/>gini = 0.482<br/>samples = 237<br/>value = [96, 141]<br/>class = y<SUB>1</SUB>>, fillcolor="#399de551"] ;
89 -> 95 ;
96 [label=<gini = 0.496<br/>samples = 134<br/>value = [61, 73]<br/>class = y<SUB>1</SUB>>, fillcolor="#399de52a"] ;
95 -> 96 ;
97 [label=<gini = 0.4487<br/>samples = 103<br/>value = [35, 68]<br/>class = y<SUB>1</SUB>>, fillcolor="#399de57c"] ;
95 -> 97 ;
98 [label=<DT_away_FT &le; 0.5<br/>gini = 0.4998<br/>samples = 318<br/>value = [162, 156]<br/>class = y<SUB>0</SUB>>, fillcolor="#e5813909"] ;
88 -> 98 ;
99 [label=<gini = 0.4955<br/>samples = 190<br/>value = [104, 86]<br/>class = y<SUB>0</SUB>>, fillcolor="#e581392c"] ;
98 -> 99 ;
100 [label=<gini = 0.4956<br/>samples = 128<br/>value = [58, 70]<br/>class = y<SUB>1</SUB>>, fillcolor="#399de52c"] ;
98 -> 100 ;
101 [label=<DT_home_public &le; 0.5<br/>gini = 0.4996<br/>samples = 428<br/>value = [220, 208]<br/>class = y<SUB>0</SUB>>, fillcolor="#e581390e"] ;
87 -> 101 ;
102 [label=<DT_home_reb &le; 0.5<br/>gini = 0.4966<br/>samples = 290<br/>value = [157, 133]<br/>class = y<SUB>0</SUB>>, fillcolor="#e5813927"] ;
101 -> 102 ;
103 [label=<gini = 0.4997<br/>samples = 164<br/>value = [84, 80]<br/>class = y<SUB>0</SUB>>, fillcolor="#e581390c"] ;
102 -> 103 ;
104 [label=<gini = 0.4874<br/>samples = 126<br/>value = [73, 53]<br/>class = y<SUB>0</SUB>>, fillcolor="#e5813946"] ;
102 -> 104 ;
105 [label=<gini = 0.4962<br/>samples = 138<br/>value = [63, 75]<br/>class = y<SUB>1</SUB>>, fillcolor="#399de529"] ;
101 -> 105 ;
106 [label=<DT_home_movement &le; 0.5<br/>gini = 0.4954<br/>samples = 995<br/>value = [545, 450]<br/>class = y<SUB>0</SUB>>, fillcolor="#e581392c"] ;
16 -> 106 ;
107 [label=<DT_spread_diff &le; 0.5<br/>gini = 0.4987<br/>samples = 681<br/>value = [358, 323]<br/>class = y<SUB>0</SUB>>, fillcolor="#e5813919"] ;
106 -> 107 ;
108 [label=<DT_away_tPAr &le; 0.5<br/>gini = 0.4963<br/>samples = 543<br/>value = [295, 248]<br/>class = y<SUB>0</SUB>>, fillcolor="#e5813929"] ;
107 -> 108 ;
109 [label=<DT_away_reb &le; 0.5<br/>gini = 0.4993<br/>samples = 397<br/>value = [206, 191]<br/>class = y<SUB>0</SUB>>, fillcolor="#e5813913"] ;
108 -> 109 ;
110 [label=<DT_home_reb &le; 0.5<br/>gini = 0.4985<br/>samples = 235<br/>value = [111, 124]<br/>class = y<SUB>1</SUB>>, fillcolor="#399de51b"] ;
109 -> 110 ;
111 [label=<gini = 0.4874<br/>samples = 126<br/>value = [53, 73]<br/>class = y<SUB>1</SUB>>, fillcolor="#399de546"] ;
110 -> 111 ;
112 [label=<gini = 0.4979<br/>samples = 109<br/>value = [58, 51]<br/>class = y<SUB>0</SUB>>, fillcolor="#e581391f"] ;
110 -> 112 ;
113 [label=<gini = 0.4851<br/>samples = 162<br/>value = [95, 67]<br/>class = y<SUB>0</SUB>>, fillcolor="#e581394b"] ;
109 -> 113 ;
114 [label=<gini = 0.476<br/>samples = 146<br/>value = [89, 57]<br/>class = y<SUB>0</SUB>>, fillcolor="#e581395c"] ;
108 -> 114 ;
115 [label=<gini = 0.4962<br/>samples = 138<br/>value = [63, 75]<br/>class = y<SUB>1</SUB>>, fillcolor="#399de529"] ;
107 -> 115 ;
116 [label=<DT_away_ats &le; 0.5<br/>gini = 0.4817<br/>samples = 314<br/>value = [187, 127]<br/>class = y<SUB>0</SUB>>, fillcolor="#e5813952"] ;
106 -> 116 ;
117 [label=<gini = 0.4968<br/>samples = 211<br/>value = [114, 97]<br/>class = y<SUB>0</SUB>>, fillcolor="#e5813926"] ;
116 -> 117 ;
118 [label=<gini = 0.4129<br/>samples = 103<br/>value = [73, 30]<br/>class = y<SUB>0</SUB>>, fillcolor="#e5813996"] ;
116 -> 118 ;
119 [label=<DT_home_reb &le; 0.5<br/>gini = 0.4993<br/>samples = 3315<br/>value = [1594, 1721]<br/>class = y<SUB>1</SUB>>, fillcolor="#399de513"] ;
1 -> 119 ;
120 [label=<DT_away_public &le; 0.5<br/>gini = 0.5<br/>samples = 2262<br/>value = [1124, 1138]<br/>class = y<SUB>1</SUB>>, fillcolor="#399de503"] ;
119 -> 120 ;
121 [label=<DT_home_winner &le; 0.5<br/>gini = 0.4991<br/>samples = 1049<br/>value = [547, 502]<br/>class = y<SUB>0</SUB>>, fillcolor="#e5813915"] ;
120 -> 121 ;
122 [label=<DT_home_tPAr &le; 0.5<br/>gini = 0.4959<br/>samples = 442<br/>value = [241, 201]<br/>class = y<SUB>0</SUB>>, fillcolor="#e581392a"] ;
121 -> 122 ;
123 [label=<DT_away_FT &le; 0.5<br/>gini = 0.4998<br/>samples = 292<br/>value = [149, 143]<br/>class = y<SUB>0</SUB>>, fillcolor="#e581390a"] ;
122 -> 123 ;
124 [label=<gini = 0.4989<br/>samples = 189<br/>value = [90, 99]<br/>class = y<SUB>1</SUB>>, fillcolor="#399de517"] ;
123 -> 124 ;
125 [label=<gini = 0.4894<br/>samples = 103<br/>value = [59, 44]<br/>class = y<SUB>0</SUB>>, fillcolor="#e5813941"] ;
123 -> 125 ;
126 [label=<gini = 0.4743<br/>samples = 150<br/>value = [92, 58]<br/>class = y<SUB>0</SUB>>, fillcolor="#e581395e"] ;
122 -> 126 ;
127 [label=<DT_home_public &le; 0.5<br/>gini = 0.5<br/>samples = 607<br/>value = [306, 301]<br/>class = y<SUB>0</SUB>>, fillcolor="#e5813904"] ;
121 -> 127 ;
128 [label=<DT_home_tPAr &le; 0.5<br/>gini = 0.4976<br/>samples = 350<br/>value = [187, 163]<br/>class = y<SUB>0</SUB>>, fillcolor="#e5813921"] ;
127 -> 128 ;
129 [label=<DT_away_reb &le; 0.5<br/>gini = 0.495<br/>samples = 229<br/>value = [126, 103]<br/>class = y<SUB>0</SUB>>, fillcolor="#e581392f"] ;
128 -> 129 ;
130 [label=<gini = 0.4894<br/>samples = 110<br/>value = [63, 47]<br/>class = y<SUB>0</SUB>>, fillcolor="#e5813941"] ;
129 -> 130 ;
131 [label=<gini = 0.4983<br/>samples = 119<br/>value = [63, 56]<br/>class = y<SUB>0</SUB>>, fillcolor="#e581391c"] ;
129 -> 131 ;
132 [label=<gini = 0.5<br/>samples = 121<br/>value = [61, 60]<br/>class = y<SUB>0</SUB>>, fillcolor="#e5813904"] ;
128 -> 132 ;
133 [label=<DT_away_reb &le; 0.5<br/>gini = 0.4973<br/>samples = 257<br/>value = [119, 138]<br/>class = y<SUB>1</SUB>>, fillcolor="#399de523"] ;
127 -> 133 ;
134 [label=<gini = 0.4967<br/>samples = 135<br/>value = [62, 73]<br/>class = y<SUB>1</SUB>>, fillcolor="#399de526"] ;
133 -> 134 ;
135 [label=<gini = 0.4979<br/>samples = 122<br/>value = [57, 65]<br/>class = y<SUB>1</SUB>>, fillcolor="#399de51f"] ;
133 -> 135 ;
136 [label=<DT_home_TOVP &le; 0.5<br/>gini = 0.4988<br/>samples = 1213<br/>value = [577, 636]<br/>class = y<SUB>1</SUB>>, fillcolor="#399de518"] ;
120 -> 136 ;
137 [label=<DT_home_tPAr &le; 0.5<br/>gini = 0.4972<br/>samples = 995<br/>value = [460, 535]<br/>class = y<SUB>1</SUB>>, fillcolor="#399de524"] ;
136 -> 137 ;
138 [label=<DT_spread_diff &le; 0.5<br/>gini = 0.4937<br/>samples = 678<br/>value = [301, 377]<br/>class = y<SUB>1</SUB>>, fillcolor="#399de533"] ;
137 -> 138 ;
139 [label=<DT_home_winner &le; 0.5<br/>gini = 0.4905<br/>samples = 536<br/>value = [231, 305]<br/>class = y<SUB>1</SUB>>, fillcolor="#399de53e"] ;
138 -> 139 ;
140 [label=<gini = 0.4875<br/>samples = 202<br/>value = [85, 117]<br/>class = y<SUB>1</SUB>>, fillcolor="#399de546"] ;
139 -> 140 ;
141 [label=<DT_away_reb &le; 0.5<br/>gini = 0.4921<br/>samples = 334<br/>value = [146, 188]<br/>class = y<SUB>1</SUB>>, fillcolor="#399de539"] ;
139 -> 141 ;
142 [label=<gini = 0.4999<br/>samples = 140<br/>value = [69, 71]<br/>class = y<SUB>1</SUB>>, fillcolor="#399de507"] ;
141 -> 142 ;
143 [label=<gini = 0.4787<br/>samples = 194<br/>value = [77, 117]<br/>class = y<SUB>1</SUB>>, fillcolor="#399de557"] ;
141 -> 143 ;
144 [label=<gini = 0.4999<br/>samples = 142<br/>value = [70, 72]<br/>class = y<SUB>1</SUB>>, fillcolor="#399de507"] ;
138 -> 144 ;
145 [label=<DT_home_winner &le; 0.5<br/>gini = 0.5<br/>samples = 317<br/>value = [159, 158]<br/>class = y<SUB>0</SUB>>, fillcolor="#e5813902"] ;
137 -> 145 ;
146 [label=<gini = 0.4994<br/>samples = 118<br/>value = [57, 61]<br/>class = y<SUB>1</SUB>>, fillcolor="#399de511"] ;
145 -> 146 ;
147 [label=<gini = 0.4997<br/>samples = 199<br/>value = [102, 97]<br/>class = y<SUB>0</SUB>>, fillcolor="#e581390c"] ;
145 -> 147 ;
148 [label=<gini = 0.4973<br/>samples = 218<br/>value = [117, 101]<br/>class = y<SUB>0</SUB>>, fillcolor="#e5813923"] ;
136 -> 148 ;
149 [label=<DT_home_tPAr &le; 0.5<br/>gini = 0.4942<br/>samples = 1053<br/>value = [470, 583]<br/>class = y<SUB>1</SUB>>, fillcolor="#399de531"] ;
119 -> 149 ;
150 [label=<DT_home_big &le; 0.5<br/>gini = 0.4912<br/>samples = 830<br/>value = [360, 470]<br/>class = y<SUB>1</SUB>>, fillcolor="#399de53c"] ;
149 -> 150 ;
151 [label=<DT_home_FT &le; 0.5<br/>gini = 0.4781<br/>samples = 468<br/>value = [185, 283]<br/>class = y<SUB>1</SUB>>, fillcolor="#399de558"] ;
150 -> 151 ;
152 [label=<DT_away_public &le; 0.5<br/>gini = 0.4675<br/>samples = 314<br/>value = [117, 197]<br/>class = y<SUB>1</SUB>>, fillcolor="#399de568"] ;
151 -> 152 ;
153 [label=<gini = 0.4848<br/>samples = 172<br/>value = [71, 101]<br/>class = y<SUB>1</SUB>>, fillcolor="#399de54c"] ;
152 -> 153 ;
154 [label=<gini = 0.438<br/>samples = 142<br/>value = [46, 96]<br/>class = y<SUB>1</SUB>>, fillcolor="#399de585"] ;
152 -> 154 ;
155 [label=<gini = 0.4932<br/>samples = 154<br/>value = [68, 86]<br/>class = y<SUB>1</SUB>>, fillcolor="#399de535"] ;
151 -> 155 ;
156 [label=<DT_away_public &le; 0.5<br/>gini = 0.4995<br/>samples = 362<br/>value = [175, 187]<br/>class = y<SUB>1</SUB>>, fillcolor="#399de510"] ;
150 -> 156 ;
157 [label=<DT_home_FT &le; 0.5<br/>gini = 0.4942<br/>samples = 251<br/>value = [112, 139]<br/>class = y<SUB>1</SUB>>, fillcolor="#399de532"] ;
156 -> 157 ;
158 [label=<gini = 0.4987<br/>samples = 135<br/>value = [64, 71]<br/>class = y<SUB>1</SUB>>, fillcolor="#399de519"] ;
157 -> 158 ;
159 [label=<gini = 0.4851<br/>samples = 116<br/>value = [48, 68]<br/>class = y<SUB>1</SUB>>, fillcolor="#399de54b"] ;
157 -> 159 ;
160 [label=<gini = 0.4909<br/>samples = 111<br/>value = [63, 48]<br/>class = y<SUB>0</SUB>>, fillcolor="#e581393d"] ;
156 -> 160 ;
161 [label=<gini = 0.4999<br/>samples = 223<br/>value = [110, 113]<br/>class = y<SUB>1</SUB>>, fillcolor="#399de507"] ;
149 -> 161 ;
162 [label=<DT_away_public &le; 0.5<br/>gini = 0.4989<br/>samples = 6349<br/>value = [3321, 3028]<br/>class = y<SUB>0</SUB>>, fillcolor="#e5813916"] ;
0 -> 162 [labeldistance=2.5, labelangle=-45, headlabel="False"] ;
163 [label=<DT_spread_diff &le; 0.5<br/>gini = 0.4995<br/>samples = 4563<br/>value = [2352, 2211]<br/>class = y<SUB>0</SUB>>, fillcolor="#e581390f"] ;
162 -> 163 ;
164 [label=<DT_away_movement &le; 0.5<br/>gini = 0.4998<br/>samples = 3603<br/>value = [1836, 1767]<br/>class = y<SUB>0</SUB>>, fillcolor="#e581390a"] ;
163 -> 164 ;
165 [label=<DT_home_big &le; 0.5<br/>gini = 0.5<br/>samples = 2532<br/>value = [1268, 1264]<br/>class = y<SUB>0</SUB>>, fillcolor="#e5813901"] ;
164 -> 165 ;
166 [label=<DT_away_TOVP &le; 0.5<br/>gini = 0.4998<br/>samples = 1753<br/>value = [894, 859]<br/>class = y<SUB>0</SUB>>, fillcolor="#e581390a"] ;
165 -> 166 ;
167 [label=<DT_home_tPAr &le; 0.5<br/>gini = 0.5<br/>samples = 1557<br/>value = [784, 773]<br/>class = y<SUB>0</SUB>>, fillcolor="#e5813904"] ;
166 -> 167 ;
168 [label=<DT_away_tPAr &le; 0.5<br/>gini = 0.4998<br/>samples = 1122<br/>value = [551, 571]<br/>class = y<SUB>1</SUB>>, fillcolor="#399de509"] ;
167 -> 168 ;
169 [label=<DT_home_movement &le; 0.5<br/>gini = 0.4979<br/>samples = 778<br/>value = [364, 414]<br/>class = y<SUB>1</SUB>>, fillcolor="#399de51f"] ;
168 -> 169 ;
170 [label=<DT_away_reb &le; 0.5<br/>gini = 0.4999<br/>samples = 532<br/>value = [263, 269]<br/>class = y<SUB>1</SUB>>, fillcolor="#399de506"] ;
169 -> 170 ;
171 [label=<DT_away_ats &le; 0.5<br/>gini = 0.4997<br/>samples = 394<br/>value = [202, 192]<br/>class = y<SUB>0</SUB>>, fillcolor="#e581390d"] ;
170 -> 171 ;
172 [label=<DT_home_public &le; 0.5<br/>gini = 0.4995<br/>samples = 256<br/>value = [124, 132]<br/>class = y<SUB>1</SUB>>, fillcolor="#399de50f"] ;
171 -> 172 ;
173 [label=<gini = 0.4988<br/>samples = 120<br/>value = [63, 57]<br/>class = y<SUB>0</SUB>>, fillcolor="#e5813918"] ;
172 -> 173 ;
174 [label=<gini = 0.4947<br/>samples = 136<br/>value = [61, 75]<br/>class = y<SUB>1</SUB>>, fillcolor="#399de530"] ;
172 -> 174 ;
175 [label=<gini = 0.4915<br/>samples = 138<br/>value = [78, 60]<br/>class = y<SUB>0</SUB>>, fillcolor="#e581393b"] ;
171 -> 175 ;
176 [label=<gini = 0.4933<br/>samples = 138<br/>value = [61, 77]<br/>class = y<SUB>1</SUB>>, fillcolor="#399de535"] ;
170 -> 176 ;
177 [label=<DT_away_ats &le; 0.5<br/>gini = 0.484<br/>samples = 246<br/>value = [101, 145]<br/>class = y<SUB>1</SUB>>, fillcolor="#399de54d"] ;
169 -> 177 ;
178 [label=<gini = 0.4965<br/>samples = 131<br/>value = [60, 71]<br/>class = y<SUB>1</SUB>>, fillcolor="#399de528"] ;
177 -> 178 ;
179 [label=<gini = 0.4588<br/>samples = 115<br/>value = [41, 74]<br/>class = y<SUB>1</SUB>>, fillcolor="#399de572"] ;
177 -> 179 ;
180 [label=<DT_home_reb &le; 0.5<br/>gini = 0.4962<br/>samples = 344<br/>value = [187, 157]<br/>class = y<SUB>0</SUB>>, fillcolor="#e5813929"] ;
168 -> 180 ;
181 [label=<gini = 0.4993<br/>samples = 162<br/>value = [78, 84]<br/>class = y<SUB>1</SUB>>, fillcolor="#399de512"] ;
180 -> 181 ;
182 [label=<gini = 0.4804<br/>samples = 182<br/>value = [109, 73]<br/>class = y<SUB>0</SUB>>, fillcolor="#e5813954"] ;
180 -> 182 ;
183 [label=<DT_home_winner &le; 0.5<br/>gini = 0.4975<br/>samples = 435<br/>value = [233, 202]<br/>class = y<SUB>0</SUB>>, fillcolor="#e5813922"] ;
167 -> 183 ;
184 [label=<gini = 0.4808<br/>samples = 204<br/>value = [122, 82]<br/>class = y<SUB>0</SUB>>, fillcolor="#e5813954"] ;
183 -> 184 ;
185 [label=<DT_home_public &le; 0.5<br/>gini = 0.4992<br/>samples = 231<br/>value = [111, 120]<br/>class = y<SUB>1</SUB>>, fillcolor="#399de513"] ;
183 -> 185 ;
186 [label=<gini = 0.5<br/>samples = 106<br/>value = [53, 53]<br/>class = y<SUB>0</SUB>>, fillcolor="#e5813900"] ;
185 -> 186 ;
187 [label=<gini = 0.4974<br/>samples = 125<br/>value = [58, 67]<br/>class = y<SUB>1</SUB>>, fillcolor="#399de522"] ;
185 -> 187 ;
188 [label=<gini = 0.4925<br/>samples = 196<br/>value = [110, 86]<br/>class = y<SUB>0</SUB>>, fillcolor="#e5813938"] ;
166 -> 188 ;
189 [label=<DT_away_TOVP &le; 0.5<br/>gini = 0.4992<br/>samples = 779<br/>value = [374, 405]<br/>class = y<SUB>1</SUB>>, fillcolor="#399de514"] ;
165 -> 189 ;
190 [label=<DT_home_reb &le; 0.5<br/>gini = 0.5<br/>samples = 590<br/>value = [293, 297]<br/>class = y<SUB>1</SUB>>, fillcolor="#399de503"] ;
189 -> 190 ;
191 [label=<gini = 0.4968<br/>samples = 150<br/>value = [69, 81]<br/>class = y<SUB>1</SUB>>, fillcolor="#399de526"] ;
190 -> 191 ;
192 [label=<DT_home_tPAr &le; 0.5<br/>gini = 0.4998<br/>samples = 440<br/>value = [224, 216]<br/>class = y<SUB>0</SUB>>, fillcolor="#e5813909"] ;
190 -> 192 ;
193 [label=<DT_away_ats &le; 0.5<br/>gini = 0.4991<br/>samples = 324<br/>value = [169, 155]<br/>class = y<SUB>0</SUB>>, fillcolor="#e5813915"] ;
192 -> 193 ;
194 [label=<DT_home_FT &le; 0.5<br/>gini = 0.4952<br/>samples = 224<br/>value = [123, 101]<br/>class = y<SUB>0</SUB>>, fillcolor="#e581392e"] ;
193 -> 194 ;
195 [label=<gini = 0.4946<br/>samples = 116<br/>value = [64, 52]<br/>class = y<SUB>0</SUB>>, fillcolor="#e5813930"] ;
194 -> 195 ;
196 [label=<gini = 0.4957<br/>samples = 108<br/>value = [59, 49]<br/>class = y<SUB>0</SUB>>, fillcolor="#e581392b"] ;
194 -> 196 ;
197 [label=<gini = 0.4968<br/>samples = 100<br/>value = [46, 54]<br/>class = y<SUB>1</SUB>>, fillcolor="#399de526"] ;
193 -> 197 ;
198 [label=<gini = 0.4987<br/>samples = 116<br/>value = [55, 61]<br/>class = y<SUB>1</SUB>>, fillcolor="#399de519"] ;
192 -> 198 ;
199 [label=<gini = 0.4898<br/>samples = 189<br/>value = [81, 108]<br/>class = y<SUB>1</SUB>>, fillcolor="#399de540"] ;
189 -> 199 ;
200 [label=<DT_away_reb &le; 0.5<br/>gini = 0.4982<br/>samples = 1071<br/>value = [568, 503]<br/>class = y<SUB>0</SUB>>, fillcolor="#e581391d"] ;
164 -> 200 ;
201 [label=<DT_home_tPAr &le; 0.5<br/>gini = 0.4955<br/>samples = 851<br/>value = [466, 385]<br/>class = y<SUB>0</SUB>>, fillcolor="#e581392c"] ;
200 -> 201 ;
202 [label=<DT_home_FT &le; 0.5<br/>gini = 0.4925<br/>samples = 627<br/>value = [352, 275]<br/>class = y<SUB>0</SUB>>, fillcolor="#e5813938"] ;
201 -> 202 ;
203 [label=<DT_home_reb &le; 0.5<br/>gini = 0.497<br/>samples = 373<br/>value = [201, 172]<br/>class = y<SUB>0</SUB>>, fillcolor="#e5813925"] ;
202 -> 203 ;
204 [label=<gini = 0.4892<br/>samples = 143<br/>value = [82, 61]<br/>class = y<SUB>0</SUB>>, fillcolor="#e5813941"] ;
203 -> 204 ;
205 [label=<DT_home_big &le; 0.5<br/>gini = 0.4994<br/>samples = 230<br/>value = [119, 111]<br/>class = y<SUB>0</SUB>>, fillcolor="#e5813911"] ;
203 -> 205 ;
206 [label=<gini = 0.4945<br/>samples = 105<br/>value = [58, 47]<br/>class = y<SUB>0</SUB>>, fillcolor="#e5813930"] ;
205 -> 206 ;
207 [label=<gini = 0.4997<br/>samples = 125<br/>value = [61, 64]<br/>class = y<SUB>1</SUB>>, fillcolor="#399de50c"] ;
205 -> 207 ;
208 [label=<DT_home_big &le; 0.5<br/>gini = 0.4821<br/>samples = 254<br/>value = [151, 103]<br/>class = y<SUB>0</SUB>>, fillcolor="#e5813951"] ;
202 -> 208 ;
209 [label=<gini = 0.4977<br/>samples = 148<br/>value = [79, 69]<br/>class = y<SUB>0</SUB>>, fillcolor="#e5813920"] ;
208 -> 209 ;
210 [label=<gini = 0.4357<br/>samples = 106<br/>value = [72, 34]<br/>class = y<SUB>0</SUB>>, fillcolor="#e5813987"] ;
208 -> 210 ;
211 [label=<DT_home_public &le; 0.5<br/>gini = 0.4998<br/>samples = 224<br/>value = [114, 110]<br/>class = y<SUB>0</SUB>>, fillcolor="#e5813909"] ;
201 -> 211 ;
212 [label=<gini = 0.4982<br/>samples = 100<br/>value = [53, 47]<br/>class = y<SUB>0</SUB>>, fillcolor="#e581391d"] ;
211 -> 212 ;
213 [label=<gini = 0.4999<br/>samples = 124<br/>value = [61, 63]<br/>class = y<SUB>1</SUB>>, fillcolor="#399de508"] ;
211 -> 213 ;
214 [label=<DT_home_public &le; 0.5<br/>gini = 0.4974<br/>samples = 220<br/>value = [102, 118]<br/>class = y<SUB>1</SUB>>, fillcolor="#399de523"] ;
200 -> 214 ;
215 [label=<gini = 0.4999<br/>samples = 118<br/>value = [60, 58]<br/>class = y<SUB>0</SUB>>, fillcolor="#e5813908"] ;
214 -> 215 ;
216 [label=<gini = 0.4844<br/>samples = 102<br/>value = [42, 60]<br/>class = y<SUB>1</SUB>>, fillcolor="#399de54d"] ;
214 -> 216 ;
217 [label=<DT_away_FT &le; 0.5<br/>gini = 0.4972<br/>samples = 960<br/>value = [516, 444]<br/>class = y<SUB>0</SUB>>, fillcolor="#e5813924"] ;
163 -> 217 ;
218 [label=<DT_home_big &le; 0.5<br/>gini = 0.4993<br/>samples = 631<br/>value = [327, 304]<br/>class = y<SUB>0</SUB>>, fillcolor="#e5813912"] ;
217 -> 218 ;
219 [label=<DT_home_public &le; 0.5<br/>gini = 0.4958<br/>samples = 304<br/>value = [166, 138]<br/>class = y<SUB>0</SUB>>, fillcolor="#e581392b"] ;
218 -> 219 ;
220 [label=<gini = 0.489<br/>samples = 148<br/>value = [85, 63]<br/>class = y<SUB>0</SUB>>, fillcolor="#e5813942"] ;
219 -> 220 ;
221 [label=<gini = 0.4993<br/>samples = 156<br/>value = [81, 75]<br/>class = y<SUB>0</SUB>>, fillcolor="#e5813913"] ;
219 -> 221 ;
222 [label=<DT_home_public &le; 0.5<br/>gini = 0.4999<br/>samples = 327<br/>value = [161, 166]<br/>class = y<SUB>1</SUB>>, fillcolor="#399de508"] ;
218 -> 222 ;
223 [label=<gini = 0.496<br/>samples = 112<br/>value = [51, 61]<br/>class = y<SUB>1</SUB>>, fillcolor="#399de52a"] ;
222 -> 223 ;
224 [label=<gini = 0.4997<br/>samples = 215<br/>value = [110, 105]<br/>class = y<SUB>0</SUB>>, fillcolor="#e581390c"] ;
222 -> 224 ;
225 [label=<DT_home_winner &le; 0.5<br/>gini = 0.4889<br/>samples = 329<br/>value = [189, 140]<br/>class = y<SUB>0</SUB>>, fillcolor="#e5813942"] ;
217 -> 225 ;
226 [label=<gini = 0.493<br/>samples = 195<br/>value = [109, 86]<br/>class = y<SUB>0</SUB>>, fillcolor="#e5813936"] ;
225 -> 226 ;
227 [label=<gini = 0.4812<br/>samples = 134<br/>value = [80, 54]<br/>class = y<SUB>0</SUB>>, fillcolor="#e5813953"] ;
225 -> 227 ;
228 [label=<true_home_game &le; 0.5<br/>gini = 0.4964<br/>samples = 1786<br/>value = [969, 817]<br/>class = y<SUB>0</SUB>>, fillcolor="#e5813928"] ;
162 -> 228 ;
229 [label=<gini = 0.4577<br/>samples = 110<br/>value = [71, 39]<br/>class = y<SUB>0</SUB>>, fillcolor="#e5813973"] ;
228 -> 229 ;
230 [label=<DT_home_tPAr &le; 0.5<br/>gini = 0.4974<br/>samples = 1676<br/>value = [898, 778]<br/>class = y<SUB>0</SUB>>, fillcolor="#e5813922"] ;
228 -> 230 ;
231 [label=<DT_home_FT &le; 0.5<br/>gini = 0.4989<br/>samples = 1221<br/>value = [639, 582]<br/>class = y<SUB>0</SUB>>, fillcolor="#e5813917"] ;
230 -> 231 ;
232 [label=<DT_away_FT &le; 0.5<br/>gini = 0.4999<br/>samples = 760<br/>value = [385, 375]<br/>class = y<SUB>0</SUB>>, fillcolor="#e5813907"] ;
231 -> 232 ;
233 [label=<DT_home_winner &le; 0.5<br/>gini = 0.4999<br/>samples = 487<br/>value = [240, 247]<br/>class = y<SUB>1</SUB>>, fillcolor="#399de507"] ;
232 -> 233 ;
234 [label=<DT_away_ats &le; 0.5<br/>gini = 0.4948<br/>samples = 225<br/>value = [101, 124]<br/>class = y<SUB>1</SUB>>, fillcolor="#399de52f"] ;
233 -> 234 ;
235 [label=<gini = 0.4984<br/>samples = 123<br/>value = [58, 65]<br/>class = y<SUB>1</SUB>>, fillcolor="#399de51b"] ;
234 -> 235 ;
236 [label=<gini = 0.4877<br/>samples = 102<br/>value = [43, 59]<br/>class = y<SUB>1</SUB>>, fillcolor="#399de545"] ;
234 -> 236 ;
237 [label=<DT_away_movement &le; 0.5<br/>gini = 0.4981<br/>samples = 262<br/>value = [139, 123]<br/>class = y<SUB>0</SUB>>, fillcolor="#e581391d"] ;
233 -> 237 ;
238 [label=<gini = 0.4955<br/>samples = 137<br/>value = [75, 62]<br/>class = y<SUB>0</SUB>>, fillcolor="#e581392c"] ;
237 -> 238 ;
239 [label=<gini = 0.4997<br/>samples = 125<br/>value = [64, 61]<br/>class = y<SUB>0</SUB>>, fillcolor="#e581390c"] ;
237 -> 239 ;
240 [label=<DT_home_winner &le; 0.5<br/>gini = 0.4981<br/>samples = 273<br/>value = [145, 128]<br/>class = y<SUB>0</SUB>>, fillcolor="#e581391e"] ;
232 -> 240 ;
241 [label=<gini = 0.4922<br/>samples = 112<br/>value = [63, 49]<br/>class = y<SUB>0</SUB>>, fillcolor="#e5813939"] ;
240 -> 241 ;
242 [label=<gini = 0.4998<br/>samples = 161<br/>value = [82, 79]<br/>class = y<SUB>0</SUB>>, fillcolor="#e5813909"] ;
240 -> 242 ;
243 [label=<DT_spread_diff &le; 0.5<br/>gini = 0.4948<br/>samples = 461<br/>value = [254, 207]<br/>class = y<SUB>0</SUB>>, fillcolor="#e581392f"] ;
231 -> 243 ;
244 [label=<DT_away_ats &le; 0.5<br/>gini = 0.4919<br/>samples = 353<br/>value = [199, 154]<br/>class = y<SUB>0</SUB>>, fillcolor="#e581393a"] ;
243 -> 244 ;
245 [label=<gini = 0.4815<br/>samples = 208<br/>value = [124, 84]<br/>class = y<SUB>0</SUB>>, fillcolor="#e5813952"] ;
244 -> 245 ;
246 [label=<gini = 0.4994<br/>samples = 145<br/>value = [75, 70]<br/>class = y<SUB>0</SUB>>, fillcolor="#e5813911"] ;
244 -> 246 ;
247 [label=<gini = 0.4998<br/>samples = 108<br/>value = [55, 53]<br/>class = y<SUB>0</SUB>>, fillcolor="#e5813909"] ;
243 -> 247 ;
248 [label=<DT_home_FT &le; 0.5<br/>gini = 0.4904<br/>samples = 455<br/>value = [259, 196]<br/>class = y<SUB>0</SUB>>, fillcolor="#e581393e"] ;
230 -> 248 ;
249 [label=<DT_away_tPAr &le; 0.5<br/>gini = 0.4815<br/>samples = 312<br/>value = [186, 126]<br/>class = y<SUB>0</SUB>>, fillcolor="#e5813952"] ;
248 -> 249 ;
250 [label=<DT_away_reb &le; 0.5<br/>gini = 0.4857<br/>samples = 207<br/>value = [121, 86]<br/>class = y<SUB>0</SUB>>, fillcolor="#e581394a"] ;
249 -> 250 ;
251 [label=<gini = 0.4807<br/>samples = 107<br/>value = [64, 43]<br/>class = y<SUB>0</SUB>>, fillcolor="#e5813954"] ;
250 -> 251 ;
252 [label=<gini = 0.4902<br/>samples = 100<br/>value = [57, 43]<br/>class = y<SUB>0</SUB>>, fillcolor="#e581393f"] ;
250 -> 252 ;
253 [label=<gini = 0.4717<br/>samples = 105<br/>value = [65, 40]<br/>class = y<SUB>0</SUB>>, fillcolor="#e5813962"] ;
249 -> 253 ;
254 [label=<gini = 0.4998<br/>samples = 143<br/>value = [73, 70]<br/>class = y<SUB>0</SUB>>, fillcolor="#e581390a"] ;
248 -> 254 ;
}