digraph Tree {
node [shape=box, style="filled, rounded", color="black", fontname=helvetica] ;
edge [fontname=helvetica] ;
0 [label=<DT_home_ats &le; 0.5<br/>gini = 0.4999<br/>samples = 12354<br/>value = [6252, 6102]<br/>class = y<SUB>0</SUB>>, fillcolor="#e5813906"] ;
1 [label=<DT_spread_diff &le; 0.5<br/>gini = 0.4999<br/>samples = 8016<br/>value = [3947, 4069]<br/>class = y<SUB>1</SUB>>, fillcolor="#399de508"] ;
0 -> 1 [labeldistance=2.5, labelangle=45, headlabel="True"] ;
2 [label=<DT_line_movement &le; -0.5<br/>gini = 0.5<br/>samples = 6787<br/>value = [3383, 3404]<br/>class = y<SUB>1</SUB>>, fillcolor="#399de502"] ;
1 -> 2 ;
3 [label=<DT_TRBP &le; 0.5<br/>gini = 0.499<br/>samples = 2033<br/>value = [971, 1062]<br/>class = y<SUB>1</SUB>>, fillcolor="#399de516"] ;
2 -> 3 ;
4 [label=<DT_home_public_percentage &le; -0.5<br/>gini = 0.5<br/>samples = 1409<br/>value = [703, 706]<br/>class = y<SUB>1</SUB>>, fillcolor="#399de501"] ;
3 -> 4 ;
5 [label=<DT_home_winner &le; 0.5<br/>gini = 0.4985<br/>samples = 737<br/>value = [348, 389]<br/>class = y<SUB>1</SUB>>, fillcolor="#399de51b"] ;
4 -> 5 ;
6 [label=<DT_home_FT &le; 0.5<br/>gini = 0.4947<br/>samples = 361<br/>value = [162, 199]<br/>class = y<SUB>1</SUB>>, fillcolor="#399de52f"] ;
5 -> 6 ;
7 [label=<DT_away_ats &le; 0.5<br/>gini = 0.4979<br/>samples = 261<br/>value = [122, 139]<br/>class = y<SUB>1</SUB>>, fillcolor="#399de51f"] ;
6 -> 7 ;
8 [label=<gini = 0.5<br/>samples = 155<br/>value = [77, 78]<br/>class = y<SUB>1</SUB>>, fillcolor="#399de503"] ;
7 -> 8 ;
9 [label=<gini = 0.4886<br/>samples = 106<br/>value = [45, 61]<br/>class = y<SUB>1</SUB>>, fillcolor="#399de543"] ;
7 -> 9 ;
10 [label=<gini = 0.48<br/>samples = 100<br/>value = [40, 60]<br/>class = y<SUB>1</SUB>>, fillcolor="#399de555"] ;
6 -> 10 ;
11 [label=<DT_home_tPAr &le; 0.5<br/>gini = 0.4999<br/>samples = 376<br/>value = [186, 190]<br/>class = y<SUB>1</SUB>>, fillcolor="#399de505"] ;
5 -> 11 ;
12 [label=<DT_TRBP &le; -0.5<br/>gini = 0.4958<br/>samples = 262<br/>value = [119, 143]<br/>class = y<SUB>1</SUB>>, fillcolor="#399de52b"] ;
11 -> 12 ;
13 [label=<gini = 0.4857<br/>samples = 154<br/>value = [64, 90]<br/>class = y<SUB>1</SUB>>, fillcolor="#399de54a"] ;
12 -> 13 ;
14 [label=<gini = 0.4998<br/>samples = 108<br/>value = [55, 53]<br/>class = y<SUB>0</SUB>>, fillcolor="#e5813909"] ;
12 -> 14 ;
15 [label=<gini = 0.4846<br/>samples = 114<br/>value = [67, 47]<br/>class = y<SUB>0</SUB>>, fillcolor="#e581394c"] ;
11 -> 15 ;
16 [label=<DT_away_ats &le; 0.5<br/>gini = 0.4984<br/>samples = 672<br/>value = [355, 317]<br/>class = y<SUB>0</SUB>>, fillcolor="#e581391b"] ;
4 -> 16 ;
17 [label=<DT_away_tPAr &le; 0.5<br/>gini = 0.4999<br/>samples = 498<br/>value = [253, 245]<br/>class = y<SUB>0</SUB>>, fillcolor="#e5813908"] ;
16 -> 17 ;
18 [label=<DT_home_winner &le; 0.5<br/>gini = 0.4997<br/>samples = 384<br/>value = [187, 197]<br/>class = y<SUB>1</SUB>>, fillcolor="#399de50d"] ;
17 -> 18 ;
19 [label=<gini = 0.4961<br/>samples = 182<br/>value = [99, 83]<br/>class = y<SUB>0</SUB>>, fillcolor="#e5813929"] ;
18 -> 19 ;
20 [label=<DT_TRBP &le; -0.5<br/>gini = 0.4917<br/>samples = 202<br/>value = [88, 114]<br/>class = y<SUB>1</SUB>>, fillcolor="#399de53a"] ;
18 -> 20 ;
21 [label=<gini = 0.4988<br/>samples = 101<br/>value = [48, 53]<br/>class = y<SUB>1</SUB>>, fillcolor="#399de518"] ;
20 -> 21 ;
22 [label=<gini = 0.4784<br/>samples = 101<br/>value = [40, 61]<br/>class = y<SUB>1</SUB>>, fillcolor="#399de558"] ;
20 -> 22 ;
23 [label=<gini = 0.4875<br/>samples = 114<br/>value = [66, 48]<br/>class = y<SUB>0</SUB>>, fillcolor="#e5813946"] ;
17 -> 23 ;
24 [label=<gini = 0.4851<br/>samples = 174<br/>value = [102, 72]<br/>class = y<SUB>0</SUB>>, fillcolor="#e581394b"] ;
16 -> 24 ;
25 [label=<DT_home_tPAr &le; 0.5<br/>gini = 0.4901<br/>samples = 624<br/>value = [268, 356]<br/>class = y<SUB>1</SUB>>, fillcolor="#399de53f"] ;
3 -> 25 ;
26 [label=<DT_home_winner &le; 0.5<br/>gini = 0.4793<br/>samples = 492<br/>value = [196, 296]<br/>class = y<SUB>1</SUB>>, fillcolor="#399de556"] ;
25 -> 26 ;
27 [label=<DT_away_tPAr &le; 0.5<br/>gini = 0.4925<br/>samples = 269<br/>value = [118, 151]<br/>class = y<SUB>1</SUB>>, fillcolor="#399de538"] ;
26 -> 27 ;
28 [label=<gini = 0.4895<br/>samples = 166<br/>value = [71, 95]<br/>class = y<SUB>1</SUB>>, fillcolor="#399de540"] ;
27 -> 28 ;
29 [label=<gini = 0.4962<br/>samples = 103<br/>value = [47, 56]<br/>class = y<SUB>1</SUB>>, fillcolor="#399de529"] ;
27 -> 29 ;
30 [label=<gini = 0.4549<br/>samples = 223<br/>value = [78, 145]<br/>class = y<SUB>1</SUB>>, fillcolor="#399de576"] ;
26 -> 30 ;
31 [label=<gini = 0.4959<br/>samples = 132<br/>value = [72, 60]<br/>class = y<SUB>0</SUB>>, fillcolor="#e581392a"] ;
25 -> 31 ;
32 [label=<DT_home_public_percentage &le; 0.5<br/>gini = 0.4999<br/>samples = 4754<br/>value = [2412, 2342]<br/>class = y<SUB>0</SUB>>, fillcolor="#e5813907"] ;
2 -> 32 ;
33 [label=<DT_away_TOVP &le; 0.5<br/>gini = 0.4992<br/>samples = 3193<br/>value = [1661, 1532]<br/>class = y<SUB>0</SUB>>, fillcolor="#e5813914"] ;
32 -> 33 ;
34 [label=<DT_spread &le; 0.5<br/>gini = 0.4997<br/>samples = 2760<br/>value = [1414, 1346]<br/>class = y<SUB>0</SUB>>, fillcolor="#e581390c"] ;
33 -> 34 ;
35 [label=<DT_home_winner &le; 0.5<br/>gini = 0.4999<br/>samples = 2445<br/>value = [1239, 1206]<br/>class = y<SUB>0</SUB>>, fillcolor="#e5813907"] ;
34 -> 35 ;
36 [label=<DT_TRBP &le; 0.5<br/>gini = 0.4999<br/>samples = 1546<br/>value = [764, 782]<br/>class = y<SUB>1</SUB>>, fillcolor="#399de506"] ;
35 -> 36 ;
37 [label=<DT_away_tPAr &le; 0.5<br/>gini = 0.4999<br/>samples = 1124<br/>value = [571, 553]<br/>class = y<SUB>0</SUB>>, fillcolor="#e5813908"] ;
36 -> 37 ;
38 [label=<DT_away_FT &le; 0.5<br/>gini = 0.5<br/>samples = 819<br/>value = [407, 412]<br/>class = y<SUB>1</SUB>>, fillcolor="#399de503"] ;
37 -> 38 ;
39 [label=<DT_home_FT &le; 0.5<br/>gini = 0.4989<br/>samples = 483<br/>value = [230, 253]<br/>class = y<SUB>1</SUB>>, fillcolor="#399de517"] ;
38 -> 39 ;
40 [label=<DT_home_public_percentage &le; -0.5<br/>gini = 0.5<br/>samples = 325<br/>value = [162, 163]<br/>class = y<SUB>1</SUB>>, fillcolor="#399de502"] ;
39 -> 40 ;
41 [label=<gini = 0.4974<br/>samples = 179<br/>value = [83, 96]<br/>class = y<SUB>1</SUB>>, fillcolor="#399de523"] ;
40 -> 41 ;
42 [label=<gini = 0.4966<br/>samples = 146<br/>value = [79, 67]<br/>class = y<SUB>0</SUB>>, fillcolor="#e5813927"] ;
40 -> 42 ;
43 [label=<gini = 0.4903<br/>samples = 158<br/>value = [68, 90]<br/>class = y<SUB>1</SUB>>, fillcolor="#399de53e"] ;
39 -> 43 ;
44 [label=<DT_away_ats &le; 0.5<br/>gini = 0.4986<br/>samples = 336<br/>value = [177, 159]<br/>class = y<SUB>0</SUB>>, fillcolor="#e581391a"] ;
38 -> 44 ;
45 [label=<gini = 0.4966<br/>samples = 183<br/>value = [99, 84]<br/>class = y<SUB>0</SUB>>, fillcolor="#e5813927"] ;
44 -> 45 ;
46 [label=<gini = 0.4998<br/>samples = 153<br/>value = [78, 75]<br/>class = y<SUB>0</SUB>>, fillcolor="#e581390a"] ;
44 -> 46 ;
47 [label=<DT_home_FT &le; 0.5<br/>gini = 0.4972<br/>samples = 305<br/>value = [164, 141]<br/>class = y<SUB>0</SUB>>, fillcolor="#e5813924"] ;
37 -> 47 ;
48 [label=<gini = 0.499<br/>samples = 197<br/>value = [103, 94]<br/>class = y<SUB>0</SUB>>, fillcolor="#e5813916"] ;
47 -> 48 ;
49 [label=<gini = 0.4916<br/>samples = 108<br/>value = [61, 47]<br/>class = y<SUB>0</SUB>>, fillcolor="#e581393b"] ;
47 -> 49 ;
50 [label=<DT_away_FT &le; 0.5<br/>gini = 0.4964<br/>samples = 422<br/>value = [193, 229]<br/>class = y<SUB>1</SUB>>, fillcolor="#399de528"] ;
36 -> 50 ;
51 [label=<DT_home_public_percentage &le; -0.5<br/>gini = 0.4936<br/>samples = 282<br/>value = [125, 157]<br/>class = y<SUB>1</SUB>>, fillcolor="#399de534"] ;
50 -> 51 ;
52 [label=<gini = 0.4997<br/>samples = 133<br/>value = [65, 68]<br/>class = y<SUB>1</SUB>>, fillcolor="#399de50b"] ;
51 -> 52 ;
53 [label=<gini = 0.4811<br/>samples = 149<br/>value = [60, 89]<br/>class = y<SUB>1</SUB>>, fillcolor="#399de553"] ;
51 -> 53 ;
54 [label=<gini = 0.4996<br/>samples = 140<br/>value = [68, 72]<br/>class = y<SUB>1</SUB>>, fillcolor="#399de50e"] ;
50 -> 54 ;
55 [label=<DT_TRBP &le; -0.5<br/>gini = 0.4984<br/>samples = 899<br/>value = [475, 424]<br/>class = y<SUB>0</SUB>>, fillcolor="#e581391b"] ;
35 -> 55 ;
56 [label=<DT_home_public_percentage &le; -0.5<br/>gini = 0.4993<br/>samples = 339<br/>value = [163, 176]<br/>class = y<SUB>1</SUB>>, fillcolor="#399de513"] ;
55 -> 56 ;
57 [label=<gini = 0.4963<br/>samples = 208<br/>value = [95, 113]<br/>class = y<SUB>1</SUB>>, fillcolor="#399de529"] ;
56 -> 57 ;
58 [label=<gini = 0.4993<br/>samples = 131<br/>value = [68, 63]<br/>class = y<SUB>0</SUB>>, fillcolor="#e5813913"] ;
56 -> 58 ;
59 [label=<DT_away_tPAr &le; 0.5<br/>gini = 0.4935<br/>samples = 560<br/>value = [312, 248]<br/>class = y<SUB>0</SUB>>, fillcolor="#e5813934"] ;
55 -> 59 ;
60 [label=<DT_away_FT &le; 0.5<br/>gini = 0.4892<br/>samples = 375<br/>value = [215, 160]<br/>class = y<SUB>0</SUB>>, fillcolor="#e5813941"] ;
59 -> 60 ;
61 [label=<DT_home_public_percentage &le; -0.5<br/>gini = 0.4762<br/>samples = 243<br/>value = [148, 95]<br/>class = y<SUB>0</SUB>>, fillcolor="#e581395b"] ;
60 -> 61 ;
62 [label=<gini = 0.4565<br/>samples = 122<br/>value = [79, 43]<br/>class = y<SUB>0</SUB>>, fillcolor="#e5813974"] ;
61 -> 62 ;
63 [label=<gini = 0.4901<br/>samples = 121<br/>value = [69, 52]<br/>class = y<SUB>0</SUB>>, fillcolor="#e581393f"] ;
61 -> 63 ;
64 [label=<gini = 0.4999<br/>samples = 132<br/>value = [67, 65]<br/>class = y<SUB>0</SUB>>, fillcolor="#e5813908"] ;
60 -> 64 ;
65 [label=<gini = 0.4988<br/>samples = 185<br/>value = [97, 88]<br/>class = y<SUB>0</SUB>>, fillcolor="#e5813918"] ;
59 -> 65 ;
66 [label=<DT_away_tPAr &le; 0.5<br/>gini = 0.4938<br/>samples = 315<br/>value = [175, 140]<br/>class = y<SUB>0</SUB>>, fillcolor="#e5813933"] ;
34 -> 66 ;
67 [label=<DT_home_FT &le; 0.5<br/>gini = 0.4955<br/>samples = 210<br/>value = [115, 95]<br/>class = y<SUB>0</SUB>>, fillcolor="#e581392c"] ;
66 -> 67 ;
68 [label=<gini = 0.4979<br/>samples = 107<br/>value = [57, 50]<br/>class = y<SUB>0</SUB>>, fillcolor="#e581391f"] ;
67 -> 68 ;
69 [label=<gini = 0.492<br/>samples = 103<br/>value = [58, 45]<br/>class = y<SUB>0</SUB>>, fillcolor="#e5813939"] ;
67 -> 69 ;
70 [label=<gini = 0.4898<br/>samples = 105<br/>value = [60, 45]<br/>class = y<SUB>0</SUB>>, fillcolor="#e5813940"] ;
66 -> 70 ;
71 [label=<DT_home_public_percentage &le; -0.5<br/>gini = 0.4901<br/>samples = 433<br/>value = [247, 186]<br/>class = y<SUB>0</SUB>>, fillcolor="#e581393f"] ;
33 -> 71 ;
72 [label=<gini = 0.4803<br/>samples = 232<br/>value = [139, 93]<br/>class = y<SUB>0</SUB>>, fillcolor="#e5813954"] ;
71 -> 72 ;
73 [label=<gini = 0.4972<br/>samples = 201<br/>value = [108, 93]<br/>class = y<SUB>0</SUB>>, fillcolor="#e5813923"] ;
71 -> 73 ;
74 [label=<DT_away_tPAr &le; 0.5<br/>gini = 0.4993<br/>samples = 1561<br/>value = [751, 810]<br/>class = y<SUB>1</SUB>>, fillcolor="#399de513"] ;
32 -> 74 ;
75 [label=<DT_home_tPAr &le; 0.5<br/>gini = 0.4975<br/>samples = 1093<br/>value = [508, 585]<br/>class = y<SUB>1</SUB>>, fillcolor="#399de522"] ;
74 -> 75 ;
76 [label=<DT_line_movement &le; 0.5<br/>gini = 0.4991<br/>samples = 763<br/>value = [365, 398]<br/>class = y<SUB>1</SUB>>, fillcolor="#399de515"] ;
75 -> 76 ;
77 [label=<DT_away_FT &le; 0.5<br/>gini = 0.497<br/>samples = 503<br/>value = [232, 271]<br/>class = y<SUB>1</SUB>>, fillcolor="#399de525"] ;
76 -> 77 ;
78 [label=<DT_home_FT &le; 0.5<br/>gini = 0.4992<br/>samples = 331<br/>value = [159, 172]<br/>class = y<SUB>1</SUB>>, fillcolor="#399de513"] ;
77 -> 78 ;
79 [label=<gini = 0.4999<br/>samples = 205<br/>value = [104, 101]<br/>class = y<SUB>0</SUB>>, fillcolor="#e5813907"] ;
78 -> 79 ;
80 [label=<gini = 0.4919<br/>samples = 126<br/>value = [55, 71]<br/>class = y<SUB>1</SUB>>, fillcolor="#399de539"] ;
78 -> 80 ;
81 [label=<gini = 0.4886<br/>samples = 172<br/>value = [73, 99]<br/>class = y<SUB>1</SUB>>, fillcolor="#399de543"] ;
77 -> 81 ;
82 [label=<DT_TRBP &le; 0.5<br/>gini = 0.4997<br/>samples = 260<br/>value = [133, 127]<br/>class = y<SUB>0</SUB>>, fillcolor="#e581390c"] ;
76 -> 82 ;
83 [label=<gini = 0.4953<br/>samples = 144<br/>value = [79, 65]<br/>class = y<SUB>0</SUB>>, fillcolor="#e581392d"] ;
82 -> 83 ;
84 [label=<gini = 0.4976<br/>samples = 116<br/>value = [54, 62]<br/>class = y<SUB>1</SUB>>, fillcolor="#399de521"] ;
82 -> 84 ;
85 [label=<DT_home_winner &le; 0.5<br/>gini = 0.4911<br/>samples = 330<br/>value = [143, 187]<br/>class = y<SUB>1</SUB>>, fillcolor="#399de53c"] ;
75 -> 85 ;
86 [label=<gini = 0.4843<br/>samples = 226<br/>value = [93, 133]<br/>class = y<SUB>1</SUB>>, fillcolor="#399de54d"] ;
85 -> 86 ;
87 [label=<gini = 0.4993<br/>samples = 104<br/>value = [50, 54]<br/>class = y<SUB>1</SUB>>, fillcolor="#399de513"] ;
85 -> 87 ;
88 [label=<DT_away_ats &le; 0.5<br/>gini = 0.4993<br/>samples = 468<br/>value = [243, 225]<br/>class = y<SUB>0</SUB>>, fillcolor="#e5813913"] ;
74 -> 88 ;
89 [label=<DT_TRBP &le; 0.5<br/>gini = 0.4979<br/>samples = 351<br/>value = [187, 164]<br/>class = y<SUB>0</SUB>>, fillcolor="#e581391f"] ;
88 -> 89 ;
90 [label=<gini = 0.4928<br/>samples = 150<br/>value = [84, 66]<br/>class = y<SUB>0</SUB>>, fillcolor="#e5813937"] ;
89 -> 90 ;
91 [label=<gini = 0.4997<br/>samples = 201<br/>value = [103, 98]<br/>class = y<SUB>0</SUB>>, fillcolor="#e581390c"] ;
89 -> 91 ;
92 [label=<gini = 0.4991<br/>samples = 117<br/>value = [56, 61]<br/>class = y<SUB>1</SUB>>, fillcolor="#399de515"] ;
88 -> 92 ;
93 [label=<DT_TRBP &le; -0.5<br/>gini = 0.4966<br/>samples = 1229<br/>value = [564, 665]<br/>class = y<SUB>1</SUB>>, fillcolor="#399de527"] ;
1 -> 93 ;
94 [label=<DT_home_winner &le; 0.5<br/>gini = 0.4997<br/>samples = 389<br/>value = [199, 190]<br/>class = y<SUB>0</SUB>>, fillcolor="#e581390c"] ;
93 -> 94 ;
95 [label=<DT_away_ats &le; 0.5<br/>gini = 0.4971<br/>samples = 277<br/>value = [149, 128]<br/>class = y<SUB>0</SUB>>, fillcolor="#e5813924"] ;
94 -> 95 ;
96 [label=<gini = 0.4927<br/>samples = 141<br/>value = [79, 62]<br/>class = y<SUB>0</SUB>>, fillcolor="#e5813937"] ;
95 -> 96 ;
97 [label=<gini = 0.4996<br/>samples = 136<br/>value = [70, 66]<br/>class = y<SUB>0</SUB>>, fillcolor="#e581390f"] ;
95 -> 97 ;
98 [label=<gini = 0.4943<br/>samples = 112<br/>value = [50, 62]<br/>class = y<SUB>1</SUB>>, fillcolor="#399de531"] ;
94 -> 98 ;
99 [label=<DT_away_tPAr &le; 0.5<br/>gini = 0.4914<br/>samples = 840<br/>value = [365, 475]<br/>class = y<SUB>1</SUB>>, fillcolor="#399de53b"] ;
93 -> 99 ;
100 [label=<DT_line_movement &le; 0.5<br/>gini = 0.4848<br/>samples = 557<br/>value = [230, 327]<br/>class = y<SUB>1</SUB>>, fillcolor="#399de54c"] ;
99 -> 100 ;
101 [label=<DT_away_FT &le; 0.5<br/>gini = 0.4723<br/>samples = 395<br/>value = [151, 244]<br/>class = y<SUB>1</SUB>>, fillcolor="#399de561"] ;
100 -> 101 ;
102 [label=<DT_spread &le; 0.5<br/>gini = 0.4861<br/>samples = 264<br/>value = [110, 154]<br/>class = y<SUB>1</SUB>>, fillcolor="#399de549"] ;
101 -> 102 ;
103 [label=<gini = 0.4961<br/>samples = 147<br/>value = [67, 80]<br/>class = y<SUB>1</SUB>>, fillcolor="#399de529"] ;
102 -> 103 ;
104 [label=<gini = 0.4649<br/>samples = 117<br/>value = [43, 74]<br/>class = y<SUB>1</SUB>>, fillcolor="#399de56b"] ;
102 -> 104 ;
105 [label=<gini = 0.43<br/>samples = 131<br/>value = [41, 90]<br/>class = y<SUB>1</SUB>>, fillcolor="#399de58b"] ;
101 -> 105 ;
106 [label=<gini = 0.4997<br/>samples = 162<br/>value = [79, 83]<br/>class = y<SUB>1</SUB>>, fillcolor="#399de50c"] ;
100 -> 106 ;
107 [label=<DT_home_FT &le; 0.5<br/>gini = 0.4989<br/>samples = 283<br/>value = [135, 148]<br/>class = y<SUB>1</SUB>>, fillcolor="#399de516"] ;
99 -> 107 ;
108 [label=<gini = 0.4999<br/>samples = 177<br/>value = [87, 90]<br/>class = y<SUB>1</SUB>>, fillcolor="#399de508"] ;
107 -> 108 ;
109 [label=<gini = 0.4956<br/>samples = 106<br/>value = [48, 58]<br/>class = y<SUB>1</SUB>>, fillcolor="#399de52c"] ;
107 -> 109 ;
110 [label=<DT_away_ats &le; 0.5<br/>gini = 0.498<br/>samples = 4338<br/>value = [2305, 2033]<br/>class = y<SUB>0</SUB>>, fillcolor="#e581391e"] ;
0 -> 110 [labeldistance=2.5, labelangle=-45, headlabel="False"] ;
111 [label=<DT_home_winner &le; 0.5<br/>gini = 0.4963<br/>samples = 2780<br/>value = [1510, 1270]<br/>class = y<SUB>0</SUB>>, fillcolor="#e5813929"] ;
110 -> 111 ;
112 [label=<DT_line_movement &le; -0.5<br/>gini = 0.4985<br/>samples = 1475<br/>value = [778, 697]<br/>class = y<SUB>0</SUB>>, fillcolor="#e581391b"] ;
111 -> 112 ;
113 [label=<DT_home_public_percentage &le; 0.5<br/>gini = 0.4999<br/>samples = 362<br/>value = [178, 184]<br/>class = y<SUB>1</SUB>>, fillcolor="#399de508"] ;
112 -> 113 ;
114 [label=<DT_TRBP &le; 0.5<br/>gini = 0.4982<br/>samples = 219<br/>value = [116, 103]<br/>class = y<SUB>0</SUB>>, fillcolor="#e581391d"] ;
113 -> 114 ;
115 [label=<gini = 0.4978<br/>samples = 105<br/>value = [49, 56]<br/>class = y<SUB>1</SUB>>, fillcolor="#399de520"] ;
114 -> 115 ;
116 [label=<gini = 0.4846<br/>samples = 114<br/>value = [67, 47]<br/>class = y<SUB>0</SUB>>, fillcolor="#e581394c"] ;
114 -> 116 ;
117 [label=<gini = 0.4912<br/>samples = 143<br/>value = [62, 81]<br/>class = y<SUB>1</SUB>>, fillcolor="#399de53c"] ;
113 -> 117 ;
118 [label=<DT_home_public_percentage &le; -0.5<br/>gini = 0.4969<br/>samples = 1113<br/>value = [600, 513]<br/>class = y<SUB>0</SUB>>, fillcolor="#e5813925"] ;
112 -> 118 ;
119 [label=<gini = 0.4879<br/>samples = 251<br/>value = [145, 106]<br/>class = y<SUB>0</SUB>>, fillcolor="#e5813945"] ;
118 -> 119 ;
120 [label=<true_home_game &le; 0.5<br/>gini = 0.4984<br/>samples = 862<br/>value = [455, 407]<br/>class = y<SUB>0</SUB>>, fillcolor="#e581391b"] ;
118 -> 120 ;
121 [label=<gini = 0.4994<br/>samples = 170<br/>value = [82, 88]<br/>class = y<SUB>1</SUB>>, fillcolor="#399de511"] ;
120 -> 121 ;
122 [label=<DT_spread_diff &le; 0.5<br/>gini = 0.497<br/>samples = 692<br/>value = [373, 319]<br/>class = y<SUB>0</SUB>>, fillcolor="#e5813925"] ;
120 -> 122 ;
123 [label=<DT_spread &le; 0.5<br/>gini = 0.4985<br/>samples = 571<br/>value = [301, 270]<br/>class = y<SUB>0</SUB>>, fillcolor="#e581391a"] ;
122 -> 123 ;
124 [label=<DT_away_FT &le; 0.5<br/>gini = 0.4955<br/>samples = 360<br/>value = [197, 163]<br/>class = y<SUB>0</SUB>>, fillcolor="#e581392c"] ;
123 -> 124 ;
125 [label=<DT_home_public_percentage &le; 0.5<br/>gini = 0.4876<br/>samples = 235<br/>value = [136, 99]<br/>class = y<SUB>0</SUB>>, fillcolor="#e5813945"] ;
124 -> 125 ;
126 [label=<gini = 0.4793<br/>samples = 118<br/>value = [71, 47]<br/>class = y<SUB>0</SUB>>, fillcolor="#e5813956"] ;
125 -> 126 ;
127 [label=<gini = 0.4938<br/>samples = 117<br/>value = [65, 52]<br/>class = y<SUB>0</SUB>>, fillcolor="#e5813933"] ;
125 -> 127 ;
128 [label=<gini = 0.4997<br/>samples = 125<br/>value = [61, 64]<br/>class = y<SUB>1</SUB>>, fillcolor="#399de50c"] ;
124 -> 128 ;
129 [label=<gini = 0.4999<br/>samples = 211<br/>value = [104, 107]<br/>class = y<SUB>1</SUB>>, fillcolor="#399de507"] ;
123 -> 129 ;
130 [label=<gini = 0.4819<br/>samples = 121<br/>value = [72, 49]<br/>class = y<SUB>0</SUB>>, fillcolor="#e5813951"] ;
122 -> 130 ;
131 [label=<DT_line_movement &le; -0.5<br/>gini = 0.4926<br/>samples = 1305<br/>value = [732, 573]<br/>class = y<SUB>0</SUB>>, fillcolor="#e5813937"] ;
111 -> 131 ;
132 [label=<DT_home_public_percentage &le; 0.5<br/>gini = 0.4862<br/>samples = 590<br/>value = [344, 246]<br/>class = y<SUB>0</SUB>>, fillcolor="#e5813949"] ;
131 -> 132 ;
133 [label=<DT_away_tPAr &le; 0.5<br/>gini = 0.4926<br/>samples = 394<br/>value = [221, 173]<br/>class = y<SUB>0</SUB>>, fillcolor="#e5813937"] ;
132 -> 133 ;
134 [label=<DT_away_FT &le; 0.5<br/>gini = 0.4963<br/>samples = 291<br/>value = [158, 133]<br/>class = y<SUB>0</SUB>>, fillcolor="#e5813928"] ;
133 -> 134 ;
135 [label=<gini = 0.4934<br/>samples = 183<br/>value = [102, 81]<br/>class = y<SUB>0</SUB>>, fillcolor="#e5813934"] ;
134 -> 135 ;
136 [label=<gini = 0.4993<br/>samples = 108<br/>value = [56, 52]<br/>class = y<SUB>0</SUB>>, fillcolor="#e5813912"] ;
134 -> 136 ;
137 [label=<gini = 0.4751<br/>samples = 103<br/>value = [63, 40]<br/>class = y<SUB>0</SUB>>, fillcolor="#e581395d"] ;
133 -> 137 ;
138 [label=<gini = 0.4675<br/>samples = 196<br/>value = [123, 73]<br/>class = y<SUB>0</SUB>>, fillcolor="#e5813968"] ;
132 -> 138 ;
139 [label=<DT_home_FT &le; 0.5<br/>gini = 0.4964<br/>samples = 715<br/>value = [388, 327]<br/>class = y<SUB>0</SUB>>, fillcolor="#e5813928"] ;
131 -> 139 ;
140 [label=<DT_home_public_percentage &le; 0.5<br/>gini = 0.4902<br/>samples = 428<br/>value = [244, 184]<br/>class = y<SUB>0</SUB>>, fillcolor="#e581393f"] ;
139 -> 140 ;
141 [label=<DT_home_public_percentage &le; -0.5<br/>gini = 0.4771<br/>samples = 257<br/>value = [156, 101]<br/>class = y<SUB>0</SUB>>, fillcolor="#e581395a"] ;
140 -> 141 ;
142 [label=<gini = 0.4884<br/>samples = 125<br/>value = [72, 53]<br/>class = y<SUB>0</SUB>>, fillcolor="#e5813943"] ;
141 -> 142 ;
143 [label=<gini = 0.4628<br/>samples = 132<br/>value = [84, 48]<br/>class = y<SUB>0</SUB>>, fillcolor="#e581396d"] ;
141 -> 143 ;
144 [label=<gini = 0.4996<br/>samples = 171<br/>value = [88, 83]<br/>class = y<SUB>0</SUB>>, fillcolor="#e581390e"] ;
140 -> 144 ;
145 [label=<DT_home_public_percentage &le; 0.5<br/>gini = 0.5<br/>samples = 287<br/>value = [144, 143]<br/>class = y<SUB>0</SUB>>, fillcolor="#e5813902"] ;
139 -> 145 ;
146 [label=<gini = 0.4995<br/>samples = 159<br/>value = [77, 82]<br/>class = y<SUB>1</SUB>>, fillcolor="#399de510"] ;
145 -> 146 ;
147 [label=<gini = 0.4989<br/>samples = 128<br/>value = [67, 61]<br/>class = y<SUB>0</SUB>>, fillcolor="#e5813917"] ;
145 -> 147 ;
148 [label=<DT_home_tPAr &le; 0.5<br/>gini = 0.4998<br/>samples = 1558<br/>value = [795, 763]<br/>class = y<SUB>0</SUB>>, fillcolor="#e581390a"] ;
110 -> 148 ;
149 [label=<DT_TRBP &le; -0.5<br/>gini = 0.5<br/>samples = 1148<br/>value = [569, 579]<br/>class = y<SUB>1</SUB>>, fillcolor="#399de504"] ;
148 -> 149 ;
150 [label=<DT_home_public_percentage &le; -0.5<br/>gini = 0.4975<br/>samples = 271<br/>value = [126, 145]<br/>class = y<SUB>1</SUB>>, fillcolor="#399de521"] ;
149 -> 150 ;
151 [label=<gini = 0.4956<br/>samples = 117<br/>value = [64, 53]<br/>class = y<SUB>0</SUB>>, fillcolor="#e581392c"] ;
150 -> 151 ;
152 [label=<gini = 0.481<br/>samples = 154<br/>value = [62, 92]<br/>class = y<SUB>1</SUB>>, fillcolor="#399de553"] ;
150 -> 152 ;
153 [label=<DT_line_movement &le; -0.5<br/>gini = 0.4999<br/>samples = 877<br/>value = [443, 434]<br/>class = y<SUB>0</SUB>>, fillcolor="#e5813905"] ;
149 -> 153 ;
154 [label=<DT_home_winner &le; 0.5<br/>gini = 0.4982<br/>samples = 234<br/>value = [124, 110]<br/>class = y<SUB>0</SUB>>, fillcolor="#e581391d"] ;
153 -> 154 ;
155 [label=<gini = 0.5<br/>samples = 134<br/>value = [67, 67]<br/>class = y<SUB>0</SUB>>, fillcolor="#e5813900"] ;
154 -> 155 ;
156 [label=<gini = 0.4902<br/>samples = 100<br/>value = [57, 43]<br/>class = y<SUB>0</SUB>>, fillcolor="#e581393f"] ;
154 -> 156 ;
157 [label=<DT_spread &le; 0.5<br/>gini = 0.5<br/>samples = 643<br/>value = [319, 324]<br/>class = y<SUB>1</SUB>>, fillcolor="#399de504"] ;
153 -> 157 ;
158 [label=<DT_TRBP &le; 0.5<br/>gini = 0.4999<br/>samples = 471<br/>value = [239, 232]<br/>class = y<SUB>0</SUB>>, fillcolor="#e5813907"] ;
157 -> 158 ;
159 [label=<gini = 0.4998<br/>samples = 259<br/>value = [127, 132]<br/>class = y<SUB>1</SUB>>, fillcolor="#399de50a"] ;
158 -> 159 ;
160 [label=<gini = 0.4984<br/>samples = 212<br/>value = [112, 100]<br/>class = y<SUB>0</SUB>>, fillcolor="#e581391b"] ;
158 -> 160 ;
161 [label=<gini = 0.4976<br/>samples = 172<br/>value = [80, 92]<br/>class = y<SUB>1</SUB>>, fillcolor="#399de521"] ;
157 -> 161 ;
162 [label=<DT_away_FT &le; 0.5<br/>gini = 0.4948<br/>samples = 410<br/>value = [226, 184]<br/>class = y<SUB>0</SUB>>, fillcolor="#e581392f"] ;
148 -> 162 ;
163 [label=<gini = 0.4877<br/>samples = 242<br/>value = [140, 102]<br/>class = y<SUB>0</SUB>>, fillcolor="#e5813945"] ;
162 -> 163 ;
164 [label=<gini = 0.4997<br/>samples = 168<br/>value = [86, 82]<br/>class = y<SUB>0</SUB>>, fillcolor="#e581390c"] ;
162 -> 164 ;
}