digraph Tree {
node [shape=box, style="filled, rounded", color="black", fontname=helvetica] ;
edge [fontname=helvetica] ;
0 [label=<DT_home_ats &le; 0.5<br/>gini = 0.4999<br/>samples = 14268<br/>value = [7231, 7037]<br/>class = y<SUB>0</SUB>>, fillcolor="#e5813907"] ;
1 [label=<DT_spread_diff &le; 0.5<br/>gini = 0.4999<br/>samples = 9211<br/>value = [4554, 4657]<br/>class = y<SUB>1</SUB>>, fillcolor="#399de506"] ;
0 -> 1 [labeldistance=2.5, labelangle=45, headlabel="True"] ;
2 [label=<DT_away_movement &le; 0.5<br/>gini = 0.5<br/>samples = 7227<br/>value = [3627, 3600]<br/>class = y<SUB>0</SUB>>, fillcolor="#e5813902"] ;
1 -> 2 ;
3 [label=<true_home_game &le; 0.5<br/>gini = 0.4998<br/>samples = 5105<br/>value = [2605, 2500]<br/>class = y<SUB>0</SUB>>, fillcolor="#e581390a"] ;
2 -> 3 ;
4 [label=<DT_away_FT &le; 0.5<br/>gini = 0.4978<br/>samples = 617<br/>value = [288, 329]<br/>class = y<SUB>1</SUB>>, fillcolor="#399de520"] ;
3 -> 4 ;
5 [label=<DT_home_tPAr &le; 0.5<br/>gini = 0.5<br/>samples = 407<br/>value = [203, 204]<br/>class = y<SUB>1</SUB>>, fillcolor="#399de501"] ;
4 -> 5 ;
6 [label=<DT_home_public &le; 0.5<br/>gini = 0.4984<br/>samples = 303<br/>value = [160, 143]<br/>class = y<SUB>0</SUB>>, fillcolor="#e581391b"] ;
5 -> 6 ;
7 [label=<gini = 0.4865<br/>samples = 134<br/>value = [78, 56]<br/>class = y<SUB>0</SUB>>, fillcolor="#e5813948"] ;
6 -> 7 ;
8 [label=<gini = 0.4996<br/>samples = 169<br/>value = [82, 87]<br/>class = y<SUB>1</SUB>>, fillcolor="#399de50f"] ;
6 -> 8 ;
9 [label=<gini = 0.485<br/>samples = 104<br/>value = [43, 61]<br/>class = y<SUB>1</SUB>>, fillcolor="#399de54b"] ;
5 -> 9 ;
10 [label=<DT_home_public &le; 0.5<br/>gini = 0.4819<br/>samples = 210<br/>value = [85, 125]<br/>class = y<SUB>1</SUB>>, fillcolor="#399de552"] ;
4 -> 10 ;
11 [label=<gini = 0.4784<br/>samples = 101<br/>value = [40, 61]<br/>class = y<SUB>1</SUB>>, fillcolor="#399de558"] ;
10 -> 11 ;
12 [label=<gini = 0.4848<br/>samples = 109<br/>value = [45, 64]<br/>class = y<SUB>1</SUB>>, fillcolor="#399de54c"] ;
10 -> 12 ;
13 [label=<DT_away_TOVP &le; 0.5<br/>gini = 0.4995<br/>samples = 4488<br/>value = [2317, 2171]<br/>class = y<SUB>0</SUB>>, fillcolor="#e5813910"] ;
3 -> 13 ;
14 [label=<DT_away_big &le; 0.5<br/>gini = 0.4997<br/>samples = 3883<br/>value = [1985, 1898]<br/>class = y<SUB>0</SUB>>, fillcolor="#e581390b"] ;
13 -> 14 ;
15 [label=<DT_home_tPAr &le; 0.5<br/>gini = 0.4996<br/>samples = 3736<br/>value = [1920, 1816]<br/>class = y<SUB>0</SUB>>, fillcolor="#e581390e"] ;
14 -> 15 ;
16 [label=<DT_home_FT &le; 0.5<br/>gini = 0.4989<br/>samples = 2633<br/>value = [1377, 1256]<br/>class = y<SUB>0</SUB>>, fillcolor="#e5813916"] ;
15 -> 16 ;
17 [label=<DT_away_FT &le; 0.5<br/>gini = 0.4976<br/>samples = 1602<br/>value = [857, 745]<br/>class = y<SUB>0</SUB>>, fillcolor="#e5813921"] ;
16 -> 17 ;
18 [label=<DT_home_TOVP &le; 0.5<br/>gini = 0.4946<br/>samples = 1076<br/>value = [594, 482]<br/>class = y<SUB>0</SUB>>, fillcolor="#e5813930"] ;
17 -> 18 ;
19 [label=<DT_away_public &le; 0.5<br/>gini = 0.4961<br/>samples = 946<br/>value = [515, 431]<br/>class = y<SUB>0</SUB>>, fillcolor="#e581392a"] ;
18 -> 19 ;
20 [label=<DT_home_reb &le; 0.5<br/>gini = 0.4912<br/>samples = 604<br/>value = [342, 262]<br/>class = y<SUB>0</SUB>>, fillcolor="#e581393c"] ;
19 -> 20 ;
21 [label=<DT_home_winner &le; 0.5<br/>gini = 0.4837<br/>samples = 371<br/>value = [219, 152]<br/>class = y<SUB>0</SUB>>, fillcolor="#e581394e"] ;
20 -> 21 ;
22 [label=<DT_home_public &le; 0.5<br/>gini = 0.4917<br/>samples = 225<br/>value = [127, 98]<br/>class = y<SUB>0</SUB>>, fillcolor="#e581393a"] ;
21 -> 22 ;
23 [label=<gini = 0.4813<br/>samples = 119<br/>value = [71, 48]<br/>class = y<SUB>0</SUB>>, fillcolor="#e5813953"] ;
22 -> 23 ;
24 [label=<gini = 0.4984<br/>samples = 106<br/>value = [56, 50]<br/>class = y<SUB>0</SUB>>, fillcolor="#e581391b"] ;
22 -> 24 ;
25 [label=<gini = 0.4661<br/>samples = 146<br/>value = [92, 54]<br/>class = y<SUB>0</SUB>>, fillcolor="#e5813969"] ;
21 -> 25 ;
26 [label=<DT_home_public &le; 0.5<br/>gini = 0.4984<br/>samples = 233<br/>value = [123, 110]<br/>class = y<SUB>0</SUB>>, fillcolor="#e581391b"] ;
20 -> 26 ;
27 [label=<gini = 0.499<br/>samples = 111<br/>value = [58, 53]<br/>class = y<SUB>0</SUB>>, fillcolor="#e5813916"] ;
26 -> 27 ;
28 [label=<gini = 0.4979<br/>samples = 122<br/>value = [65, 57]<br/>class = y<SUB>0</SUB>>, fillcolor="#e581391f"] ;
26 -> 28 ;
29 [label=<DT_home_winner &le; 0.5<br/>gini = 0.4999<br/>samples = 342<br/>value = [173, 169]<br/>class = y<SUB>0</SUB>>, fillcolor="#e5813906"] ;
19 -> 29 ;
30 [label=<gini = 0.4959<br/>samples = 176<br/>value = [96, 80]<br/>class = y<SUB>0</SUB>>, fillcolor="#e581392a"] ;
29 -> 30 ;
31 [label=<gini = 0.4974<br/>samples = 166<br/>value = [77, 89]<br/>class = y<SUB>1</SUB>>, fillcolor="#399de522"] ;
29 -> 31 ;
32 [label=<gini = 0.4768<br/>samples = 130<br/>value = [79, 51]<br/>class = y<SUB>0</SUB>>, fillcolor="#e581395a"] ;
18 -> 32 ;
33 [label=<DT_home_public &le; 0.5<br/>gini = 0.5<br/>samples = 526<br/>value = [263, 263]<br/>class = y<SUB>0</SUB>>, fillcolor="#e5813900"] ;
17 -> 33 ;
34 [label=<DT_away_ats &le; 0.5<br/>gini = 0.4986<br/>samples = 397<br/>value = [209, 188]<br/>class = y<SUB>0</SUB>>, fillcolor="#e581391a"] ;
33 -> 34 ;
35 [label=<DT_away_public &le; 0.5<br/>gini = 0.4957<br/>samples = 247<br/>value = [135, 112]<br/>class = y<SUB>0</SUB>>, fillcolor="#e581392b"] ;
34 -> 35 ;
36 [label=<gini = 0.4998<br/>samples = 112<br/>value = [55, 57]<br/>class = y<SUB>1</SUB>>, fillcolor="#399de509"] ;
35 -> 36 ;
37 [label=<gini = 0.4829<br/>samples = 135<br/>value = [80, 55]<br/>class = y<SUB>0</SUB>>, fillcolor="#e5813950"] ;
35 -> 37 ;
38 [label=<gini = 0.4999<br/>samples = 150<br/>value = [74, 76]<br/>class = y<SUB>1</SUB>>, fillcolor="#399de507"] ;
34 -> 38 ;
39 [label=<gini = 0.4867<br/>samples = 129<br/>value = [54, 75]<br/>class = y<SUB>1</SUB>>, fillcolor="#399de547"] ;
33 -> 39 ;
40 [label=<DT_away_FT &le; 0.5<br/>gini = 0.5<br/>samples = 1031<br/>value = [520, 511]<br/>class = y<SUB>0</SUB>>, fillcolor="#e5813904"] ;
16 -> 40 ;
41 [label=<DT_away_reb &le; 0.5<br/>gini = 0.4997<br/>samples = 673<br/>value = [328, 345]<br/>class = y<SUB>1</SUB>>, fillcolor="#399de50d"] ;
40 -> 41 ;
42 [label=<DT_away_tPAr &le; 0.5<br/>gini = 0.5<br/>samples = 538<br/>value = [271, 267]<br/>class = y<SUB>0</SUB>>, fillcolor="#e5813904"] ;
41 -> 42 ;
43 [label=<DT_home_movement &le; 0.5<br/>gini = 0.4988<br/>samples = 349<br/>value = [183, 166]<br/>class = y<SUB>0</SUB>>, fillcolor="#e5813918"] ;
42 -> 43 ;
44 [label=<DT_home_reb &le; 0.5<br/>gini = 0.5<br/>samples = 237<br/>value = [119, 118]<br/>class = y<SUB>0</SUB>>, fillcolor="#e5813902"] ;
43 -> 44 ;
45 [label=<gini = 0.4996<br/>samples = 113<br/>value = [55, 58]<br/>class = y<SUB>1</SUB>>, fillcolor="#399de50d"] ;
44 -> 45 ;
46 [label=<gini = 0.4995<br/>samples = 124<br/>value = [64, 60]<br/>class = y<SUB>0</SUB>>, fillcolor="#e5813910"] ;
44 -> 46 ;
47 [label=<gini = 0.4898<br/>samples = 112<br/>value = [64, 48]<br/>class = y<SUB>0</SUB>>, fillcolor="#e5813940"] ;
43 -> 47 ;
48 [label=<gini = 0.4976<br/>samples = 189<br/>value = [88, 101]<br/>class = y<SUB>1</SUB>>, fillcolor="#399de521"] ;
42 -> 48 ;
49 [label=<gini = 0.4879<br/>samples = 135<br/>value = [57, 78]<br/>class = y<SUB>1</SUB>>, fillcolor="#399de545"] ;
41 -> 49 ;
50 [label=<DT_away_ats &le; 0.5<br/>gini = 0.4974<br/>samples = 358<br/>value = [192, 166]<br/>class = y<SUB>0</SUB>>, fillcolor="#e5813923"] ;
40 -> 50 ;
51 [label=<gini = 0.4909<br/>samples = 208<br/>value = [118, 90]<br/>class = y<SUB>0</SUB>>, fillcolor="#e581393d"] ;
50 -> 51 ;
52 [label=<gini = 0.4999<br/>samples = 150<br/>value = [74, 76]<br/>class = y<SUB>1</SUB>>, fillcolor="#399de507"] ;
50 -> 52 ;
53 [label=<DT_home_reb &le; 0.5<br/>gini = 0.4999<br/>samples = 1103<br/>value = [543, 560]<br/>class = y<SUB>1</SUB>>, fillcolor="#399de508"] ;
15 -> 53 ;
54 [label=<DT_away_reb &le; 0.5<br/>gini = 0.4997<br/>samples = 798<br/>value = [409, 389]<br/>class = y<SUB>0</SUB>>, fillcolor="#e581390c"] ;
53 -> 54 ;
55 [label=<DT_home_winner &le; 0.5<br/>gini = 0.5<br/>samples = 373<br/>value = [186, 187]<br/>class = y<SUB>1</SUB>>, fillcolor="#399de501"] ;
54 -> 55 ;
56 [label=<gini = 0.4962<br/>samples = 195<br/>value = [89, 106]<br/>class = y<SUB>1</SUB>>, fillcolor="#399de529"] ;
55 -> 56 ;
57 [label=<gini = 0.496<br/>samples = 178<br/>value = [97, 81]<br/>class = y<SUB>0</SUB>>, fillcolor="#e581392a"] ;
55 -> 57 ;
58 [label=<DT_home_winner &le; 0.5<br/>gini = 0.4988<br/>samples = 425<br/>value = [223, 202]<br/>class = y<SUB>0</SUB>>, fillcolor="#e5813918"] ;
54 -> 58 ;
59 [label=<DT_away_public &le; 0.5<br/>gini = 0.4958<br/>samples = 251<br/>value = [137, 114]<br/>class = y<SUB>0</SUB>>, fillcolor="#e581392b"] ;
58 -> 59 ;
60 [label=<gini = 0.4978<br/>samples = 137<br/>value = [73, 64]<br/>class = y<SUB>0</SUB>>, fillcolor="#e581391f"] ;
59 -> 60 ;
61 [label=<gini = 0.4925<br/>samples = 114<br/>value = [64, 50]<br/>class = y<SUB>0</SUB>>, fillcolor="#e5813938"] ;
59 -> 61 ;
62 [label=<gini = 0.4999<br/>samples = 174<br/>value = [86, 88]<br/>class = y<SUB>1</SUB>>, fillcolor="#399de506"] ;
58 -> 62 ;
63 [label=<DT_home_winner &le; 0.5<br/>gini = 0.4926<br/>samples = 305<br/>value = [134, 171]<br/>class = y<SUB>1</SUB>>, fillcolor="#399de537"] ;
53 -> 63 ;
64 [label=<gini = 0.4834<br/>samples = 181<br/>value = [74, 107]<br/>class = y<SUB>1</SUB>>, fillcolor="#399de54f"] ;
63 -> 64 ;
65 [label=<gini = 0.4995<br/>samples = 124<br/>value = [60, 64]<br/>class = y<SUB>1</SUB>>, fillcolor="#399de510"] ;
63 -> 65 ;
66 [label=<gini = 0.4933<br/>samples = 147<br/>value = [65, 82]<br/>class = y<SUB>1</SUB>>, fillcolor="#399de535"] ;
14 -> 66 ;
67 [label=<DT_home_FT &le; 0.5<br/>gini = 0.4952<br/>samples = 605<br/>value = [332, 273]<br/>class = y<SUB>0</SUB>>, fillcolor="#e581392d"] ;
13 -> 67 ;
68 [label=<DT_home_reb &le; 0.5<br/>gini = 0.4992<br/>samples = 423<br/>value = [220, 203]<br/>class = y<SUB>0</SUB>>, fillcolor="#e5813914"] ;
67 -> 68 ;
69 [label=<DT_away_reb &le; 0.5<br/>gini = 0.4999<br/>samples = 305<br/>value = [150, 155]<br/>class = y<SUB>1</SUB>>, fillcolor="#399de508"] ;
68 -> 69 ;
70 [label=<gini = 0.4889<br/>samples = 141<br/>value = [60, 81]<br/>class = y<SUB>1</SUB>>, fillcolor="#399de542"] ;
69 -> 70 ;
71 [label=<gini = 0.4952<br/>samples = 164<br/>value = [90, 74]<br/>class = y<SUB>0</SUB>>, fillcolor="#e581392d"] ;
69 -> 71 ;
72 [label=<gini = 0.4826<br/>samples = 118<br/>value = [70, 48]<br/>class = y<SUB>0</SUB>>, fillcolor="#e5813950"] ;
68 -> 72 ;
73 [label=<gini = 0.4734<br/>samples = 182<br/>value = [112, 70]<br/>class = y<SUB>0</SUB>>, fillcolor="#e5813960"] ;
67 -> 73 ;
74 [label=<DT_home_tPAr &le; 0.5<br/>gini = 0.4993<br/>samples = 2122<br/>value = [1022, 1100]<br/>class = y<SUB>1</SUB>>, fillcolor="#399de512"] ;
2 -> 74 ;
75 [label=<DT_home_reb &le; 0.5<br/>gini = 0.4973<br/>samples = 1490<br/>value = [690, 800]<br/>class = y<SUB>1</SUB>>, fillcolor="#399de523"] ;
74 -> 75 ;
76 [label=<DT_away_public &le; 0.5<br/>gini = 0.4996<br/>samples = 972<br/>value = [473, 499]<br/>class = y<SUB>1</SUB>>, fillcolor="#399de50d"] ;
75 -> 76 ;
77 [label=<DT_away_ats &le; 0.5<br/>gini = 0.4978<br/>samples = 448<br/>value = [239, 209]<br/>class = y<SUB>0</SUB>>, fillcolor="#e5813920"] ;
76 -> 77 ;
78 [label=<DT_home_public &le; 0.5<br/>gini = 0.5<br/>samples = 327<br/>value = [164, 163]<br/>class = y<SUB>0</SUB>>, fillcolor="#e5813902"] ;
77 -> 78 ;
79 [label=<gini = 0.4977<br/>samples = 193<br/>value = [103, 90]<br/>class = y<SUB>0</SUB>>, fillcolor="#e5813920"] ;
78 -> 79 ;
80 [label=<gini = 0.496<br/>samples = 134<br/>value = [61, 73]<br/>class = y<SUB>1</SUB>>, fillcolor="#399de52a"] ;
78 -> 80 ;
81 [label=<gini = 0.4713<br/>samples = 121<br/>value = [75, 46]<br/>class = y<SUB>0</SUB>>, fillcolor="#e5813963"] ;
77 -> 81 ;
82 [label=<DT_home_FT &le; 0.5<br/>gini = 0.4943<br/>samples = 524<br/>value = [234, 290]<br/>class = y<SUB>1</SUB>>, fillcolor="#399de531"] ;
76 -> 82 ;
83 [label=<DT_away_ats &le; 0.5<br/>gini = 0.4912<br/>samples = 369<br/>value = [160, 209]<br/>class = y<SUB>1</SUB>>, fillcolor="#399de53c"] ;
82 -> 83 ;
84 [label=<gini = 0.4962<br/>samples = 228<br/>value = [104, 124]<br/>class = y<SUB>1</SUB>>, fillcolor="#399de529"] ;
83 -> 84 ;
85 [label=<gini = 0.4788<br/>samples = 141<br/>value = [56, 85]<br/>class = y<SUB>1</SUB>>, fillcolor="#399de557"] ;
83 -> 85 ;
86 [label=<gini = 0.499<br/>samples = 155<br/>value = [74, 81]<br/>class = y<SUB>1</SUB>>, fillcolor="#399de516"] ;
82 -> 86 ;
87 [label=<DT_home_big &le; 0.5<br/>gini = 0.4869<br/>samples = 518<br/>value = [217, 301]<br/>class = y<SUB>1</SUB>>, fillcolor="#399de547"] ;
75 -> 87 ;
88 [label=<DT_home_FT &le; 0.5<br/>gini = 0.4748<br/>samples = 294<br/>value = [114, 180]<br/>class = y<SUB>1</SUB>>, fillcolor="#399de55e"] ;
87 -> 88 ;
89 [label=<gini = 0.4594<br/>samples = 193<br/>value = [69, 124]<br/>class = y<SUB>1</SUB>>, fillcolor="#399de571"] ;
88 -> 89 ;
90 [label=<gini = 0.4941<br/>samples = 101<br/>value = [45, 56]<br/>class = y<SUB>1</SUB>>, fillcolor="#399de532"] ;
88 -> 90 ;
91 [label=<DT_home_FT &le; 0.5<br/>gini = 0.4968<br/>samples = 224<br/>value = [103, 121]<br/>class = y<SUB>1</SUB>>, fillcolor="#399de526"] ;
87 -> 91 ;
92 [label=<gini = 0.4995<br/>samples = 124<br/>value = [60, 64]<br/>class = y<SUB>1</SUB>>, fillcolor="#399de510"] ;
91 -> 92 ;
93 [label=<gini = 0.4902<br/>samples = 100<br/>value = [43, 57]<br/>class = y<SUB>1</SUB>>, fillcolor="#399de53f"] ;
91 -> 93 ;
94 [label=<DT_away_ats &le; 0.5<br/>gini = 0.4987<br/>samples = 632<br/>value = [332, 300]<br/>class = y<SUB>0</SUB>>, fillcolor="#e5813919"] ;
74 -> 94 ;
95 [label=<DT_away_tPAr &le; 0.5<br/>gini = 0.4963<br/>samples = 462<br/>value = [251, 211]<br/>class = y<SUB>0</SUB>>, fillcolor="#e5813929"] ;
94 -> 95 ;
96 [label=<DT_away_reb &le; 0.5<br/>gini = 0.4993<br/>samples = 316<br/>value = [164, 152]<br/>class = y<SUB>0</SUB>>, fillcolor="#e5813913"] ;
95 -> 96 ;
97 [label=<gini = 0.4956<br/>samples = 170<br/>value = [93, 77]<br/>class = y<SUB>0</SUB>>, fillcolor="#e581392c"] ;
96 -> 97 ;
98 [label=<gini = 0.4996<br/>samples = 146<br/>value = [71, 75]<br/>class = y<SUB>1</SUB>>, fillcolor="#399de50e"] ;
96 -> 98 ;
99 [label=<gini = 0.4816<br/>samples = 146<br/>value = [87, 59]<br/>class = y<SUB>0</SUB>>, fillcolor="#e5813952"] ;
95 -> 99 ;
100 [label=<gini = 0.4989<br/>samples = 170<br/>value = [81, 89]<br/>class = y<SUB>1</SUB>>, fillcolor="#399de517"] ;
94 -> 100 ;
101 [label=<DT_away_reb &le; 0.5<br/>gini = 0.4979<br/>samples = 1984<br/>value = [927, 1057]<br/>class = y<SUB>1</SUB>>, fillcolor="#399de51f"] ;
1 -> 101 ;
102 [label=<DT_away_tPAr &le; 0.5<br/>gini = 0.4941<br/>samples = 1353<br/>value = [603, 750]<br/>class = y<SUB>1</SUB>>, fillcolor="#399de532"] ;
101 -> 102 ;
103 [label=<DT_away_ats &le; 0.5<br/>gini = 0.4882<br/>samples = 872<br/>value = [369, 503]<br/>class = y<SUB>1</SUB>>, fillcolor="#399de544"] ;
102 -> 103 ;
104 [label=<DT_away_FT &le; 0.5<br/>gini = 0.494<br/>samples = 550<br/>value = [245, 305]<br/>class = y<SUB>1</SUB>>, fillcolor="#399de532"] ;
103 -> 104 ;
105 [label=<DT_away_public &le; 0.5<br/>gini = 0.4868<br/>samples = 382<br/>value = [160, 222]<br/>class = y<SUB>1</SUB>>, fillcolor="#399de547"] ;
104 -> 105 ;
106 [label=<DT_home_public &le; 0.5<br/>gini = 0.4927<br/>samples = 264<br/>value = [116, 148]<br/>class = y<SUB>1</SUB>>, fillcolor="#399de537"] ;
105 -> 106 ;
107 [label=<gini = 0.4875<br/>samples = 114<br/>value = [48, 66]<br/>class = y<SUB>1</SUB>>, fillcolor="#399de546"] ;
106 -> 107 ;
108 [label=<gini = 0.4956<br/>samples = 150<br/>value = [68, 82]<br/>class = y<SUB>1</SUB>>, fillcolor="#399de52c"] ;
106 -> 108 ;
109 [label=<gini = 0.4677<br/>samples = 118<br/>value = [44, 74]<br/>class = y<SUB>1</SUB>>, fillcolor="#399de567"] ;
105 -> 109 ;
110 [label=<gini = 0.4999<br/>samples = 168<br/>value = [85, 83]<br/>class = y<SUB>0</SUB>>, fillcolor="#e5813906"] ;
104 -> 110 ;
111 [label=<DT_away_FT &le; 0.5<br/>gini = 0.4736<br/>samples = 322<br/>value = [124, 198]<br/>class = y<SUB>1</SUB>>, fillcolor="#399de55f"] ;
103 -> 111 ;
112 [label=<DT_home_reb &le; 0.5<br/>gini = 0.4923<br/>samples = 210<br/>value = [92, 118]<br/>class = y<SUB>1</SUB>>, fillcolor="#399de538"] ;
111 -> 112 ;
113 [label=<gini = 0.4998<br/>samples = 108<br/>value = [53, 55]<br/>class = y<SUB>1</SUB>>, fillcolor="#399de509"] ;
112 -> 113 ;
114 [label=<gini = 0.4723<br/>samples = 102<br/>value = [39, 63]<br/>class = y<SUB>1</SUB>>, fillcolor="#399de561"] ;
112 -> 114 ;
115 [label=<gini = 0.4082<br/>samples = 112<br/>value = [32, 80]<br/>class = y<SUB>1</SUB>>, fillcolor="#399de599"] ;
111 -> 115 ;
116 [label=<DT_home_public &le; 0.5<br/>gini = 0.4996<br/>samples = 481<br/>value = [234, 247]<br/>class = y<SUB>1</SUB>>, fillcolor="#399de50d"] ;
102 -> 116 ;
117 [label=<DT_home_winner &le; 0.5<br/>gini = 0.499<br/>samples = 318<br/>value = [166, 152]<br/>class = y<SUB>0</SUB>>, fillcolor="#e5813916"] ;
116 -> 117 ;
118 [label=<gini = 0.4954<br/>samples = 199<br/>value = [109, 90]<br/>class = y<SUB>0</SUB>>, fillcolor="#e581392c"] ;
117 -> 118 ;
119 [label=<gini = 0.4991<br/>samples = 119<br/>value = [57, 62]<br/>class = y<SUB>1</SUB>>, fillcolor="#399de515"] ;
117 -> 119 ;
120 [label=<gini = 0.4863<br/>samples = 163<br/>value = [68, 95]<br/>class = y<SUB>1</SUB>>, fillcolor="#399de548"] ;
116 -> 120 ;
121 [label=<DT_away_public &le; 0.5<br/>gini = 0.4996<br/>samples = 631<br/>value = [324, 307]<br/>class = y<SUB>0</SUB>>, fillcolor="#e581390d"] ;
101 -> 121 ;
122 [label=<DT_home_public &le; 0.5<br/>gini = 0.4966<br/>samples = 327<br/>value = [177, 150]<br/>class = y<SUB>0</SUB>>, fillcolor="#e5813927"] ;
121 -> 122 ;
123 [label=<gini = 0.4878<br/>samples = 173<br/>value = [100, 73]<br/>class = y<SUB>0</SUB>>, fillcolor="#e5813945"] ;
122 -> 123 ;
124 [label=<gini = 0.5<br/>samples = 154<br/>value = [77, 77]<br/>class = y<SUB>0</SUB>>, fillcolor="#e5813900"] ;
122 -> 124 ;
125 [label=<DT_home_winner &le; 0.5<br/>gini = 0.4995<br/>samples = 304<br/>value = [147, 157]<br/>class = y<SUB>1</SUB>>, fillcolor="#399de510"] ;
121 -> 125 ;
126 [label=<gini = 0.5<br/>samples = 170<br/>value = [85, 85]<br/>class = y<SUB>0</SUB>>, fillcolor="#e5813900"] ;
125 -> 126 ;
127 [label=<gini = 0.4972<br/>samples = 134<br/>value = [62, 72]<br/>class = y<SUB>1</SUB>>, fillcolor="#399de523"] ;
125 -> 127 ;
128 [label=<DT_home_winner &le; 0.5<br/>gini = 0.4983<br/>samples = 5057<br/>value = [2677, 2380]<br/>class = y<SUB>0</SUB>>, fillcolor="#e581391c"] ;
0 -> 128 [labeldistance=2.5, labelangle=-45, headlabel="False"] ;
129 [label=<DT_home_tPAr &le; 0.5<br/>gini = 0.4993<br/>samples = 2449<br/>value = [1269, 1180]<br/>class = y<SUB>0</SUB>>, fillcolor="#e5813912"] ;
128 -> 129 ;
130 [label=<DT_home_reb &le; 0.5<br/>gini = 0.4999<br/>samples = 1827<br/>value = [923, 904]<br/>class = y<SUB>0</SUB>>, fillcolor="#e5813905"] ;
129 -> 130 ;
131 [label=<DT_away_TOVP &le; 0.5<br/>gini = 0.4992<br/>samples = 937<br/>value = [450, 487]<br/>class = y<SUB>1</SUB>>, fillcolor="#399de513"] ;
130 -> 131 ;
132 [label=<DT_away_public &le; 0.5<br/>gini = 0.498<br/>samples = 797<br/>value = [373, 424]<br/>class = y<SUB>1</SUB>>, fillcolor="#399de51f"] ;
131 -> 132 ;
133 [label=<DT_spread_diff &le; 0.5<br/>gini = 0.4934<br/>samples = 549<br/>value = [243, 306]<br/>class = y<SUB>1</SUB>>, fillcolor="#399de534"] ;
132 -> 133 ;
134 [label=<DT_away_reb &le; 0.5<br/>gini = 0.4867<br/>samples = 411<br/>value = [172, 239]<br/>class = y<SUB>1</SUB>>, fillcolor="#399de547"] ;
133 -> 134 ;
135 [label=<DT_away_ats &le; 0.5<br/>gini = 0.494<br/>samples = 265<br/>value = [118, 147]<br/>class = y<SUB>1</SUB>>, fillcolor="#399de532"] ;
134 -> 135 ;
136 [label=<gini = 0.4805<br/>samples = 152<br/>value = [61, 91]<br/>class = y<SUB>1</SUB>>, fillcolor="#399de554"] ;
135 -> 136 ;
137 [label=<gini = 0.5<br/>samples = 113<br/>value = [57, 56]<br/>class = y<SUB>0</SUB>>, fillcolor="#e5813904"] ;
135 -> 137 ;
138 [label=<gini = 0.4661<br/>samples = 146<br/>value = [54, 92]<br/>class = y<SUB>1</SUB>>, fillcolor="#399de569"] ;
134 -> 138 ;
139 [label=<gini = 0.4996<br/>samples = 138<br/>value = [71, 67]<br/>class = y<SUB>0</SUB>>, fillcolor="#e581390e"] ;
133 -> 139 ;
140 [label=<DT_away_reb &le; 0.5<br/>gini = 0.4988<br/>samples = 248<br/>value = [130, 118]<br/>class = y<SUB>0</SUB>>, fillcolor="#e5813918"] ;
132 -> 140 ;
141 [label=<gini = 0.4998<br/>samples = 137<br/>value = [70, 67]<br/>class = y<SUB>0</SUB>>, fillcolor="#e581390b"] ;
140 -> 141 ;
142 [label=<gini = 0.4967<br/>samples = 111<br/>value = [60, 51]<br/>class = y<SUB>0</SUB>>, fillcolor="#e5813926"] ;
140 -> 142 ;
143 [label=<gini = 0.495<br/>samples = 140<br/>value = [77, 63]<br/>class = y<SUB>0</SUB>>, fillcolor="#e581392e"] ;
131 -> 143 ;
144 [label=<DT_away_ats &le; 0.5<br/>gini = 0.498<br/>samples = 890<br/>value = [473, 417]<br/>class = y<SUB>0</SUB>>, fillcolor="#e581391e"] ;
130 -> 144 ;
145 [label=<DT_home_FT &le; 0.5<br/>gini = 0.494<br/>samples = 550<br/>value = [305, 245]<br/>class = y<SUB>0</SUB>>, fillcolor="#e5813932"] ;
144 -> 145 ;
146 [label=<DT_away_tPAr &le; 0.5<br/>gini = 0.4969<br/>samples = 306<br/>value = [165, 141]<br/>class = y<SUB>0</SUB>>, fillcolor="#e5813925"] ;
145 -> 146 ;
147 [label=<gini = 0.4945<br/>samples = 201<br/>value = [111, 90]<br/>class = y<SUB>0</SUB>>, fillcolor="#e5813930"] ;
146 -> 147 ;
148 [label=<gini = 0.4996<br/>samples = 105<br/>value = [54, 51]<br/>class = y<SUB>0</SUB>>, fillcolor="#e581390e"] ;
146 -> 148 ;
149 [label=<DT_home_public &le; 0.5<br/>gini = 0.4891<br/>samples = 244<br/>value = [140, 104]<br/>class = y<SUB>0</SUB>>, fillcolor="#e5813942"] ;
145 -> 149 ;
150 [label=<gini = 0.4836<br/>samples = 127<br/>value = [75, 52]<br/>class = y<SUB>0</SUB>>, fillcolor="#e581394e"] ;
149 -> 150 ;
151 [label=<gini = 0.4938<br/>samples = 117<br/>value = [65, 52]<br/>class = y<SUB>0</SUB>>, fillcolor="#e5813933"] ;
149 -> 151 ;
152 [label=<DT_away_FT &le; 0.5<br/>gini = 0.4999<br/>samples = 340<br/>value = [168, 172]<br/>class = y<SUB>1</SUB>>, fillcolor="#399de506"] ;
144 -> 152 ;
153 [label=<DT_home_big &le; 0.5<br/>gini = 0.4984<br/>samples = 233<br/>value = [110, 123]<br/>class = y<SUB>1</SUB>>, fillcolor="#399de51b"] ;
152 -> 153 ;
154 [label=<gini = 0.4998<br/>samples = 112<br/>value = [55, 57]<br/>class = y<SUB>1</SUB>>, fillcolor="#399de509"] ;
153 -> 154 ;
155 [label=<gini = 0.4959<br/>samples = 121<br/>value = [55, 66]<br/>class = y<SUB>1</SUB>>, fillcolor="#399de52a"] ;
153 -> 155 ;
156 [label=<gini = 0.4965<br/>samples = 107<br/>value = [58, 49]<br/>class = y<SUB>0</SUB>>, fillcolor="#e5813928"] ;
152 -> 156 ;
157 [label=<DT_home_big &le; 0.5<br/>gini = 0.4937<br/>samples = 622<br/>value = [346, 276]<br/>class = y<SUB>0</SUB>>, fillcolor="#e5813934"] ;
129 -> 157 ;
158 [label=<DT_away_tPAr &le; 0.5<br/>gini = 0.4846<br/>samples = 359<br/>value = [211, 148]<br/>class = y<SUB>0</SUB>>, fillcolor="#e581394c"] ;
157 -> 158 ;
159 [label=<DT_away_FT &le; 0.5<br/>gini = 0.4764<br/>samples = 253<br/>value = [154, 99]<br/>class = y<SUB>0</SUB>>, fillcolor="#e581395b"] ;
158 -> 159 ;
160 [label=<gini = 0.4805<br/>samples = 147<br/>value = [88, 59]<br/>class = y<SUB>0</SUB>>, fillcolor="#e5813954"] ;
159 -> 160 ;
161 [label=<gini = 0.4699<br/>samples = 106<br/>value = [66, 40]<br/>class = y<SUB>0</SUB>>, fillcolor="#e5813964"] ;
159 -> 161 ;
162 [label=<gini = 0.4972<br/>samples = 106<br/>value = [57, 49]<br/>class = y<SUB>0</SUB>>, fillcolor="#e5813924"] ;
158 -> 162 ;
163 [label=<DT_home_public &le; 0.5<br/>gini = 0.4996<br/>samples = 263<br/>value = [135, 128]<br/>class = y<SUB>0</SUB>>, fillcolor="#e581390d"] ;
157 -> 163 ;
164 [label=<gini = 0.4981<br/>samples = 130<br/>value = [69, 61]<br/>class = y<SUB>0</SUB>>, fillcolor="#e581391e"] ;
163 -> 164 ;
165 [label=<gini = 0.5<br/>samples = 133<br/>value = [66, 67]<br/>class = y<SUB>1</SUB>>, fillcolor="#399de504"] ;
163 -> 165 ;
166 [label=<DT_away_FT &le; 0.5<br/>gini = 0.4968<br/>samples = 2608<br/>value = [1408, 1200]<br/>class = y<SUB>0</SUB>>, fillcolor="#e5813926"] ;
128 -> 166 ;
167 [label=<DT_home_public &le; 0.5<br/>gini = 0.4946<br/>samples = 1659<br/>value = [916, 743]<br/>class = y<SUB>0</SUB>>, fillcolor="#e5813930"] ;
166 -> 167 ;
168 [label=<DT_home_tPAr &le; 0.5<br/>gini = 0.4883<br/>samples = 1001<br/>value = [577, 424]<br/>class = y<SUB>0</SUB>>, fillcolor="#e5813944"] ;
167 -> 168 ;
169 [label=<DT_away_reb &le; 0.5<br/>gini = 0.4928<br/>samples = 743<br/>value = [416, 327]<br/>class = y<SUB>0</SUB>>, fillcolor="#e5813937"] ;
168 -> 169 ;
170 [label=<DT_home_reb &le; 0.5<br/>gini = 0.4886<br/>samples = 582<br/>value = [335, 247]<br/>class = y<SUB>0</SUB>>, fillcolor="#e5813943"] ;
169 -> 170 ;
171 [label=<DT_away_public &le; 0.5<br/>gini = 0.4778<br/>samples = 261<br/>value = [158, 103]<br/>class = y<SUB>0</SUB>>, fillcolor="#e5813959"] ;
170 -> 171 ;
172 [label=<gini = 0.451<br/>samples = 131<br/>value = [86, 45]<br/>class = y<SUB>0</SUB>>, fillcolor="#e581397a"] ;
171 -> 172 ;
173 [label=<gini = 0.4942<br/>samples = 130<br/>value = [72, 58]<br/>class = y<SUB>0</SUB>>, fillcolor="#e5813932"] ;
171 -> 173 ;
174 [label=<DT_away_tPAr &le; 0.5<br/>gini = 0.4947<br/>samples = 321<br/>value = [177, 144]<br/>class = y<SUB>0</SUB>>, fillcolor="#e5813930"] ;
170 -> 174 ;
175 [label=<gini = 0.4976<br/>samples = 200<br/>value = [107, 93]<br/>class = y<SUB>0</SUB>>, fillcolor="#e5813921"] ;
174 -> 175 ;
176 [label=<gini = 0.4877<br/>samples = 121<br/>value = [70, 51]<br/>class = y<SUB>0</SUB>>, fillcolor="#e5813945"] ;
174 -> 176 ;
177 [label=<gini = 0.5<br/>samples = 161<br/>value = [81, 80]<br/>class = y<SUB>0</SUB>>, fillcolor="#e5813903"] ;
169 -> 177 ;
178 [label=<DT_away_movement &le; 0.5<br/>gini = 0.4692<br/>samples = 258<br/>value = [161, 97]<br/>class = y<SUB>0</SUB>>, fillcolor="#e5813965"] ;
168 -> 178 ;
179 [label=<gini = 0.4502<br/>samples = 149<br/>value = [98, 51]<br/>class = y<SUB>0</SUB>>, fillcolor="#e581397a"] ;
178 -> 179 ;
180 [label=<gini = 0.4878<br/>samples = 109<br/>value = [63, 46]<br/>class = y<SUB>0</SUB>>, fillcolor="#e5813945"] ;
178 -> 180 ;
181 [label=<DT_away_movement &le; 0.5<br/>gini = 0.4995<br/>samples = 658<br/>value = [339, 319]<br/>class = y<SUB>0</SUB>>, fillcolor="#e581390f"] ;
167 -> 181 ;
182 [label=<DT_home_tPAr &le; 0.5<br/>gini = 0.4988<br/>samples = 435<br/>value = [207, 228]<br/>class = y<SUB>1</SUB>>, fillcolor="#399de517"] ;
181 -> 182 ;
183 [label=<DT_home_FT &le; 0.5<br/>gini = 0.4987<br/>samples = 310<br/>value = [163, 147]<br/>class = y<SUB>0</SUB>>, fillcolor="#e5813919"] ;
182 -> 183 ;
184 [label=<gini = 0.4998<br/>samples = 192<br/>value = [94, 98]<br/>class = y<SUB>1</SUB>>, fillcolor="#399de50a"] ;
183 -> 184 ;
185 [label=<gini = 0.4856<br/>samples = 118<br/>value = [69, 49]<br/>class = y<SUB>0</SUB>>, fillcolor="#e581394a"] ;
183 -> 185 ;
186 [label=<gini = 0.4562<br/>samples = 125<br/>value = [44, 81]<br/>class = y<SUB>1</SUB>>, fillcolor="#399de574"] ;
182 -> 186 ;
187 [label=<gini = 0.4831<br/>samples = 223<br/>value = [132, 91]<br/>class = y<SUB>0</SUB>>, fillcolor="#e581394f"] ;
181 -> 187 ;
188 [label=<DT_away_ats &le; 0.5<br/>gini = 0.4993<br/>samples = 949<br/>value = [492, 457]<br/>class = y<SUB>0</SUB>>, fillcolor="#e5813912"] ;
166 -> 188 ;
189 [label=<DT_home_public &le; 0.5<br/>gini = 0.4953<br/>samples = 611<br/>value = [335, 276]<br/>class = y<SUB>0</SUB>>, fillcolor="#e581392d"] ;
188 -> 189 ;
190 [label=<DT_home_tPAr &le; 0.5<br/>gini = 0.4989<br/>samples = 405<br/>value = [212, 193]<br/>class = y<SUB>0</SUB>>, fillcolor="#e5813917"] ;
189 -> 190 ;
191 [label=<DT_home_FT &le; 0.5<br/>gini = 0.4965<br/>samples = 286<br/>value = [155, 131]<br/>class = y<SUB>0</SUB>>, fillcolor="#e5813927"] ;
190 -> 191 ;
192 [label=<gini = 0.5<br/>samples = 182<br/>value = [91, 91]<br/>class = y<SUB>0</SUB>>, fillcolor="#e5813900"] ;
191 -> 192 ;
193 [label=<gini = 0.4734<br/>samples = 104<br/>value = [64, 40]<br/>class = y<SUB>0</SUB>>, fillcolor="#e5813960"] ;
191 -> 193 ;
194 [label=<gini = 0.4991<br/>samples = 119<br/>value = [57, 62]<br/>class = y<SUB>1</SUB>>, fillcolor="#399de515"] ;
190 -> 194 ;
195 [label=<gini = 0.4811<br/>samples = 206<br/>value = [123, 83]<br/>class = y<SUB>0</SUB>>, fillcolor="#e5813953"] ;
189 -> 195 ;
196 [label=<DT_home_FT &le; 0.5<br/>gini = 0.4975<br/>samples = 338<br/>value = [157, 181]<br/>class = y<SUB>1</SUB>>, fillcolor="#399de522"] ;
188 -> 196 ;
197 [label=<gini = 0.5<br/>samples = 203<br/>value = [102, 101]<br/>class = y<SUB>0</SUB>>, fillcolor="#e5813903"] ;
196 -> 197 ;
198 [label=<gini = 0.4829<br/>samples = 135<br/>value = [55, 80]<br/>class = y<SUB>1</SUB>>, fillcolor="#399de550"] ;
196 -> 198 ;
}