digraph Tree {
node [shape=box, style="filled, rounded", color="black", fontname=helvetica] ;
edge [fontname=helvetica] ;
0 [label=<DT_away_movement &le; 0.5<br/>gini = 0.4999<br/>samples = 15026<br/>value = [7642, 7384]<br/>class = y<SUB>0</SUB>>, fillcolor="#e5813909"] ;
1 [label=<DT_away_ats &le; 0.5<br/>gini = 0.4993<br/>samples = 9859<br/>value = [5108, 4751]<br/>class = y<SUB>0</SUB>>, fillcolor="#e5813912"] ;
0 -> 1 [labeldistance=2.5, labelangle=45, headlabel="True"] ;
2 [label=<DT_home_tPAr &le; 0.5<br/>gini = 0.4988<br/>samples = 6379<br/>value = [3343, 3036]<br/>class = y<SUB>0</SUB>>, fillcolor="#e5813917"] ;
1 -> 2 ;
3 [label=<DT_home_reb &le; 0.5<br/>gini = 0.4982<br/>samples = 4519<br/>value = [2396, 2123]<br/>class = y<SUB>0</SUB>>, fillcolor="#e581391d"] ;
2 -> 3 ;
4 [label=<DT_home_ats &le; 0.5<br/>gini = 0.4993<br/>samples = 2539<br/>value = [1316, 1223]<br/>class = y<SUB>0</SUB>>, fillcolor="#e5813912"] ;
3 -> 4 ;
5 [label=<DT_home_winner &le; 0.5<br/>gini = 0.4987<br/>samples = 1797<br/>value = [945, 852]<br/>class = y<SUB>0</SUB>>, fillcolor="#e5813919"] ;
4 -> 5 ;
6 [label=<gini = 0.4983<br/>samples = 1154<br/>value = [611, 543]<br/>class = y<SUB>0</SUB>>, fillcolor="#e581391c"] ;
5 -> 6 ;
7 [label=<gini = 0.4992<br/>samples = 643<br/>value = [334, 309]<br/>class = y<SUB>0</SUB>>, fillcolor="#e5813913"] ;
5 -> 7 ;
8 [label=<gini = 0.5<br/>samples = 742<br/>value = [371, 371]<br/>class = y<SUB>0</SUB>>, fillcolor="#e5813900"] ;
4 -> 8 ;
9 [label=<DT_home_public &le; 0.5<br/>gini = 0.4959<br/>samples = 1980<br/>value = [1080, 900]<br/>class = y<SUB>0</SUB>>, fillcolor="#e581392a"] ;
3 -> 9 ;
10 [label=<gini = 0.4947<br/>samples = 1153<br/>value = [636, 517]<br/>class = y<SUB>0</SUB>>, fillcolor="#e5813930"] ;
9 -> 10 ;
11 [label=<gini = 0.4973<br/>samples = 827<br/>value = [444, 383]<br/>class = y<SUB>0</SUB>>, fillcolor="#e5813923"] ;
9 -> 11 ;
12 [label=<DT_home_reb &le; 0.5<br/>gini = 0.4998<br/>samples = 1860<br/>value = [947, 913]<br/>class = y<SUB>0</SUB>>, fillcolor="#e5813909"] ;
2 -> 12 ;
13 [label=<gini = 0.4989<br/>samples = 1256<br/>value = [658, 598]<br/>class = y<SUB>0</SUB>>, fillcolor="#e5813917"] ;
12 -> 13 ;
14 [label=<gini = 0.4991<br/>samples = 604<br/>value = [289, 315]<br/>class = y<SUB>1</SUB>>, fillcolor="#399de515"] ;
12 -> 14 ;
15 [label=<DT_home_winner &le; 0.5<br/>gini = 0.4999<br/>samples = 3480<br/>value = [1765, 1715]<br/>class = y<SUB>0</SUB>>, fillcolor="#e5813907"] ;
1 -> 15 ;
16 [label=<DT_home_ats &le; 0.5<br/>gini = 0.4999<br/>samples = 2627<br/>value = [1295, 1332]<br/>class = y<SUB>1</SUB>>, fillcolor="#399de507"] ;
15 -> 16 ;
17 [label=<DT_away_public &le; 0.5<br/>gini = 0.5<br/>samples = 1762<br/>value = [885, 877]<br/>class = y<SUB>0</SUB>>, fillcolor="#e5813902"] ;
16 -> 17 ;
18 [label=<gini = 0.4999<br/>samples = 1015<br/>value = [501, 514]<br/>class = y<SUB>1</SUB>>, fillcolor="#399de506"] ;
17 -> 18 ;
19 [label=<gini = 0.4996<br/>samples = 747<br/>value = [384, 363]<br/>class = y<SUB>0</SUB>>, fillcolor="#e581390e"] ;
17 -> 19 ;
20 [label=<gini = 0.4986<br/>samples = 865<br/>value = [410, 455]<br/>class = y<SUB>1</SUB>>, fillcolor="#399de519"] ;
16 -> 20 ;
21 [label=<gini = 0.4948<br/>samples = 853<br/>value = [470, 383]<br/>class = y<SUB>0</SUB>>, fillcolor="#e581392f"] ;
15 -> 21 ;
22 [label=<DT_home_ats &le; 0.5<br/>gini = 0.4998<br/>samples = 5167<br/>value = [2534, 2633]<br/>class = y<SUB>1</SUB>>, fillcolor="#399de50a"] ;
0 -> 22 [labeldistance=2.5, labelangle=-45, headlabel="False"] ;
23 [label=<DT_home_tPAr &le; 0.5<br/>gini = 0.4982<br/>samples = 3263<br/>value = [1533, 1730]<br/>class = y<SUB>1</SUB>>, fillcolor="#399de51d"] ;
22 -> 23 ;
24 [label=<DT_away_public &le; 0.5<br/>gini = 0.4962<br/>samples = 2313<br/>value = [1056, 1257]<br/>class = y<SUB>1</SUB>>, fillcolor="#399de529"] ;
23 -> 24 ;
25 [label=<gini = 0.4985<br/>samples = 1137<br/>value = [537, 600]<br/>class = y<SUB>1</SUB>>, fillcolor="#399de51b"] ;
24 -> 25 ;
26 [label=<DT_home_winner &le; 0.5<br/>gini = 0.4931<br/>samples = 1176<br/>value = [519, 657]<br/>class = y<SUB>1</SUB>>, fillcolor="#399de536"] ;
24 -> 26 ;
27 [label=<gini = 0.4935<br/>samples = 580<br/>value = [257, 323]<br/>class = y<SUB>1</SUB>>, fillcolor="#399de534"] ;
26 -> 27 ;
28 [label=<gini = 0.4927<br/>samples = 596<br/>value = [262, 334]<br/>class = y<SUB>1</SUB>>, fillcolor="#399de537"] ;
26 -> 28 ;
29 [label=<gini = 0.5<br/>samples = 950<br/>value = [477, 473]<br/>class = y<SUB>0</SUB>>, fillcolor="#e5813902"] ;
23 -> 29 ;
30 [label=<DT_home_public &le; 0.5<br/>gini = 0.4987<br/>samples = 1904<br/>value = [1001, 903]<br/>class = y<SUB>0</SUB>>, fillcolor="#e5813919"] ;
22 -> 30 ;
31 [label=<DT_away_public &le; 0.5<br/>gini = 0.4972<br/>samples = 1284<br/>value = [690, 594]<br/>class = y<SUB>0</SUB>>, fillcolor="#e5813923"] ;
30 -> 31 ;
32 [label=<gini = 0.4981<br/>samples = 622<br/>value = [330, 292]<br/>class = y<SUB>0</SUB>>, fillcolor="#e581391d"] ;
31 -> 32 ;
33 [label=<gini = 0.4962<br/>samples = 662<br/>value = [360, 302]<br/>class = y<SUB>0</SUB>>, fillcolor="#e5813929"] ;
31 -> 33 ;
34 [label=<gini = 0.5<br/>samples = 620<br/>value = [311, 309]<br/>class = y<SUB>0</SUB>>, fillcolor="#e5813902"] ;
30 -> 34 ;
}