digraph Tree {
node [shape=box, style="filled, rounded", color="black", fontname=helvetica] ;
edge [fontname=helvetica] ;
0 [label=<DT_home_ats &le; 0.5<br/>gini = 0.5<br/>samples = 2105<br/>value = [1041, 1064]<br/>class = y<SUB>1</SUB>>, fillcolor="#399de506"] ;
1 [label=<DT_home_public &le; 0.5<br/>gini = 0.499<br/>samples = 1213<br/>value = [577, 636]<br/>class = y<SUB>1</SUB>>, fillcolor="#399de518"] ;
0 -> 1 [labeldistance=2.5, labelangle=45, headlabel="True"] ;
2 [label=<DT_home_reb &le; 0.5<br/>gini = 0.5<br/>samples = 612<br/>value = [304, 308]<br/>class = y<SUB>1</SUB>>, fillcolor="#399de503"] ;
1 -> 2 ;
3 [label=<DT_home_winner &le; 0.5<br/>gini = 0.5<br/>samples = 389<br/>value = [199, 190]<br/>class = y<SUB>0</SUB>>, fillcolor="#e581390c"] ;
2 -> 3 ;
4 [label=<gini = 0.5<br/>samples = 243<br/>value = [125, 118]<br/>class = y<SUB>0</SUB>>, fillcolor="#e581390e"] ;
3 -> 4 ;
5 [label=<gini = 0.5<br/>samples = 146<br/>value = [74, 72]<br/>class = y<SUB>0</SUB>>, fillcolor="#e5813907"] ;
3 -> 5 ;
6 [label=<DT_home_winner &le; 0.5<br/>gini = 0.498<br/>samples = 223<br/>value = [105, 118]<br/>class = y<SUB>1</SUB>>, fillcolor="#399de51c"] ;
2 -> 6 ;
7 [label=<gini = 0.499<br/>samples = 170<br/>value = [81, 89]<br/>class = y<SUB>1</SUB>>, fillcolor="#399de517"] ;
6 -> 7 ;
8 [label=<gini = 0.496<br/>samples = 53<br/>value = [24, 29]<br/>class = y<SUB>1</SUB>>, fillcolor="#399de52c"] ;
6 -> 8 ;
9 [label=<DT_home_winner &le; 0.5<br/>gini = 0.496<br/>samples = 601<br/>value = [273, 328]<br/>class = y<SUB>1</SUB>>, fillcolor="#399de52b"] ;
1 -> 9 ;
10 [label=<DT_home_reb &le; 0.5<br/>gini = 0.498<br/>samples = 490<br/>value = [229, 261]<br/>class = y<SUB>1</SUB>>, fillcolor="#399de51f"] ;
9 -> 10 ;
11 [label=<gini = 0.498<br/>samples = 253<br/>value = [118, 135]<br/>class = y<SUB>1</SUB>>, fillcolor="#399de520"] ;
10 -> 11 ;
12 [label=<gini = 0.498<br/>samples = 237<br/>value = [111, 126]<br/>class = y<SUB>1</SUB>>, fillcolor="#399de51e"] ;
10 -> 12 ;
13 [label=<DT_home_reb &le; 0.5<br/>gini = 0.479<br/>samples = 111<br/>value = [44, 67]<br/>class = y<SUB>1</SUB>>, fillcolor="#399de558"] ;
9 -> 13 ;
14 [label=<gini = 0.497<br/>samples = 61<br/>value = [28, 33]<br/>class = y<SUB>1</SUB>>, fillcolor="#399de527"] ;
13 -> 14 ;
15 [label=<gini = 0.435<br/>samples = 50<br/>value = [16, 34]<br/>class = y<SUB>1</SUB>>, fillcolor="#399de587"] ;
13 -> 15 ;
16 [label=<DT_home_winner &le; 0.5<br/>gini = 0.499<br/>samples = 892<br/>value = [464, 428]<br/>class = y<SUB>0</SUB>>, fillcolor="#e5813914"] ;
0 -> 16 [labeldistance=2.5, labelangle=-45, headlabel="False"] ;
17 [label=<DT_home_public &le; 0.5<br/>gini = 0.498<br/>samples = 620<br/>value = [330, 290]<br/>class = y<SUB>0</SUB>>, fillcolor="#e581391f"] ;
16 -> 17 ;
18 [label=<DT_home_reb &le; 0.5<br/>gini = 0.493<br/>samples = 279<br/>value = [156, 123]<br/>class = y<SUB>0</SUB>>, fillcolor="#e5813936"] ;
17 -> 18 ;
19 [label=<gini = 0.496<br/>samples = 141<br/>value = [77, 64]<br/>class = y<SUB>0</SUB>>, fillcolor="#e581392b"] ;
18 -> 19 ;
20 [label=<gini = 0.489<br/>samples = 138<br/>value = [79, 59]<br/>class = y<SUB>0</SUB>>, fillcolor="#e5813941"] ;
18 -> 20 ;
21 [label=<DT_home_reb &le; 0.5<br/>gini = 0.5<br/>samples = 341<br/>value = [174, 167]<br/>class = y<SUB>0</SUB>>, fillcolor="#e581390a"] ;
17 -> 21 ;
22 [label=<gini = 0.499<br/>samples = 167<br/>value = [88, 79]<br/>class = y<SUB>0</SUB>>, fillcolor="#e581391a"] ;
21 -> 22 ;
23 [label=<gini = 0.5<br/>samples = 174<br/>value = [86, 88]<br/>class = y<SUB>1</SUB>>, fillcolor="#399de506"] ;
21 -> 23 ;
24 [label=<DT_home_public &le; 0.5<br/>gini = 0.5<br/>samples = 272<br/>value = [134, 138]<br/>class = y<SUB>1</SUB>>, fillcolor="#399de507"] ;
16 -> 24 ;
25 [label=<DT_home_reb &le; 0.5<br/>gini = 0.496<br/>samples = 141<br/>value = [64, 77]<br/>class = y<SUB>1</SUB>>, fillcolor="#399de52b"] ;
24 -> 25 ;
26 [label=<gini = 0.5<br/>samples = 98<br/>value = [49, 49]<br/>class = y<SUB>0</SUB>>, fillcolor="#e5813900"] ;
25 -> 26 ;
27 [label=<gini = 0.454<br/>samples = 43<br/>value = [15, 28]<br/>class = y<SUB>1</SUB>>, fillcolor="#399de576"] ;
25 -> 27 ;
28 [label=<DT_home_reb &le; 0.5<br/>gini = 0.498<br/>samples = 131<br/>value = [70, 61]<br/>class = y<SUB>0</SUB>>, fillcolor="#e5813921"] ;
24 -> 28 ;
29 [label=<gini = 0.493<br/>samples = 61<br/>value = [34, 27]<br/>class = y<SUB>0</SUB>>, fillcolor="#e5813934"] ;
28 -> 29 ;
30 [label=<gini = 0.5<br/>samples = 70<br/>value = [36, 34]<br/>class = y<SUB>0</SUB>>, fillcolor="#e581390e"] ;
28 -> 30 ;
}