digraph Tree {
node [shape=box, style="filled, rounded", color="black", fontname=helvetica] ;
edge [fontname=helvetica] ;
0 [label=<DT_home_ats &le; 0.5<br/>gini = 0.5<br/>samples = 2366<br/>value = [1175, 1191]<br/>class = y<SUB>1</SUB>>, fillcolor="#399de503"] ;
1 [label=<DT_home_public &le; 0.5<br/>gini = 0.499<br/>samples = 1362<br/>value = [650, 712]<br/>class = y<SUB>1</SUB>>, fillcolor="#399de516"] ;
0 -> 1 [labeldistance=2.5, labelangle=45, headlabel="True"] ;
2 [label=<DT_home_reb &le; 0.5<br/>gini = 0.5<br/>samples = 711<br/>value = [353, 358]<br/>class = y<SUB>1</SUB>>, fillcolor="#399de504"] ;
1 -> 2 ;
3 [label=<DT_home_winner &le; 0.5<br/>gini = 0.4999<br/>samples = 457<br/>value = [232, 225]<br/>class = y<SUB>0</SUB>>, fillcolor="#e5813908"] ;
2 -> 3 ;
4 [label=<gini = 0.4993<br/>samples = 301<br/>value = [156, 145]<br/>class = y<SUB>0</SUB>>, fillcolor="#e5813912"] ;
3 -> 4 ;
5 [label=<gini = 0.4997<br/>samples = 156<br/>value = [76, 80]<br/>class = y<SUB>1</SUB>>, fillcolor="#399de50d"] ;
3 -> 5 ;
6 [label=<DT_home_winner &le; 0.5<br/>gini = 0.4989<br/>samples = 254<br/>value = [121, 133]<br/>class = y<SUB>1</SUB>>, fillcolor="#399de517"] ;
2 -> 6 ;
7 [label=<gini = 0.4979<br/>samples = 184<br/>value = [86, 98]<br/>class = y<SUB>1</SUB>>, fillcolor="#399de51f"] ;
6 -> 7 ;
8 [label=<gini = 0.5<br/>samples = 70<br/>value = [35, 35]<br/>class = y<SUB>0</SUB>>, fillcolor="#e5813900"] ;
6 -> 8 ;
9 [label=<DT_home_winner &le; 0.5<br/>gini = 0.4962<br/>samples = 651<br/>value = [297, 354]<br/>class = y<SUB>1</SUB>>, fillcolor="#399de529"] ;
1 -> 9 ;
10 [label=<DT_home_reb &le; 0.5<br/>gini = 0.4978<br/>samples = 514<br/>value = [240, 274]<br/>class = y<SUB>1</SUB>>, fillcolor="#399de520"] ;
9 -> 10 ;
11 [label=<gini = 0.4971<br/>samples = 264<br/>value = [122, 142]<br/>class = y<SUB>1</SUB>>, fillcolor="#399de524"] ;
10 -> 11 ;
12 [label=<gini = 0.4984<br/>samples = 250<br/>value = [118, 132]<br/>class = y<SUB>1</SUB>>, fillcolor="#399de51b"] ;
10 -> 12 ;
13 [label=<DT_home_reb &le; 0.5<br/>gini = 0.4859<br/>samples = 137<br/>value = [57, 80]<br/>class = y<SUB>1</SUB>>, fillcolor="#399de549"] ;
9 -> 13 ;
14 [label=<gini = 0.4965<br/>samples = 72<br/>value = [33, 39]<br/>class = y<SUB>1</SUB>>, fillcolor="#399de527"] ;
13 -> 14 ;
15 [label=<gini = 0.4658<br/>samples = 65<br/>value = [24, 41]<br/>class = y<SUB>1</SUB>>, fillcolor="#399de56a"] ;
13 -> 15 ;
16 [label=<DT_home_winner &le; 0.5<br/>gini = 0.499<br/>samples = 1004<br/>value = [525, 479]<br/>class = y<SUB>0</SUB>>, fillcolor="#e5813916"] ;
0 -> 16 [labeldistance=2.5, labelangle=-45, headlabel="False"] ;
17 [label=<DT_home_public &le; 0.5<br/>gini = 0.4982<br/>samples = 658<br/>value = [349, 309]<br/>class = y<SUB>0</SUB>>, fillcolor="#e581391d"] ;
16 -> 17 ;
18 [label=<DT_home_reb &le; 0.5<br/>gini = 0.492<br/>samples = 293<br/>value = [165, 128]<br/>class = y<SUB>0</SUB>>, fillcolor="#e5813939"] ;
17 -> 18 ;
19 [label=<gini = 0.4952<br/>samples = 153<br/>value = [84, 69]<br/>class = y<SUB>0</SUB>>, fillcolor="#e581392e"] ;
18 -> 19 ;
20 [label=<gini = 0.4877<br/>samples = 140<br/>value = [81, 59]<br/>class = y<SUB>0</SUB>>, fillcolor="#e5813945"] ;
18 -> 20 ;
21 [label=<DT_home_reb &le; 0.5<br/>gini = 0.5<br/>samples = 365<br/>value = [184, 181]<br/>class = y<SUB>0</SUB>>, fillcolor="#e5813904"] ;
17 -> 21 ;
22 [label=<gini = 0.4995<br/>samples = 182<br/>value = [94, 88]<br/>class = y<SUB>0</SUB>>, fillcolor="#e5813910"] ;
21 -> 22 ;
23 [label=<gini = 0.4999<br/>samples = 183<br/>value = [90, 93]<br/>class = y<SUB>1</SUB>>, fillcolor="#399de508"] ;
21 -> 23 ;
24 [label=<DT_home_public &le; 0.5<br/>gini = 0.4998<br/>samples = 346<br/>value = [176, 170]<br/>class = y<SUB>0</SUB>>, fillcolor="#e5813909"] ;
16 -> 24 ;
25 [label=<DT_home_reb &le; 0.5<br/>gini = 0.4982<br/>samples = 185<br/>value = [87, 98]<br/>class = y<SUB>1</SUB>>, fillcolor="#399de51d"] ;
24 -> 25 ;
26 [label=<gini = 0.4988<br/>samples = 120<br/>value = [63, 57]<br/>class = y<SUB>0</SUB>>, fillcolor="#e5813918"] ;
25 -> 26 ;
27 [label=<gini = 0.4658<br/>samples = 65<br/>value = [24, 41]<br/>class = y<SUB>1</SUB>>, fillcolor="#399de56a"] ;
25 -> 27 ;
28 [label=<DT_home_reb &le; 0.5<br/>gini = 0.4944<br/>samples = 161<br/>value = [89, 72]<br/>class = y<SUB>0</SUB>>, fillcolor="#e5813931"] ;
24 -> 28 ;
29 [label=<gini = 0.4965<br/>samples = 72<br/>value = [39, 33]<br/>class = y<SUB>0</SUB>>, fillcolor="#e5813927"] ;
28 -> 29 ;
30 [label=<gini = 0.4924<br/>samples = 89<br/>value = [50, 39]<br/>class = y<SUB>0</SUB>>, fillcolor="#e5813938"] ;
28 -> 30 ;
}