digraph Tree {
node [shape=box, style="filled, rounded", color="black", fontname=helvetica] ;
edge [fontname=helvetica] ;
0 [label=<DT_home_ats &le; 0.5<br/>gini = 0.5<br/>samples = 17477<br/>value = [8873, 8604]<br/>class = y<SUB>0</SUB>>, fillcolor="#e5813908"] ;
1 [label=<DT_away_movement &le; 0.5<br/>gini = 0.5<br/>samples = 11380<br/>value = [5697, 5683]<br/>class = y<SUB>0</SUB>>, fillcolor="#e5813901"] ;
0 -> 1 [labeldistance=2.5, labelangle=45, headlabel="True"] ;
2 [label=<DT_away_reb &le; 0.5<br/>gini = 0.5<br/>samples = 7569<br/>value = [3880, 3689]<br/>class = y<SUB>0</SUB>>, fillcolor="#e581390d"] ;
1 -> 2 ;
3 [label=<DT_away_ats &le; 0.5<br/>gini = 0.5<br/>samples = 5116<br/>value = [2581, 2535]<br/>class = y<SUB>0</SUB>>, fillcolor="#e5813905"] ;
2 -> 3 ;
4 [label=<gini = 0.499<br/>samples = 3486<br/>value = [1804, 1682]<br/>class = y<SUB>0</SUB>>, fillcolor="#e5813911"] ;
3 -> 4 ;
5 [label=<gini = 0.499<br/>samples = 1630<br/>value = [777, 853]<br/>class = y<SUB>1</SUB>>, fillcolor="#399de517"] ;
3 -> 5 ;
6 [label=<DT_home_tPAr &le; 0.5<br/>gini = 0.498<br/>samples = 2453<br/>value = [1299, 1154]<br/>class = y<SUB>0</SUB>>, fillcolor="#e581391c"] ;
2 -> 6 ;
7 [label=<gini = 0.499<br/>samples = 1520<br/>value = [794, 726]<br/>class = y<SUB>0</SUB>>, fillcolor="#e5813916"] ;
6 -> 7 ;
8 [label=<gini = 0.497<br/>samples = 933<br/>value = [505, 428]<br/>class = y<SUB>0</SUB>>, fillcolor="#e5813927"] ;
6 -> 8 ;
9 [label=<DT_home_tPAr &le; 0.5<br/>gini = 0.499<br/>samples = 3811<br/>value = [1817, 1994]<br/>class = y<SUB>1</SUB>>, fillcolor="#399de517"] ;
1 -> 9 ;
10 [label=<DT_home_winner &le; 0.5<br/>gini = 0.497<br/>samples = 2687<br/>value = [1247, 1440]<br/>class = y<SUB>1</SUB>>, fillcolor="#399de522"] ;
9 -> 10 ;
11 [label=<gini = 0.497<br/>samples = 1343<br/>value = [616, 727]<br/>class = y<SUB>1</SUB>>, fillcolor="#399de527"] ;
10 -> 11 ;
12 [label=<gini = 0.498<br/>samples = 1344<br/>value = [631, 713]<br/>class = y<SUB>1</SUB>>, fillcolor="#399de51d"] ;
10 -> 12 ;
13 [label=<gini = 0.5<br/>samples = 1124<br/>value = [570, 554]<br/>class = y<SUB>0</SUB>>, fillcolor="#e5813907"] ;
9 -> 13 ;
14 [label=<DT_home_winner &le; 0.5<br/>gini = 0.499<br/>samples = 6097<br/>value = [3176, 2921]<br/>class = y<SUB>0</SUB>>, fillcolor="#e5813914"] ;
0 -> 14 [labeldistance=2.5, labelangle=-45, headlabel="False"] ;
15 [label=<DT_away_ats &le; 0.5<br/>gini = 0.5<br/>samples = 3316<br/>value = [1678, 1638]<br/>class = y<SUB>0</SUB>>, fillcolor="#e5813906"] ;
14 -> 15 ;
16 [label=<gini = 0.499<br/>samples = 1947<br/>value = [1022, 925]<br/>class = y<SUB>0</SUB>>, fillcolor="#e5813918"] ;
15 -> 16 ;
17 [label=<gini = 0.499<br/>samples = 1369<br/>value = [656, 713]<br/>class = y<SUB>1</SUB>>, fillcolor="#399de514"] ;
15 -> 17 ;
18 [label=<DT_away_ats &le; 0.5<br/>gini = 0.497<br/>samples = 2781<br/>value = [1498, 1283]<br/>class = y<SUB>0</SUB>>, fillcolor="#e5813925"] ;
14 -> 18 ;
19 [label=<DT_away_movement &le; 0.5<br/>gini = 0.498<br/>samples = 2002<br/>value = [1066, 936]<br/>class = y<SUB>0</SUB>>, fillcolor="#e581391f"] ;
18 -> 19 ;
20 [label=<gini = 0.5<br/>samples = 1012<br/>value = [521, 491]<br/>class = y<SUB>0</SUB>>, fillcolor="#e581390f"] ;
19 -> 20 ;
21 [label=<gini = 0.495<br/>samples = 990<br/>value = [545, 445]<br/>class = y<SUB>0</SUB>>, fillcolor="#e581392f"] ;
19 -> 21 ;
22 [label=<gini = 0.494<br/>samples = 779<br/>value = [432, 347]<br/>class = y<SUB>0</SUB>>, fillcolor="#e5813932"] ;
18 -> 22 ;
}