digraph Tree {
node [shape=box, style="filled, rounded", color="black", fontname=helvetica] ;
edge [fontname=helvetica] ;
0 [label=<DT_home_ats &le; 0.5<br/>gini = 0.4999<br/>samples = 14676<br/>value = [7442, 7234]<br/>class = y<SUB>0</SUB>>, fillcolor="#e5813907"] ;
1 [label=<DT_away_movement &le; 0.5<br/>gini = 0.5<br/>samples = 9536<br/>value = [4768, 4768]<br/>class = y<SUB>0</SUB>>, fillcolor="#e5813900"] ;
0 -> 1 [labeldistance=2.5, labelangle=45, headlabel="True"] ;
2 [label=<DT_away_ats &le; 0.5<br/>gini = 0.4997<br/>samples = 6319<br/>value = [3231, 3088]<br/>class = y<SUB>0</SUB>>, fillcolor="#e581390b"] ;
1 -> 2 ;
3 [label=<DT_home_tPAr &le; 0.5<br/>gini = 0.4992<br/>samples = 4157<br/>value = [2162, 1995]<br/>class = y<SUB>0</SUB>>, fillcolor="#e5813914"] ;
2 -> 3 ;
4 [label=<DT_home_public &le; 0.5<br/>gini = 0.4984<br/>samples = 2941<br/>value = [1553, 1388]<br/>class = y<SUB>0</SUB>>, fillcolor="#e581391b"] ;
3 -> 4 ;
5 [label=<DT_home_reb &le; 0.5<br/>gini = 0.4977<br/>samples = 1903<br/>value = [1016, 887]<br/>class = y<SUB>0</SUB>>, fillcolor="#e5813920"] ;
4 -> 5 ;
6 [label=<gini = 0.4987<br/>samples = 1176<br/>value = [618, 558]<br/>class = y<SUB>0</SUB>>, fillcolor="#e5813919"] ;
5 -> 6 ;
7 [label=<gini = 0.4955<br/>samples = 727<br/>value = [398, 329]<br/>class = y<SUB>0</SUB>>, fillcolor="#e581392c"] ;
5 -> 7 ;
8 [label=<gini = 0.4994<br/>samples = 1038<br/>value = [537, 501]<br/>class = y<SUB>0</SUB>>, fillcolor="#e5813911"] ;
4 -> 8 ;
9 [label=<gini = 0.5<br/>samples = 1216<br/>value = [609, 607]<br/>class = y<SUB>0</SUB>>, fillcolor="#e5813901"] ;
3 -> 9 ;
10 [label=<DT_home_reb &le; 0.5<br/>gini = 0.4999<br/>samples = 2162<br/>value = [1069, 1093]<br/>class = y<SUB>1</SUB>>, fillcolor="#399de506"] ;
2 -> 10 ;
11 [label=<DT_away_public &le; 0.5<br/>gini = 0.4998<br/>samples = 1556<br/>value = [794, 762]<br/>class = y<SUB>0</SUB>>, fillcolor="#e581390a"] ;
10 -> 11 ;
12 [label=<gini = 0.4998<br/>samples = 855<br/>value = [435, 420]<br/>class = y<SUB>0</SUB>>, fillcolor="#e5813909"] ;
11 -> 12 ;
13 [label=<gini = 0.4997<br/>samples = 701<br/>value = [359, 342]<br/>class = y<SUB>0</SUB>>, fillcolor="#e581390c"] ;
11 -> 13 ;
14 [label=<gini = 0.4957<br/>samples = 606<br/>value = [275, 331]<br/>class = y<SUB>1</SUB>>, fillcolor="#399de52b"] ;
10 -> 14 ;
15 [label=<DT_home_tPAr &le; 0.5<br/>gini = 0.499<br/>samples = 3217<br/>value = [1537, 1680]<br/>class = y<SUB>1</SUB>>, fillcolor="#399de516"] ;
1 -> 15 ;
16 [label=<DT_home_reb &le; 0.5<br/>gini = 0.4972<br/>samples = 2260<br/>value = [1046, 1214]<br/>class = y<SUB>1</SUB>>, fillcolor="#399de523"] ;
15 -> 16 ;
17 [label=<DT_away_public &le; 0.5<br/>gini = 0.4988<br/>samples = 1496<br/>value = [712, 784]<br/>class = y<SUB>1</SUB>>, fillcolor="#399de517"] ;
16 -> 17 ;
18 [label=<gini = 0.5<br/>samples = 646<br/>value = [322, 324]<br/>class = y<SUB>1</SUB>>, fillcolor="#399de502"] ;
17 -> 18 ;
19 [label=<gini = 0.4966<br/>samples = 850<br/>value = [390, 460]<br/>class = y<SUB>1</SUB>>, fillcolor="#399de527"] ;
17 -> 19 ;
20 [label=<gini = 0.4921<br/>samples = 764<br/>value = [334, 430]<br/>class = y<SUB>1</SUB>>, fillcolor="#399de539"] ;
16 -> 20 ;
21 [label=<gini = 0.4997<br/>samples = 957<br/>value = [491, 466]<br/>class = y<SUB>0</SUB>>, fillcolor="#e581390d"] ;
15 -> 21 ;
22 [label=<DT_away_ats &le; 0.5<br/>gini = 0.4992<br/>samples = 5140<br/>value = [2674, 2466]<br/>class = y<SUB>0</SUB>>, fillcolor="#e5813914"] ;
0 -> 22 [labeldistance=2.5, labelangle=-45, headlabel="False"] ;
23 [label=<DT_home_public &le; 0.5<br/>gini = 0.498<br/>samples = 3319<br/>value = [1765, 1554]<br/>class = y<SUB>0</SUB>>, fillcolor="#e581391e"] ;
22 -> 23 ;
24 [label=<DT_away_movement &le; 0.5<br/>gini = 0.4965<br/>samples = 1996<br/>value = [1082, 914]<br/>class = y<SUB>0</SUB>>, fillcolor="#e5813928"] ;
23 -> 24 ;
25 [label=<gini = 0.4974<br/>samples = 1177<br/>value = [631, 546]<br/>class = y<SUB>0</SUB>>, fillcolor="#e5813922"] ;
24 -> 25 ;
26 [label=<gini = 0.4949<br/>samples = 819<br/>value = [451, 368]<br/>class = y<SUB>0</SUB>>, fillcolor="#e581392f"] ;
24 -> 26 ;
27 [label=<DT_home_reb &le; 0.5<br/>gini = 0.4995<br/>samples = 1323<br/>value = [683, 640]<br/>class = y<SUB>0</SUB>>, fillcolor="#e5813910"] ;
23 -> 27 ;
28 [label=<gini = 0.4987<br/>samples = 632<br/>value = [332, 300]<br/>class = y<SUB>0</SUB>>, fillcolor="#e5813919"] ;
27 -> 28 ;
29 [label=<gini = 0.4999<br/>samples = 691<br/>value = [351, 340]<br/>class = y<SUB>0</SUB>>, fillcolor="#e5813908"] ;
27 -> 29 ;
30 [label=<DT_home_winner &le; 0.5<br/>gini = 0.5<br/>samples = 1821<br/>value = [909, 912]<br/>class = y<SUB>1</SUB>>, fillcolor="#399de501"] ;
22 -> 30 ;
31 [label=<gini = 0.4991<br/>samples = 1195<br/>value = [572, 623]<br/>class = y<SUB>1</SUB>>, fillcolor="#399de515"] ;
30 -> 31 ;
32 [label=<gini = 0.4971<br/>samples = 626<br/>value = [337, 289]<br/>class = y<SUB>0</SUB>>, fillcolor="#e5813924"] ;
30 -> 32 ;
}