digraph Tree {
node [shape=box, style="filled, rounded", color="black", fontname=helvetica] ;
edge [fontname=helvetica] ;
0 [label=<DT_home_ats &le; 0.5<br/>gini = 0.5<br/>samples = 14845<br/>value = [7496, 7349]<br/>class = y<SUB>0</SUB>>, fillcolor="#e5813905"] ;
1 [label=<DT_away_movement &le; 0.5<br/>gini = 0.5<br/>samples = 9679<br/>value = [4810, 4869]<br/>class = y<SUB>1</SUB>>, fillcolor="#399de503"] ;
0 -> 1 [labeldistance=2.5, labelangle=45, headlabel="True"] ;
2 [label=<DT_away_ats &le; 0.5<br/>gini = 0.4999<br/>samples = 6465<br/>value = [3286, 3179]<br/>class = y<SUB>0</SUB>>, fillcolor="#e5813908"] ;
1 -> 2 ;
3 [label=<DT_home_tPAr &le; 0.5<br/>gini = 0.4995<br/>samples = 4254<br/>value = [2197, 2057]<br/>class = y<SUB>0</SUB>>, fillcolor="#e5813910"] ;
2 -> 3 ;
4 [label=<DT_home_public &le; 0.5<br/>gini = 0.4987<br/>samples = 2990<br/>value = [1571, 1419]<br/>class = y<SUB>0</SUB>>, fillcolor="#e5813919"] ;
3 -> 4 ;
5 [label=<DT_home_reb &le; 0.5<br/>gini = 0.498<br/>samples = 1912<br/>value = [1017, 895]<br/>class = y<SUB>0</SUB>>, fillcolor="#e581391f"] ;
4 -> 5 ;
6 [label=<gini = 0.4988<br/>samples = 1172<br/>value = [615, 557]<br/>class = y<SUB>0</SUB>>, fillcolor="#e5813918"] ;
5 -> 6 ;
7 [label=<gini = 0.4963<br/>samples = 740<br/>value = [402, 338]<br/>class = y<SUB>0</SUB>>, fillcolor="#e5813929"] ;
5 -> 7 ;
8 [label=<gini = 0.4996<br/>samples = 1078<br/>value = [554, 524]<br/>class = y<SUB>0</SUB>>, fillcolor="#e581390e"] ;
4 -> 8 ;
9 [label=<gini = 0.5<br/>samples = 1264<br/>value = [626, 638]<br/>class = y<SUB>1</SUB>>, fillcolor="#399de505"] ;
3 -> 9 ;
10 [label=<DT_home_reb &le; 0.5<br/>gini = 0.4999<br/>samples = 2211<br/>value = [1089, 1122]<br/>class = y<SUB>1</SUB>>, fillcolor="#399de508"] ;
2 -> 10 ;
11 [label=<DT_away_public &le; 0.5<br/>gini = 0.5<br/>samples = 1545<br/>value = [779, 766]<br/>class = y<SUB>0</SUB>>, fillcolor="#e5813904"] ;
10 -> 11 ;
12 [label=<gini = 0.4997<br/>samples = 827<br/>value = [423, 404]<br/>class = y<SUB>0</SUB>>, fillcolor="#e581390b"] ;
11 -> 12 ;
13 [label=<gini = 0.5<br/>samples = 718<br/>value = [356, 362]<br/>class = y<SUB>1</SUB>>, fillcolor="#399de504"] ;
11 -> 13 ;
14 [label=<gini = 0.4976<br/>samples = 666<br/>value = [310, 356]<br/>class = y<SUB>1</SUB>>, fillcolor="#399de521"] ;
10 -> 14 ;
15 [label=<DT_home_tPAr &le; 0.5<br/>gini = 0.4987<br/>samples = 3214<br/>value = [1524, 1690]<br/>class = y<SUB>1</SUB>>, fillcolor="#399de519"] ;
1 -> 15 ;
16 [label=<DT_away_public &le; 0.5<br/>gini = 0.4972<br/>samples = 2272<br/>value = [1051, 1221]<br/>class = y<SUB>1</SUB>>, fillcolor="#399de524"] ;
15 -> 16 ;
17 [label=<gini = 0.4991<br/>samples = 1120<br/>value = [536, 584]<br/>class = y<SUB>1</SUB>>, fillcolor="#399de515"] ;
16 -> 17 ;
18 [label=<gini = 0.4944<br/>samples = 1152<br/>value = [515, 637]<br/>class = y<SUB>1</SUB>>, fillcolor="#399de531"] ;
16 -> 18 ;
19 [label=<gini = 0.5<br/>samples = 942<br/>value = [473, 469]<br/>class = y<SUB>0</SUB>>, fillcolor="#e5813902"] ;
15 -> 19 ;
20 [label=<DT_home_winner &le; 0.5<br/>gini = 0.4992<br/>samples = 5166<br/>value = [2686, 2480]<br/>class = y<SUB>0</SUB>>, fillcolor="#e5813914"] ;
0 -> 20 [labeldistance=2.5, labelangle=-45, headlabel="False"] ;
21 [label=<DT_away_ats &le; 0.5<br/>gini = 0.4999<br/>samples = 2775<br/>value = [1410, 1365]<br/>class = y<SUB>0</SUB>>, fillcolor="#e5813908"] ;
20 -> 21 ;
22 [label=<DT_home_reb &le; 0.5<br/>gini = 0.4985<br/>samples = 1629<br/>value = [859, 770]<br/>class = y<SUB>0</SUB>>, fillcolor="#e581391a"] ;
21 -> 22 ;
23 [label=<gini = 0.5<br/>samples = 786<br/>value = [393, 393]<br/>class = y<SUB>0</SUB>>, fillcolor="#e5813900"] ;
22 -> 23 ;
24 [label=<gini = 0.4944<br/>samples = 843<br/>value = [466, 377]<br/>class = y<SUB>0</SUB>>, fillcolor="#e5813931"] ;
22 -> 24 ;
25 [label=<gini = 0.4993<br/>samples = 1146<br/>value = [551, 595]<br/>class = y<SUB>1</SUB>>, fillcolor="#399de513"] ;
21 -> 25 ;
26 [label=<DT_home_public &le; 0.5<br/>gini = 0.4977<br/>samples = 2391<br/>value = [1276, 1115]<br/>class = y<SUB>0</SUB>>, fillcolor="#e5813920"] ;
20 -> 26 ;
27 [label=<DT_away_movement &le; 0.5<br/>gini = 0.4954<br/>samples = 1518<br/>value = [832, 686]<br/>class = y<SUB>0</SUB>>, fillcolor="#e581392d"] ;
26 -> 27 ;
28 [label=<gini = 0.4967<br/>samples = 777<br/>value = [420, 357]<br/>class = y<SUB>0</SUB>>, fillcolor="#e5813926"] ;
27 -> 28 ;
29 [label=<gini = 0.4937<br/>samples = 741<br/>value = [412, 329]<br/>class = y<SUB>0</SUB>>, fillcolor="#e5813933"] ;
27 -> 29 ;
30 [label=<gini = 0.4999<br/>samples = 873<br/>value = [444, 429]<br/>class = y<SUB>0</SUB>>, fillcolor="#e5813909"] ;
26 -> 30 ;
}