digraph Tree {
node [shape=box, style="filled, rounded", color="black", fontname=helvetica] ;
edge [fontname=helvetica] ;
0 [label=<home_ats &le; 0.5<br/>gini = 0.5<br/>samples = 18377<br/>value = [9303, 9074]<br/>class = y<SUB>0</SUB>>, fillcolor="#e5813906"] ;
1 [label=<away_movement &le; 0.5<br/>gini = 0.5<br/>samples = 11919<br/>value = [5958, 5961]<br/>class = y<SUB>1</SUB>>, fillcolor="#399de500"] ;
0 -> 1 [labeldistance=2.5, labelangle=45, headlabel="True"] ;
2 [label=<away_reb &le; 0.5<br/>gini = 0.5<br/>samples = 7945<br/>value = [4065, 3880]<br/>class = y<SUB>0</SUB>>, fillcolor="#e581390c"] ;
1 -> 2 ;
3 [label=<away_ats &le; 0.5<br/>gini = 0.5<br/>samples = 5385<br/>value = [2715, 2670]<br/>class = y<SUB>0</SUB>>, fillcolor="#e5813904"] ;
2 -> 3 ;
4 [label=<gini = 0.499<br/>samples = 3657<br/>value = [1895, 1762]<br/>class = y<SUB>0</SUB>>, fillcolor="#e5813912"] ;
3 -> 4 ;
5 [label=<gini = 0.499<br/>samples = 1728<br/>value = [820, 908]<br/>class = y<SUB>1</SUB>>, fillcolor="#399de519"] ;
3 -> 5 ;
6 [label=<away_ats &le; 0.5<br/>gini = 0.499<br/>samples = 2560<br/>value = [1350, 1210]<br/>class = y<SUB>0</SUB>>, fillcolor="#e581391a"] ;
2 -> 6 ;
7 [label=<gini = 0.499<br/>samples = 1530<br/>value = [796, 734]<br/>class = y<SUB>0</SUB>>, fillcolor="#e5813914"] ;
6 -> 7 ;
8 [label=<gini = 0.497<br/>samples = 1030<br/>value = [554, 476]<br/>class = y<SUB>0</SUB>>, fillcolor="#e5813924"] ;
6 -> 8 ;
9 [label=<home_tPAr &le; 0.5<br/>gini = 0.499<br/>samples = 3974<br/>value = [1893, 2081]<br/>class = y<SUB>1</SUB>>, fillcolor="#399de517"] ;
1 -> 9 ;
10 [label=<away_ats &le; 0.5<br/>gini = 0.497<br/>samples = 2801<br/>value = [1301, 1500]<br/>class = y<SUB>1</SUB>>, fillcolor="#399de522"] ;
9 -> 10 ;
11 [label=<gini = 0.497<br/>samples = 1917<br/>value = [885, 1032]<br/>class = y<SUB>1</SUB>>, fillcolor="#399de524"] ;
10 -> 11 ;
12 [label=<gini = 0.498<br/>samples = 884<br/>value = [416, 468]<br/>class = y<SUB>1</SUB>>, fillcolor="#399de51c"] ;
10 -> 12 ;
13 [label=<gini = 0.5<br/>samples = 1173<br/>value = [592, 581]<br/>class = y<SUB>0</SUB>>, fillcolor="#e5813905"] ;
9 -> 13 ;
14 [label=<home_winner &le; 0.5<br/>gini = 0.499<br/>samples = 6458<br/>value = [3345, 3113]<br/>class = y<SUB>0</SUB>>, fillcolor="#e5813912"] ;
0 -> 14 [labeldistance=2.5, labelangle=-45, headlabel="False"] ;
15 [label=<away_ats &le; 0.5<br/>gini = 0.5<br/>samples = 3483<br/>value = [1767, 1716]<br/>class = y<SUB>0</SUB>>, fillcolor="#e5813907"] ;
14 -> 15 ;
16 [label=<gini = 0.499<br/>samples = 2019<br/>value = [1051, 968]<br/>class = y<SUB>0</SUB>>, fillcolor="#e5813914"] ;
15 -> 16 ;
17 [label=<gini = 0.5<br/>samples = 1464<br/>value = [716, 748]<br/>class = y<SUB>1</SUB>>, fillcolor="#399de50b"] ;
15 -> 17 ;
18 [label=<home_tPAr &le; 0.5<br/>gini = 0.498<br/>samples = 2975<br/>value = [1578, 1397]<br/>class = y<SUB>0</SUB>>, fillcolor="#e581391d"] ;
14 -> 18 ;
19 [label=<away_movement &le; 0.5<br/>gini = 0.497<br/>samples = 2083<br/>value = [1119, 964]<br/>class = y<SUB>0</SUB>>, fillcolor="#e5813923"] ;
18 -> 19 ;
20 [label=<gini = 0.497<br/>samples = 1122<br/>value = [606, 516]<br/>class = y<SUB>0</SUB>>, fillcolor="#e5813926"] ;
19 -> 20 ;
21 [label=<gini = 0.498<br/>samples = 961<br/>value = [513, 448]<br/>class = y<SUB>0</SUB>>, fillcolor="#e5813920"] ;
19 -> 21 ;
22 [label=<gini = 0.5<br/>samples = 892<br/>value = [459, 433]<br/>class = y<SUB>0</SUB>>, fillcolor="#e581390e"] ;
18 -> 22 ;
}