digraph Tree {
node [shape=box, style="filled, rounded", color="black", fontname=helvetica] ;
edge [fontname=helvetica] ;
0 [label=<DT_away_movement &le; 0.5<br/>gini = 0.5<br/>samples = 15003<br/>value = [7610, 7393]<br/>class = y<SUB>0</SUB>>, fillcolor="#e5813907"] ;
1 [label=<DT_away_reb &le; 0.5<br/>gini = 0.5<br/>samples = 9864<br/>value = [5067, 4797]<br/>class = y<SUB>0</SUB>>, fillcolor="#e581390e"] ;
0 -> 1 [labeldistance=2.5, labelangle=45, headlabel="True"] ;
2 [label=<DT_away_ats &le; 0.5<br/>gini = 0.5<br/>samples = 7001<br/>value = [3551, 3450]<br/>class = y<SUB>0</SUB>>, fillcolor="#e5813907"] ;
1 -> 2 ;
3 [label=<DT_home_tPAr &le; 0.5<br/>gini = 0.5<br/>samples = 4643<br/>value = [2394, 2249]<br/>class = y<SUB>0</SUB>>, fillcolor="#e581390f"] ;
2 -> 3 ;
4 [label=<gini = 0.499<br/>samples = 3492<br/>value = [1822, 1670]<br/>class = y<SUB>0</SUB>>, fillcolor="#e5813915"] ;
3 -> 4 ;
5 [label=<gini = 0.5<br/>samples = 1151<br/>value = [572, 579]<br/>class = y<SUB>1</SUB>>, fillcolor="#399de503"] ;
3 -> 5 ;
6 [label=<DT_home_ats &le; 0.5<br/>gini = 0.5<br/>samples = 2358<br/>value = [1157, 1201]<br/>class = y<SUB>1</SUB>>, fillcolor="#399de509"] ;
2 -> 6 ;
7 [label=<gini = 0.499<br/>samples = 1410<br/>value = [672, 738]<br/>class = y<SUB>1</SUB>>, fillcolor="#399de517"] ;
6 -> 7 ;
8 [label=<gini = 0.5<br/>samples = 948<br/>value = [485, 463]<br/>class = y<SUB>0</SUB>>, fillcolor="#e581390c"] ;
6 -> 8 ;
9 [label=<DT_home_tPAr &le; 0.5<br/>gini = 0.498<br/>samples = 2863<br/>value = [1516, 1347]<br/>class = y<SUB>0</SUB>>, fillcolor="#e581391c"] ;
1 -> 9 ;
10 [label=<DT_away_ats &le; 0.5<br/>gini = 0.499<br/>samples = 1764<br/>value = [914, 850]<br/>class = y<SUB>0</SUB>>, fillcolor="#e5813912"] ;
9 -> 10 ;
11 [label=<gini = 0.499<br/>samples = 999<br/>value = [519, 480]<br/>class = y<SUB>0</SUB>>, fillcolor="#e5813913"] ;
10 -> 11 ;
12 [label=<gini = 0.499<br/>samples = 765<br/>value = [395, 370]<br/>class = y<SUB>0</SUB>>, fillcolor="#e5813910"] ;
10 -> 12 ;
13 [label=<gini = 0.495<br/>samples = 1099<br/>value = [602, 497]<br/>class = y<SUB>0</SUB>>, fillcolor="#e581392c"] ;
9 -> 13 ;
14 [label=<DT_home_ats &le; 0.5<br/>gini = 0.5<br/>samples = 5139<br/>value = [2543, 2596]<br/>class = y<SUB>1</SUB>>, fillcolor="#399de505"] ;
0 -> 14 [labeldistance=2.5, labelangle=-45, headlabel="False"] ;
15 [label=<DT_home_tPAr &le; 0.5<br/>gini = 0.499<br/>samples = 3234<br/>value = [1539, 1695]<br/>class = y<SUB>1</SUB>>, fillcolor="#399de517"] ;
14 -> 15 ;
16 [label=<DT_away_reb &le; 0.5<br/>gini = 0.498<br/>samples = 2277<br/>value = [1059, 1218]<br/>class = y<SUB>1</SUB>>, fillcolor="#399de521"] ;
15 -> 16 ;
17 [label=<gini = 0.498<br/>samples = 1459<br/>value = [686, 773]<br/>class = y<SUB>1</SUB>>, fillcolor="#399de51d"] ;
16 -> 17 ;
18 [label=<gini = 0.496<br/>samples = 818<br/>value = [373, 445]<br/>class = y<SUB>1</SUB>>, fillcolor="#399de529"] ;
16 -> 18 ;
19 [label=<gini = 0.5<br/>samples = 957<br/>value = [480, 477]<br/>class = y<SUB>0</SUB>>, fillcolor="#e5813902"] ;
15 -> 19 ;
20 [label=<DT_home_winner &le; 0.5<br/>gini = 0.499<br/>samples = 1905<br/>value = [1004, 901]<br/>class = y<SUB>0</SUB>>, fillcolor="#e581391a"] ;
14 -> 20 ;
21 [label=<gini = 0.499<br/>samples = 732<br/>value = [378, 354]<br/>class = y<SUB>0</SUB>>, fillcolor="#e5813910"] ;
20 -> 21 ;
22 [label=<gini = 0.498<br/>samples = 1173<br/>value = [626, 547]<br/>class = y<SUB>0</SUB>>, fillcolor="#e5813920"] ;
20 -> 22 ;
}