digraph Tree {
node [shape=box, style="filled, rounded", color="black", fontname=helvetica] ;
edge [fontname=helvetica] ;
0 [label=<DT_home_winner &le; 0.5<br/>gini = 0.5<br/>samples = 2411<br/>value = [1206, 1205]<br/>class = y<SUB>0</SUB>>, fillcolor="#e5813900"] ;
1 [label=<DT_home_public &le; 0.5<br/>gini = 0.5<br/>samples = 1655<br/>value = [848, 807]<br/>class = y<SUB>0</SUB>>, fillcolor="#e581390c"] ;
0 -> 1 [labeldistance=2.5, labelangle=45, headlabel="True"] ;
2 [label=<DT_home_TOVP &le; 0.5<br/>gini = 0.498<br/>samples = 778<br/>value = [414, 364]<br/>class = y<SUB>0</SUB>>, fillcolor="#e581391f"] ;
1 -> 2 ;
3 [label=<DT_home_ats &le; 0.5<br/>gini = 0.499<br/>samples = 660<br/>value = [341, 319]<br/>class = y<SUB>0</SUB>>, fillcolor="#e5813910"] ;
2 -> 3 ;
4 [label=<DT_away_FT &le; 0.5<br/>gini = 0.5<br/>samples = 432<br/>value = [212, 220]<br/>class = y<SUB>1</SUB>>, fillcolor="#399de509"] ;
3 -> 4 ;
5 [label=<DT_away_tPAr &le; 0.5<br/>gini = 0.5<br/>samples = 287<br/>value = [147, 140]<br/>class = y<SUB>0</SUB>>, fillcolor="#e581390c"] ;
4 -> 5 ;
6 [label=<DT_home_FT &le; 0.5<br/>gini = 0.499<br/>samples = 198<br/>value = [104, 94]<br/>class = y<SUB>0</SUB>>, fillcolor="#e5813919"] ;
5 -> 6 ;
7 [label=<gini = 0.497<br/>samples = 123<br/>value = [66, 57]<br/>class = y<SUB>0</SUB>>, fillcolor="#e5813923"] ;
6 -> 7 ;
8 [label=<gini = 0.5<br/>samples = 75<br/>value = [38, 37]<br/>class = y<SUB>0</SUB>>, fillcolor="#e5813907"] ;
6 -> 8 ;
9 [label=<gini = 0.499<br/>samples = 89<br/>value = [43, 46]<br/>class = y<SUB>1</SUB>>, fillcolor="#399de511"] ;
5 -> 9 ;
10 [label=<gini = 0.495<br/>samples = 145<br/>value = [65, 80]<br/>class = y<SUB>1</SUB>>, fillcolor="#399de530"] ;
4 -> 10 ;
11 [label=<DT_home_FT &le; 0.5<br/>gini = 0.491<br/>samples = 228<br/>value = [129, 99]<br/>class = y<SUB>0</SUB>>, fillcolor="#e581393b"] ;
3 -> 11 ;
12 [label=<gini = 0.481<br/>samples = 144<br/>value = [86, 58]<br/>class = y<SUB>0</SUB>>, fillcolor="#e5813953"] ;
11 -> 12 ;
13 [label=<gini = 0.5<br/>samples = 84<br/>value = [43, 41]<br/>class = y<SUB>0</SUB>>, fillcolor="#e581390c"] ;
11 -> 13 ;
14 [label=<gini = 0.472<br/>samples = 118<br/>value = [73, 45]<br/>class = y<SUB>0</SUB>>, fillcolor="#e5813962"] ;
2 -> 14 ;
15 [label=<DT_home_TOVP &le; 0.5<br/>gini = 0.5<br/>samples = 877<br/>value = [434, 443]<br/>class = y<SUB>1</SUB>>, fillcolor="#399de505"] ;
1 -> 15 ;
16 [label=<DT_home_FT &le; 0.5<br/>gini = 0.5<br/>samples = 727<br/>value = [367, 360]<br/>class = y<SUB>0</SUB>>, fillcolor="#e5813905"] ;
15 -> 16 ;
17 [label=<DT_away_FT &le; 0.5<br/>gini = 0.5<br/>samples = 419<br/>value = [203, 216]<br/>class = y<SUB>1</SUB>>, fillcolor="#399de50f"] ;
16 -> 17 ;
18 [label=<DT_away_tPAr &le; 0.5<br/>gini = 0.5<br/>samples = 288<br/>value = [144, 144]<br/>class = y<SUB>0</SUB>>, fillcolor="#e5813900"] ;
17 -> 18 ;
19 [label=<DT_home_ats &le; 0.5<br/>gini = 0.5<br/>samples = 208<br/>value = [106, 102]<br/>class = y<SUB>0</SUB>>, fillcolor="#e581390a"] ;
18 -> 19 ;
20 [label=<gini = 0.5<br/>samples = 129<br/>value = [63, 66]<br/>class = y<SUB>1</SUB>>, fillcolor="#399de50c"] ;
19 -> 20 ;
21 [label=<gini = 0.496<br/>samples = 79<br/>value = [43, 36]<br/>class = y<SUB>0</SUB>>, fillcolor="#e581392a"] ;
19 -> 21 ;
22 [label=<gini = 0.499<br/>samples = 80<br/>value = [38, 42]<br/>class = y<SUB>1</SUB>>, fillcolor="#399de518"] ;
18 -> 22 ;
23 [label=<gini = 0.495<br/>samples = 131<br/>value = [59, 72]<br/>class = y<SUB>1</SUB>>, fillcolor="#399de52e"] ;
17 -> 23 ;
24 [label=<DT_home_reb &le; 0.5<br/>gini = 0.498<br/>samples = 308<br/>value = [164, 144]<br/>class = y<SUB>0</SUB>>, fillcolor="#e581391f"] ;
16 -> 24 ;
25 [label=<gini = 0.49<br/>samples = 140<br/>value = [80, 60]<br/>class = y<SUB>0</SUB>>, fillcolor="#e5813940"] ;
24 -> 25 ;
26 [label=<DT_home_ats &le; 0.5<br/>gini = 0.5<br/>samples = 168<br/>value = [84, 84]<br/>class = y<SUB>0</SUB>>, fillcolor="#e5813900"] ;
24 -> 26 ;
27 [label=<gini = 0.5<br/>samples = 90<br/>value = [46, 44]<br/>class = y<SUB>0</SUB>>, fillcolor="#e581390b"] ;
26 -> 27 ;
28 [label=<gini = 0.5<br/>samples = 78<br/>value = [38, 40]<br/>class = y<SUB>1</SUB>>, fillcolor="#399de50d"] ;
26 -> 28 ;
29 [label=<gini = 0.494<br/>samples = 150<br/>value = [67, 83]<br/>class = y<SUB>1</SUB>>, fillcolor="#399de531"] ;
15 -> 29 ;
30 [label=<DT_away_tPAr &le; 0.5<br/>gini = 0.499<br/>samples = 756<br/>value = [358, 398]<br/>class = y<SUB>1</SUB>>, fillcolor="#399de51a"] ;
0 -> 30 [labeldistance=2.5, labelangle=-45, headlabel="False"] ;
31 [label=<DT_home_ats &le; 0.5<br/>gini = 0.494<br/>samples = 510<br/>value = [228, 282]<br/>class = y<SUB>1</SUB>>, fillcolor="#399de531"] ;
30 -> 31 ;
32 [label=<DT_home_public &le; 0.5<br/>gini = 0.48<br/>samples = 253<br/>value = [101, 152]<br/>class = y<SUB>1</SUB>>, fillcolor="#399de556"] ;
31 -> 32 ;
33 [label=<gini = 0.491<br/>samples = 146<br/>value = [63, 83]<br/>class = y<SUB>1</SUB>>, fillcolor="#399de53d"] ;
32 -> 33 ;
34 [label=<gini = 0.458<br/>samples = 107<br/>value = [38, 69]<br/>class = y<SUB>1</SUB>>, fillcolor="#399de573"] ;
32 -> 34 ;
35 [label=<DT_home_FT &le; 0.5<br/>gini = 0.5<br/>samples = 257<br/>value = [127, 130]<br/>class = y<SUB>1</SUB>>, fillcolor="#399de506"] ;
31 -> 35 ;
36 [label=<gini = 0.497<br/>samples = 147<br/>value = [68, 79]<br/>class = y<SUB>1</SUB>>, fillcolor="#399de524"] ;
35 -> 36 ;
37 [label=<gini = 0.497<br/>samples = 110<br/>value = [59, 51]<br/>class = y<SUB>0</SUB>>, fillcolor="#e5813923"] ;
35 -> 37 ;
38 [label=<DT_home_reb &le; 0.5<br/>gini = 0.498<br/>samples = 246<br/>value = [130, 116]<br/>class = y<SUB>0</SUB>>, fillcolor="#e581391b"] ;
30 -> 38 ;
39 [label=<gini = 0.475<br/>samples = 116<br/>value = [71, 45]<br/>class = y<SUB>0</SUB>>, fillcolor="#e581395d"] ;
38 -> 39 ;
40 [label=<gini = 0.496<br/>samples = 130<br/>value = [59, 71]<br/>class = y<SUB>1</SUB>>, fillcolor="#399de52b"] ;
38 -> 40 ;
}