digraph Tree {
node [shape=box, style="filled, rounded", color="black", fontname=helvetica] ;
edge [fontname=helvetica] ;
0 [label=<DT_home_ats &le; 0.5<br/>gini = 0.5<br/>samples = 2421<br/>value = [1182, 1239]<br/>class = y<SUB>1</SUB>>, fillcolor="#399de50c"] ;
1 [label=<DT_home_public &le; 0.5<br/>gini = 0.498<br/>samples = 1387<br/>value = [651, 736]<br/>class = y<SUB>1</SUB>>, fillcolor="#399de51d"] ;
0 -> 1 [labeldistance=2.5, labelangle=45, headlabel="True"] ;
2 [label=<DT_home_reb &le; 0.5<br/>gini = 0.5<br/>samples = 710<br/>value = [345, 365]<br/>class = y<SUB>1</SUB>>, fillcolor="#399de50e"] ;
1 -> 2 ;
3 [label=<DT_home_winner &le; 0.5<br/>gini = 0.5<br/>samples = 455<br/>value = [228, 227]<br/>class = y<SUB>0</SUB>>, fillcolor="#e5813901"] ;
2 -> 3 ;
4 [label=<gini = 0.5<br/>samples = 303<br/>value = [153, 150]<br/>class = y<SUB>0</SUB>>, fillcolor="#e5813905"] ;
3 -> 4 ;
5 [label=<gini = 0.5<br/>samples = 152<br/>value = [75, 77]<br/>class = y<SUB>1</SUB>>, fillcolor="#399de507"] ;
3 -> 5 ;
6 [label=<DT_home_winner &le; 0.5<br/>gini = 0.497<br/>samples = 255<br/>value = [117, 138]<br/>class = y<SUB>1</SUB>>, fillcolor="#399de527"] ;
2 -> 6 ;
7 [label=<gini = 0.496<br/>samples = 178<br/>value = [81, 97]<br/>class = y<SUB>1</SUB>>, fillcolor="#399de52a"] ;
6 -> 7 ;
8 [label=<gini = 0.498<br/>samples = 77<br/>value = [36, 41]<br/>class = y<SUB>1</SUB>>, fillcolor="#399de51f"] ;
6 -> 8 ;
9 [label=<DT_home_winner &le; 0.5<br/>gini = 0.495<br/>samples = 677<br/>value = [306, 371]<br/>class = y<SUB>1</SUB>>, fillcolor="#399de52d"] ;
1 -> 9 ;
10 [label=<DT_home_reb &le; 0.5<br/>gini = 0.496<br/>samples = 525<br/>value = [240, 285]<br/>class = y<SUB>1</SUB>>, fillcolor="#399de528"] ;
9 -> 10 ;
11 [label=<gini = 0.496<br/>samples = 267<br/>value = [121, 146]<br/>class = y<SUB>1</SUB>>, fillcolor="#399de52c"] ;
10 -> 11 ;
12 [label=<gini = 0.497<br/>samples = 258<br/>value = [119, 139]<br/>class = y<SUB>1</SUB>>, fillcolor="#399de525"] ;
10 -> 12 ;
13 [label=<DT_home_reb &le; 0.5<br/>gini = 0.491<br/>samples = 152<br/>value = [66, 86]<br/>class = y<SUB>1</SUB>>, fillcolor="#399de53b"] ;
9 -> 13 ;
14 [label=<gini = 0.499<br/>samples = 81<br/>value = [39, 42]<br/>class = y<SUB>1</SUB>>, fillcolor="#399de512"] ;
13 -> 14 ;
15 [label=<gini = 0.471<br/>samples = 71<br/>value = [27, 44]<br/>class = y<SUB>1</SUB>>, fillcolor="#399de563"] ;
13 -> 15 ;
16 [label=<DT_home_public &le; 0.5<br/>gini = 0.5<br/>samples = 1034<br/>value = [531, 503]<br/>class = y<SUB>0</SUB>>, fillcolor="#e581390d"] ;
0 -> 16 [labeldistance=2.5, labelangle=-45, headlabel="False"] ;
17 [label=<DT_home_winner &le; 0.5<br/>gini = 0.499<br/>samples = 493<br/>value = [258, 235]<br/>class = y<SUB>0</SUB>>, fillcolor="#e5813917"] ;
16 -> 17 ;
18 [label=<DT_home_reb &le; 0.5<br/>gini = 0.496<br/>samples = 299<br/>value = [163, 136]<br/>class = y<SUB>0</SUB>>, fillcolor="#e581392a"] ;
17 -> 18 ;
19 [label=<gini = 0.497<br/>samples = 158<br/>value = [85, 73]<br/>class = y<SUB>0</SUB>>, fillcolor="#e5813924"] ;
18 -> 19 ;
20 [label=<gini = 0.494<br/>samples = 141<br/>value = [78, 63]<br/>class = y<SUB>0</SUB>>, fillcolor="#e5813931"] ;
18 -> 20 ;
21 [label=<DT_home_reb &le; 0.5<br/>gini = 0.5<br/>samples = 194<br/>value = [95, 99]<br/>class = y<SUB>1</SUB>>, fillcolor="#399de50a"] ;
17 -> 21 ;
22 [label=<gini = 0.499<br/>samples = 132<br/>value = [69, 63]<br/>class = y<SUB>0</SUB>>, fillcolor="#e5813916"] ;
21 -> 22 ;
23 [label=<gini = 0.487<br/>samples = 62<br/>value = [26, 36]<br/>class = y<SUB>1</SUB>>, fillcolor="#399de547"] ;
21 -> 23 ;
24 [label=<DT_home_winner &le; 0.5<br/>gini = 0.5<br/>samples = 541<br/>value = [273, 268]<br/>class = y<SUB>0</SUB>>, fillcolor="#e5813905"] ;
16 -> 24 ;
25 [label=<DT_home_reb &le; 0.5<br/>gini = 0.5<br/>samples = 373<br/>value = [185, 188]<br/>class = y<SUB>1</SUB>>, fillcolor="#399de504"] ;
24 -> 25 ;
26 [label=<gini = 0.5<br/>samples = 194<br/>value = [96, 98]<br/>class = y<SUB>1</SUB>>, fillcolor="#399de505"] ;
25 -> 26 ;
27 [label=<gini = 0.5<br/>samples = 179<br/>value = [89, 90]<br/>class = y<SUB>1</SUB>>, fillcolor="#399de503"] ;
25 -> 27 ;
28 [label=<DT_home_reb &le; 0.5<br/>gini = 0.499<br/>samples = 168<br/>value = [88, 80]<br/>class = y<SUB>0</SUB>>, fillcolor="#e5813917"] ;
24 -> 28 ;
29 [label=<gini = 0.5<br/>samples = 72<br/>value = [37, 35]<br/>class = y<SUB>0</SUB>>, fillcolor="#e581390e"] ;
28 -> 29 ;
30 [label=<gini = 0.498<br/>samples = 96<br/>value = [51, 45]<br/>class = y<SUB>0</SUB>>, fillcolor="#e581391e"] ;
28 -> 30 ;
}