digraph Tree {
node [shape=box, style="filled, rounded", color="black", fontname=helvetica] ;
edge [fontname=helvetica] ;
0 [label=<DT_away_ats &le; 0.5<br/>gini = 0.5<br/>samples = 14836<br/>value = [7483, 7353]<br/>class = y<SUB>0</SUB>>, fillcolor="#e5813904"] ;
1 [label=<DT_home_ats &le; 0.5<br/>gini = 0.5<br/>samples = 9830<br/>value = [5033, 4797]<br/>class = y<SUB>0</SUB>>, fillcolor="#e581390c"] ;
0 -> 1 [labeldistance=2.5, labelangle=45, headlabel="True"] ;
2 [label=<DT_away_movement &le; 0.5<br/>gini = 0.5<br/>samples = 6452<br/>value = [3267, 3185]<br/>class = y<SUB>0</SUB>>, fillcolor="#e5813906"] ;
1 -> 2 ;
3 [label=<DT_home_tPAr &le; 0.5<br/>gini = 0.499<br/>samples = 4182<br/>value = [2177, 2005]<br/>class = y<SUB>0</SUB>>, fillcolor="#e5813914"] ;
2 -> 3 ;
4 [label=<gini = 0.498<br/>samples = 2951<br/>value = [1558, 1393]<br/>class = y<SUB>0</SUB>>, fillcolor="#e581391b"] ;
3 -> 4 ;
5 [label=<gini = 0.5<br/>samples = 1231<br/>value = [619, 612]<br/>class = y<SUB>0</SUB>>, fillcolor="#e5813903"] ;
3 -> 5 ;
6 [label=<DT_home_tPAr &le; 0.5<br/>gini = 0.499<br/>samples = 2270<br/>value = [1090, 1180]<br/>class = y<SUB>1</SUB>>, fillcolor="#399de513"] ;
2 -> 6 ;
7 [label=<gini = 0.498<br/>samples = 1580<br/>value = [736, 844]<br/>class = y<SUB>1</SUB>>, fillcolor="#399de521"] ;
6 -> 7 ;
8 [label=<gini = 0.5<br/>samples = 690<br/>value = [354, 336]<br/>class = y<SUB>0</SUB>>, fillcolor="#e581390d"] ;
6 -> 8 ;
9 [label=<DT_away_movement &le; 0.5<br/>gini = 0.499<br/>samples = 3378<br/>value = [1766, 1612]<br/>class = y<SUB>0</SUB>>, fillcolor="#e5813916"] ;
1 -> 9 ;
10 [label=<DT_home_winner &le; 0.5<br/>gini = 0.5<br/>samples = 2076<br/>value = [1056, 1020]<br/>class = y<SUB>0</SUB>>, fillcolor="#e5813909"] ;
9 -> 10 ;
11 [label=<gini = 0.5<br/>samples = 1213<br/>value = [621, 592]<br/>class = y<SUB>0</SUB>>, fillcolor="#e581390c"] ;
10 -> 11 ;
12 [label=<gini = 0.5<br/>samples = 863<br/>value = [435, 428]<br/>class = y<SUB>0</SUB>>, fillcolor="#e5813904"] ;
10 -> 12 ;
13 [label=<gini = 0.496<br/>samples = 1302<br/>value = [710, 592]<br/>class = y<SUB>0</SUB>>, fillcolor="#e581392a"] ;
9 -> 13 ;
14 [label=<DT_home_winner &le; 0.5<br/>gini = 0.5<br/>samples = 5006<br/>value = [2450, 2556]<br/>class = y<SUB>1</SUB>>, fillcolor="#399de50b"] ;
0 -> 14 [labeldistance=2.5, labelangle=-45, headlabel="False"] ;
15 [label=<DT_away_reb &le; 0.5<br/>gini = 0.499<br/>samples = 3488<br/>value = [1660, 1828]<br/>class = y<SUB>1</SUB>>, fillcolor="#399de517"] ;
14 -> 15 ;
16 [label=<DT_home_ats &le; 0.5<br/>gini = 0.497<br/>samples = 2339<br/>value = [1073, 1266]<br/>class = y<SUB>1</SUB>>, fillcolor="#399de527"] ;
15 -> 16 ;
17 [label=<gini = 0.496<br/>samples = 1500<br/>value = [682, 818]<br/>class = y<SUB>1</SUB>>, fillcolor="#399de52a"] ;
16 -> 17 ;
18 [label=<gini = 0.498<br/>samples = 839<br/>value = [391, 448]<br/>class = y<SUB>1</SUB>>, fillcolor="#399de520"] ;
16 -> 18 ;
19 [label=<gini = 0.5<br/>samples = 1149<br/>value = [587, 562]<br/>class = y<SUB>0</SUB>>, fillcolor="#e581390b"] ;
15 -> 19 ;
20 [label=<DT_home_ats &le; 0.5<br/>gini = 0.499<br/>samples = 1518<br/>value = [790, 728]<br/>class = y<SUB>0</SUB>>, fillcolor="#e5813914"] ;
14 -> 20 ;
21 [label=<gini = 0.5<br/>samples = 856<br/>value = [428, 428]<br/>class = y<SUB>0</SUB>>, fillcolor="#e5813900"] ;
20 -> 21 ;
22 [label=<gini = 0.496<br/>samples = 662<br/>value = [362, 300]<br/>class = y<SUB>0</SUB>>, fillcolor="#e581392c"] ;
20 -> 22 ;
}