digraph Tree {
node [shape=box, style="filled, rounded", color="black", fontname=helvetica] ;
edge [fontname=helvetica] ;
0 [label=<DT_home_winner &le; 0.5<br/>gini = 0.5<br/>samples = 2403<br/>value = [1203, 1200]<br/>class = y<SUB>0</SUB>>, fillcolor="#e5813901"] ;
1 [label=<DT_home_public &le; 0.5<br/>gini = 0.4997<br/>samples = 1651<br/>value = [847, 804]<br/>class = y<SUB>0</SUB>>, fillcolor="#e581390d"] ;
0 -> 1 [labeldistance=2.5, labelangle=45, headlabel="True"] ;
2 [label=<DT_home_ats &le; 0.5<br/>gini = 0.4978<br/>samples = 776<br/>value = [414, 362]<br/>class = y<SUB>0</SUB>>, fillcolor="#e5813920"] ;
1 -> 2 ;
3 [label=<DT_home_reb &le; 0.5<br/>gini = 0.4997<br/>samples = 507<br/>value = [260, 247]<br/>class = y<SUB>0</SUB>>, fillcolor="#e581390d"] ;
2 -> 3 ;
4 [label=<gini = 0.4991<br/>samples = 307<br/>value = [160, 147]<br/>class = y<SUB>0</SUB>>, fillcolor="#e5813915"] ;
3 -> 4 ;
5 [label=<gini = 0.5<br/>samples = 200<br/>value = [100, 100]<br/>class = y<SUB>0</SUB>>, fillcolor="#e5813900"] ;
3 -> 5 ;
6 [label=<DT_home_reb &le; 0.5<br/>gini = 0.4895<br/>samples = 269<br/>value = [154, 115]<br/>class = y<SUB>0</SUB>>, fillcolor="#e5813941"] ;
2 -> 6 ;
7 [label=<gini = 0.494<br/>samples = 146<br/>value = [81, 65]<br/>class = y<SUB>0</SUB>>, fillcolor="#e5813932"] ;
6 -> 7 ;
8 [label=<gini = 0.4825<br/>samples = 123<br/>value = [73, 50]<br/>class = y<SUB>0</SUB>>, fillcolor="#e5813950"] ;
6 -> 8 ;
9 [label=<DT_home_ats &le; 0.5<br/>gini = 0.4999<br/>samples = 875<br/>value = [433, 442]<br/>class = y<SUB>1</SUB>>, fillcolor="#399de505"] ;
1 -> 9 ;
10 [label=<DT_home_reb &le; 0.5<br/>gini = 0.4998<br/>samples = 507<br/>value = [248, 259]<br/>class = y<SUB>1</SUB>>, fillcolor="#399de50b"] ;
9 -> 10 ;
11 [label=<gini = 0.4999<br/>samples = 253<br/>value = [125, 128]<br/>class = y<SUB>1</SUB>>, fillcolor="#399de506"] ;
10 -> 11 ;
12 [label=<gini = 0.4995<br/>samples = 254<br/>value = [123, 131]<br/>class = y<SUB>1</SUB>>, fillcolor="#399de510"] ;
10 -> 12 ;
13 [label=<DT_home_reb &le; 0.5<br/>gini = 0.5<br/>samples = 368<br/>value = [185, 183]<br/>class = y<SUB>0</SUB>>, fillcolor="#e5813903"] ;
9 -> 13 ;
14 [label=<gini = 0.4998<br/>samples = 186<br/>value = [95, 91]<br/>class = y<SUB>0</SUB>>, fillcolor="#e581390b"] ;
13 -> 14 ;
15 [label=<gini = 0.4999<br/>samples = 182<br/>value = [90, 92]<br/>class = y<SUB>1</SUB>>, fillcolor="#399de506"] ;
13 -> 15 ;
16 [label=<DT_home_ats &le; 0.5<br/>gini = 0.4986<br/>samples = 752<br/>value = [356, 396]<br/>class = y<SUB>1</SUB>>, fillcolor="#399de51a"] ;
0 -> 16 [labeldistance=2.5, labelangle=-45, headlabel="False"] ;
17 [label=<DT_home_public &le; 0.5<br/>gini = 0.4943<br/>samples = 383<br/>value = [171, 212]<br/>class = y<SUB>1</SUB>>, fillcolor="#399de531"] ;
16 -> 17 ;
18 [label=<DT_home_reb &le; 0.5<br/>gini = 0.4994<br/>samples = 226<br/>value = [109, 117]<br/>class = y<SUB>1</SUB>>, fillcolor="#399de511"] ;
17 -> 18 ;
19 [label=<gini = 0.4995<br/>samples = 155<br/>value = [75, 80]<br/>class = y<SUB>1</SUB>>, fillcolor="#399de510"] ;
18 -> 19 ;
20 [label=<gini = 0.4991<br/>samples = 71<br/>value = [34, 37]<br/>class = y<SUB>1</SUB>>, fillcolor="#399de515"] ;
18 -> 20 ;
21 [label=<DT_home_reb &le; 0.5<br/>gini = 0.4779<br/>samples = 157<br/>value = [62, 95]<br/>class = y<SUB>1</SUB>>, fillcolor="#399de559"] ;
17 -> 21 ;
22 [label=<gini = 0.4847<br/>samples = 80<br/>value = [33, 47]<br/>class = y<SUB>1</SUB>>, fillcolor="#399de54c"] ;
21 -> 22 ;
23 [label=<gini = 0.4696<br/>samples = 77<br/>value = [29, 48]<br/>class = y<SUB>1</SUB>>, fillcolor="#399de565"] ;
21 -> 23 ;
24 [label=<DT_home_public &le; 0.5<br/>gini = 0.5<br/>samples = 369<br/>value = [185, 184]<br/>class = y<SUB>0</SUB>>, fillcolor="#e5813901"] ;
16 -> 24 ;
25 [label=<DT_home_reb &le; 0.5<br/>gini = 0.4997<br/>samples = 195<br/>value = [95, 100]<br/>class = y<SUB>1</SUB>>, fillcolor="#399de50d"] ;
24 -> 25 ;
26 [label=<gini = 0.4999<br/>samples = 138<br/>value = [70, 68]<br/>class = y<SUB>0</SUB>>, fillcolor="#e5813907"] ;
25 -> 26 ;
27 [label=<gini = 0.4925<br/>samples = 57<br/>value = [25, 32]<br/>class = y<SUB>1</SUB>>, fillcolor="#399de538"] ;
25 -> 27 ;
28 [label=<DT_home_reb &le; 0.5<br/>gini = 0.4994<br/>samples = 174<br/>value = [90, 84]<br/>class = y<SUB>0</SUB>>, fillcolor="#e5813911"] ;
24 -> 28 ;
29 [label=<gini = 0.4997<br/>samples = 84<br/>value = [41, 43]<br/>class = y<SUB>1</SUB>>, fillcolor="#399de50c"] ;
28 -> 29 ;
30 [label=<gini = 0.496<br/>samples = 90<br/>value = [49, 41]<br/>class = y<SUB>0</SUB>>, fillcolor="#e581392a"] ;
28 -> 30 ;
}