digraph Tree {
node [shape=box, style="filled, rounded", color="black", fontname=helvetica] ;
edge [fontname=helvetica] ;
0 [label=<DT_home_winner &le; 0.5<br/>gini = 0.5<br/>samples = 14725<br/>value = [7433, 7292]<br/>class = y<SUB>0</SUB>>, fillcolor="#e5813905"] ;
1 [label=<DT_away_ats &le; 0.5<br/>gini = 0.5<br/>samples = 8990<br/>value = [4462, 4528]<br/>class = y<SUB>1</SUB>>, fillcolor="#399de504"] ;
0 -> 1 [labeldistance=2.5, labelangle=45, headlabel="True"] ;
2 [label=<DT_away_movement &le; 0.5<br/>gini = 0.4998<br/>samples = 5539<br/>value = [2818, 2721]<br/>class = y<SUB>0</SUB>>, fillcolor="#e5813909"] ;
1 -> 2 ;
3 [label=<DT_home_public &le; 0.5<br/>gini = 0.4995<br/>samples = 4073<br/>value = [2100, 1973]<br/>class = y<SUB>0</SUB>>, fillcolor="#e581390f"] ;
2 -> 3 ;
4 [label=<DT_away_public &le; 0.5<br/>gini = 0.499<br/>samples = 2394<br/>value = [1250, 1144]<br/>class = y<SUB>0</SUB>>, fillcolor="#e5813916"] ;
3 -> 4 ;
5 [label=<gini = 0.4987<br/>samples = 1286<br/>value = [676, 610]<br/>class = y<SUB>0</SUB>>, fillcolor="#e5813919"] ;
4 -> 5 ;
6 [label=<gini = 0.4993<br/>samples = 1108<br/>value = [574, 534]<br/>class = y<SUB>0</SUB>>, fillcolor="#e5813912"] ;
4 -> 6 ;
7 [label=<DT_home_reb &le; 0.5<br/>gini = 0.4999<br/>samples = 1679<br/>value = [850, 829]<br/>class = y<SUB>0</SUB>>, fillcolor="#e5813906"] ;
3 -> 7 ;
8 [label=<gini = 0.4999<br/>samples = 861<br/>value = [426, 435]<br/>class = y<SUB>1</SUB>>, fillcolor="#399de505"] ;
7 -> 8 ;
9 [label=<gini = 0.4993<br/>samples = 818<br/>value = [424, 394]<br/>class = y<SUB>0</SUB>>, fillcolor="#e5813912"] ;
7 -> 9 ;
10 [label=<DT_home_reb &le; 0.5<br/>gini = 0.4998<br/>samples = 1466<br/>value = [718, 748]<br/>class = y<SUB>1</SUB>>, fillcolor="#399de50a"] ;
2 -> 10 ;
11 [label=<gini = 0.4983<br/>samples = 801<br/>value = [377, 424]<br/>class = y<SUB>1</SUB>>, fillcolor="#399de51c"] ;
10 -> 11 ;
12 [label=<gini = 0.4997<br/>samples = 665<br/>value = [341, 324]<br/>class = y<SUB>0</SUB>>, fillcolor="#e581390d"] ;
10 -> 12 ;
13 [label=<DT_home_tPAr &le; 0.5<br/>gini = 0.4989<br/>samples = 3451<br/>value = [1644, 1807]<br/>class = y<SUB>1</SUB>>, fillcolor="#399de517"] ;
1 -> 13 ;
14 [label=<DT_home_ats &le; 0.5<br/>gini = 0.4977<br/>samples = 2459<br/>value = [1146, 1313]<br/>class = y<SUB>1</SUB>>, fillcolor="#399de520"] ;
13 -> 14 ;
15 [label=<DT_home_reb &le; 0.5<br/>gini = 0.4987<br/>samples = 1644<br/>value = [780, 864]<br/>class = y<SUB>1</SUB>>, fillcolor="#399de519"] ;
14 -> 15 ;
16 [label=<gini = 0.4995<br/>samples = 1057<br/>value = [512, 545]<br/>class = y<SUB>1</SUB>>, fillcolor="#399de50f"] ;
15 -> 16 ;
17 [label=<gini = 0.4962<br/>samples = 587<br/>value = [268, 319]<br/>class = y<SUB>1</SUB>>, fillcolor="#399de529"] ;
15 -> 17 ;
18 [label=<gini = 0.4948<br/>samples = 815<br/>value = [366, 449]<br/>class = y<SUB>1</SUB>>, fillcolor="#399de52f"] ;
14 -> 18 ;
19 [label=<gini = 0.5<br/>samples = 992<br/>value = [498, 494]<br/>class = y<SUB>0</SUB>>, fillcolor="#e5813902"] ;
13 -> 19 ;
20 [label=<DT_home_ats &le; 0.5<br/>gini = 0.4993<br/>samples = 5735<br/>value = [2971, 2764]<br/>class = y<SUB>0</SUB>>, fillcolor="#e5813912"] ;
0 -> 20 [labeldistance=2.5, labelangle=-45, headlabel="False"] ;
21 [label=<DT_away_movement &le; 0.5<br/>gini = 0.5<br/>samples = 3392<br/>value = [1711, 1681]<br/>class = y<SUB>0</SUB>>, fillcolor="#e5813904"] ;
20 -> 21 ;
22 [label=<DT_away_public &le; 0.5<br/>gini = 0.4987<br/>samples = 1755<br/>value = [923, 832]<br/>class = y<SUB>0</SUB>>, fillcolor="#e5813919"] ;
21 -> 22 ;
23 [label=<gini = 0.4988<br/>samples = 1033<br/>value = [542, 491]<br/>class = y<SUB>0</SUB>>, fillcolor="#e5813918"] ;
22 -> 23 ;
24 [label=<gini = 0.4985<br/>samples = 722<br/>value = [381, 341]<br/>class = y<SUB>0</SUB>>, fillcolor="#e581391b"] ;
22 -> 24 ;
25 [label=<DT_away_public &le; 0.5<br/>gini = 0.4993<br/>samples = 1637<br/>value = [788, 849]<br/>class = y<SUB>1</SUB>>, fillcolor="#399de512"] ;
21 -> 25 ;
26 [label=<gini = 0.5<br/>samples = 763<br/>value = [378, 385]<br/>class = y<SUB>1</SUB>>, fillcolor="#399de505"] ;
25 -> 26 ;
27 [label=<gini = 0.4981<br/>samples = 874<br/>value = [410, 464]<br/>class = y<SUB>1</SUB>>, fillcolor="#399de51e"] ;
25 -> 27 ;
28 [label=<DT_away_public &le; 0.5<br/>gini = 0.4971<br/>samples = 2343<br/>value = [1260, 1083]<br/>class = y<SUB>0</SUB>>, fillcolor="#e5813924"] ;
20 -> 28 ;
29 [label=<DT_home_reb &le; 0.5<br/>gini = 0.499<br/>samples = 1590<br/>value = [830, 760]<br/>class = y<SUB>0</SUB>>, fillcolor="#e5813916"] ;
28 -> 29 ;
30 [label=<gini = 0.4966<br/>samples = 911<br/>value = [493, 418]<br/>class = y<SUB>0</SUB>>, fillcolor="#e5813927"] ;
29 -> 30 ;
31 [label=<gini = 0.5<br/>samples = 679<br/>value = [337, 342]<br/>class = y<SUB>1</SUB>>, fillcolor="#399de504"] ;
29 -> 31 ;
32 [label=<gini = 0.4899<br/>samples = 753<br/>value = [430, 323]<br/>class = y<SUB>0</SUB>>, fillcolor="#e581393f"] ;
28 -> 32 ;
}