digraph Tree {
node [shape=box, style="filled, rounded", color="black", fontname=helvetica] ;
edge [fontname=helvetica] ;
0 [label=<home_ats &le; 0.5<br/>gini = 0.4999<br/>samples = 18175<br/>value = [9206, 8969]<br/>class = y<SUB>0</SUB>>, fillcolor="#e5813907"] ;
1 [label=<away_movement &le; 0.5<br/>gini = 0.5<br/>samples = 11794<br/>value = [5896, 5898]<br/>class = y<SUB>1</SUB>>, fillcolor="#399de500"] ;
0 -> 1 [labeldistance=2.5, labelangle=45, headlabel="True"] ;
2 [label=<away_reb &le; 0.5<br/>gini = 0.4997<br/>samples = 7853<br/>value = [4017, 3836]<br/>class = y<SUB>0</SUB>>, fillcolor="#e581390b"] ;
1 -> 2 ;
3 [label=<away_ats &le; 0.5<br/>gini = 0.5<br/>samples = 5321<br/>value = [2683, 2638]<br/>class = y<SUB>0</SUB>>, fillcolor="#e5813904"] ;
2 -> 3 ;
4 [label=<gini = 0.4993<br/>samples = 3614<br/>value = [1873, 1741]<br/>class = y<SUB>0</SUB>>, fillcolor="#e5813912"] ;
3 -> 4 ;
5 [label=<gini = 0.4987<br/>samples = 1707<br/>value = [810, 897]<br/>class = y<SUB>1</SUB>>, fillcolor="#399de519"] ;
3 -> 5 ;
6 [label=<home_tPAr &le; 0.5<br/>gini = 0.4986<br/>samples = 2532<br/>value = [1334, 1198]<br/>class = y<SUB>0</SUB>>, fillcolor="#e581391a"] ;
2 -> 6 ;
7 [label=<gini = 0.4993<br/>samples = 1570<br/>value = [815, 755]<br/>class = y<SUB>0</SUB>>, fillcolor="#e5813913"] ;
6 -> 7 ;
8 [label=<gini = 0.4969<br/>samples = 962<br/>value = [519, 443]<br/>class = y<SUB>0</SUB>>, fillcolor="#e5813925"] ;
6 -> 8 ;
9 [label=<home_tPAr &le; 0.5<br/>gini = 0.4989<br/>samples = 3941<br/>value = [1879, 2062]<br/>class = y<SUB>1</SUB>>, fillcolor="#399de517"] ;
1 -> 9 ;
10 [label=<away_ats &le; 0.5<br/>gini = 0.4974<br/>samples = 2780<br/>value = [1290, 1490]<br/>class = y<SUB>1</SUB>>, fillcolor="#399de522"] ;
9 -> 10 ;
11 [label=<gini = 0.4969<br/>samples = 1903<br/>value = [877, 1026]<br/>class = y<SUB>1</SUB>>, fillcolor="#399de525"] ;
10 -> 11 ;
12 [label=<gini = 0.4983<br/>samples = 877<br/>value = [413, 464]<br/>class = y<SUB>1</SUB>>, fillcolor="#399de51c"] ;
10 -> 12 ;
13 [label=<gini = 0.4999<br/>samples = 1161<br/>value = [589, 572]<br/>class = y<SUB>0</SUB>>, fillcolor="#e5813907"] ;
9 -> 13 ;
14 [label=<home_winner &le; 0.5<br/>gini = 0.4993<br/>samples = 6381<br/>value = [3310, 3071]<br/>class = y<SUB>0</SUB>>, fillcolor="#e5813912"] ;
0 -> 14 [labeldistance=2.5, labelangle=-45, headlabel="False"] ;
15 [label=<away_ats &le; 0.5<br/>gini = 0.4999<br/>samples = 3451<br/>value = [1751, 1700]<br/>class = y<SUB>0</SUB>>, fillcolor="#e5813907"] ;
14 -> 15 ;
16 [label=<gini = 0.4991<br/>samples = 2006<br/>value = [1046, 960]<br/>class = y<SUB>0</SUB>>, fillcolor="#e5813915"] ;
15 -> 16 ;
17 [label=<gini = 0.4997<br/>samples = 1445<br/>value = [705, 740]<br/>class = y<SUB>1</SUB>>, fillcolor="#399de50c"] ;
15 -> 17 ;
18 [label=<home_tPAr &le; 0.5<br/>gini = 0.4979<br/>samples = 2930<br/>value = [1559, 1371]<br/>class = y<SUB>0</SUB>>, fillcolor="#e581391f"] ;
14 -> 18 ;
19 [label=<away_movement &le; 0.5<br/>gini = 0.4972<br/>samples = 2053<br/>value = [1103, 950]<br/>class = y<SUB>0</SUB>>, fillcolor="#e5813923"] ;
18 -> 19 ;
20 [label=<gini = 0.4971<br/>samples = 1102<br/>value = [593, 509]<br/>class = y<SUB>0</SUB>>, fillcolor="#e5813924"] ;
19 -> 20 ;
21 [label=<gini = 0.4974<br/>samples = 951<br/>value = [510, 441]<br/>class = y<SUB>0</SUB>>, fillcolor="#e5813922"] ;
19 -> 21 ;
22 [label=<gini = 0.4992<br/>samples = 877<br/>value = [456, 421]<br/>class = y<SUB>0</SUB>>, fillcolor="#e5813914"] ;
18 -> 22 ;
}