digraph Tree {
node [shape=box, style="filled, rounded", color="black", fontname=helvetica] ;
edge [fontname=helvetica] ;
0 [label=<DT_home_ats &le; 0.5<br/>gini = 0.4998<br/>samples = 2410<br/>value = [1182, 1228]<br/>class = y<SUB>1</SUB>>, fillcolor="#399de50a"] ;
1 [label=<DT_home_reb &le; 0.5<br/>gini = 0.4985<br/>samples = 1375<br/>value = [650, 725]<br/>class = y<SUB>1</SUB>>, fillcolor="#399de51a"] ;
0 -> 1 [labeldistance=2.5, labelangle=45, headlabel="True"] ;
2 [label=<DT_home_public &le; 0.5<br/>gini = 0.4998<br/>samples = 793<br/>value = [388, 405]<br/>class = y<SUB>1</SUB>>, fillcolor="#399de50b"] ;
1 -> 2 ;
3 [label=<DT_home_winner &le; 0.5<br/>gini = 0.4999<br/>samples = 460<br/>value = [233, 227]<br/>class = y<SUB>0</SUB>>, fillcolor="#e5813907"] ;
2 -> 3 ;
4 [label=<gini = 0.4995<br/>samples = 310<br/>value = [160, 150]<br/>class = y<SUB>0</SUB>>, fillcolor="#e5813910"] ;
3 -> 4 ;
5 [label=<gini = 0.4996<br/>samples = 150<br/>value = [73, 77]<br/>class = y<SUB>1</SUB>>, fillcolor="#399de50d"] ;
3 -> 5 ;
6 [label=<DT_home_winner &le; 0.5<br/>gini = 0.4976<br/>samples = 333<br/>value = [155, 178]<br/>class = y<SUB>1</SUB>>, fillcolor="#399de521"] ;
2 -> 6 ;
7 [label=<gini = 0.4967<br/>samples = 257<br/>value = [118, 139]<br/>class = y<SUB>1</SUB>>, fillcolor="#399de527"] ;
6 -> 7 ;
8 [label=<gini = 0.4997<br/>samples = 76<br/>value = [37, 39]<br/>class = y<SUB>1</SUB>>, fillcolor="#399de50d"] ;
6 -> 8 ;
9 [label=<DT_home_winner &le; 0.5<br/>gini = 0.495<br/>samples = 582<br/>value = [262, 320]<br/>class = y<SUB>1</SUB>>, fillcolor="#399de52e"] ;
1 -> 9 ;
10 [label=<DT_home_public &le; 0.5<br/>gini = 0.4975<br/>samples = 450<br/>value = [209, 241]<br/>class = y<SUB>1</SUB>>, fillcolor="#399de522"] ;
9 -> 10 ;
11 [label=<gini = 0.4993<br/>samples = 185<br/>value = [89, 96]<br/>class = y<SUB>1</SUB>>, fillcolor="#399de513"] ;
10 -> 11 ;
12 [label=<gini = 0.4956<br/>samples = 265<br/>value = [120, 145]<br/>class = y<SUB>1</SUB>>, fillcolor="#399de52c"] ;
10 -> 12 ;
13 [label=<DT_home_public &le; 0.5<br/>gini = 0.4806<br/>samples = 132<br/>value = [53, 79]<br/>class = y<SUB>1</SUB>>, fillcolor="#399de554"] ;
9 -> 13 ;
14 [label=<gini = 0.4835<br/>samples = 66<br/>value = [27, 39]<br/>class = y<SUB>1</SUB>>, fillcolor="#399de54e"] ;
13 -> 14 ;
15 [label=<gini = 0.4775<br/>samples = 66<br/>value = [26, 40]<br/>class = y<SUB>1</SUB>>, fillcolor="#399de559"] ;
13 -> 15 ;
16 [label=<DT_home_winner &le; 0.5<br/>gini = 0.4996<br/>samples = 1035<br/>value = [532, 503]<br/>class = y<SUB>0</SUB>>, fillcolor="#e581390e"] ;
0 -> 16 [labeldistance=2.5, labelangle=-45, headlabel="False"] ;
17 [label=<DT_home_public &le; 0.5<br/>gini = 0.4991<br/>samples = 672<br/>value = [350, 322]<br/>class = y<SUB>0</SUB>>, fillcolor="#e5813914"] ;
16 -> 17 ;
18 [label=<DT_home_reb &le; 0.5<br/>gini = 0.4962<br/>samples = 298<br/>value = [162, 136]<br/>class = y<SUB>0</SUB>>, fillcolor="#e5813929"] ;
17 -> 18 ;
19 [label=<gini = 0.4979<br/>samples = 156<br/>value = [83, 73]<br/>class = y<SUB>0</SUB>>, fillcolor="#e581391f"] ;
18 -> 19 ;
20 [label=<gini = 0.4937<br/>samples = 142<br/>value = [79, 63]<br/>class = y<SUB>0</SUB>>, fillcolor="#e5813934"] ;
18 -> 20 ;
21 [label=<DT_home_reb &le; 0.5<br/>gini = 0.5<br/>samples = 374<br/>value = [188, 186]<br/>class = y<SUB>0</SUB>>, fillcolor="#e5813903"] ;
17 -> 21 ;
22 [label=<gini = 0.4991<br/>samples = 192<br/>value = [100, 92]<br/>class = y<SUB>0</SUB>>, fillcolor="#e5813914"] ;
21 -> 22 ;
23 [label=<gini = 0.4995<br/>samples = 182<br/>value = [88, 94]<br/>class = y<SUB>1</SUB>>, fillcolor="#399de510"] ;
21 -> 23 ;
24 [label=<DT_home_public &le; 0.5<br/>gini = 0.5<br/>samples = 363<br/>value = [182, 181]<br/>class = y<SUB>0</SUB>>, fillcolor="#e5813901"] ;
16 -> 24 ;
25 [label=<DT_home_reb &le; 0.5<br/>gini = 0.4996<br/>samples = 202<br/>value = [98, 104]<br/>class = y<SUB>1</SUB>>, fillcolor="#399de50f"] ;
24 -> 25 ;
26 [label=<gini = 0.4995<br/>samples = 128<br/>value = [66, 62]<br/>class = y<SUB>0</SUB>>, fillcolor="#e581390f"] ;
25 -> 26 ;
27 [label=<gini = 0.4909<br/>samples = 74<br/>value = [32, 42]<br/>class = y<SUB>1</SUB>>, fillcolor="#399de53d"] ;
25 -> 27 ;
28 [label=<DT_home_reb &le; 0.5<br/>gini = 0.4991<br/>samples = 161<br/>value = [84, 77]<br/>class = y<SUB>0</SUB>>, fillcolor="#e5813915"] ;
24 -> 28 ;
29 [label=<gini = 0.4997<br/>samples = 76<br/>value = [37, 39]<br/>class = y<SUB>1</SUB>>, fillcolor="#399de50d"] ;
28 -> 29 ;
30 [label=<gini = 0.4944<br/>samples = 85<br/>value = [47, 38]<br/>class = y<SUB>0</SUB>>, fillcolor="#e5813931"] ;
28 -> 30 ;
}