digraph Tree {
node [shape=box, style="filled, rounded", color="black", fontname=helvetica] ;
edge [fontname=helvetica] ;
0 [label=<DT_away_movement &le; 0.5<br/>gini = 0.5<br/>samples = 14872<br/>value = [7534, 7338]<br/>class = y<SUB>0</SUB>>, fillcolor="#e5813907"] ;
1 [label=<DT_away_reb &le; 0.5<br/>gini = 0.5<br/>samples = 9721<br/>value = [4982, 4739]<br/>class = y<SUB>0</SUB>>, fillcolor="#e581390c"] ;
0 -> 1 [labeldistance=2.5, labelangle=45, headlabel="True"] ;
2 [label=<DT_away_ats &le; 0.5<br/>gini = 0.5<br/>samples = 6831<br/>value = [3462, 3369]<br/>class = y<SUB>0</SUB>>, fillcolor="#e5813907"] ;
1 -> 2 ;
3 [label=<DT_home_tPAr &le; 0.5<br/>gini = 0.499<br/>samples = 4516<br/>value = [2336, 2180]<br/>class = y<SUB>0</SUB>>, fillcolor="#e5813911"] ;
2 -> 3 ;
4 [label=<gini = 0.499<br/>samples = 3397<br/>value = [1788, 1609]<br/>class = y<SUB>0</SUB>>, fillcolor="#e581391a"] ;
3 -> 4 ;
5 [label=<gini = 0.5<br/>samples = 1119<br/>value = [548, 571]<br/>class = y<SUB>1</SUB>>, fillcolor="#399de50a"] ;
3 -> 5 ;
6 [label=<DT_home_ats &le; 0.5<br/>gini = 0.5<br/>samples = 2315<br/>value = [1126, 1189]<br/>class = y<SUB>1</SUB>>, fillcolor="#399de50e"] ;
2 -> 6 ;
7 [label=<gini = 0.499<br/>samples = 1396<br/>value = [662, 734]<br/>class = y<SUB>1</SUB>>, fillcolor="#399de519"] ;
6 -> 7 ;
8 [label=<gini = 0.5<br/>samples = 919<br/>value = [464, 455]<br/>class = y<SUB>0</SUB>>, fillcolor="#e5813905"] ;
6 -> 8 ;
9 [label=<DT_home_tPAr &le; 0.5<br/>gini = 0.499<br/>samples = 2890<br/>value = [1520, 1370]<br/>class = y<SUB>0</SUB>>, fillcolor="#e5813919"] ;
1 -> 9 ;
10 [label=<DT_away_ats &le; 0.5<br/>gini = 0.5<br/>samples = 1783<br/>value = [919, 864]<br/>class = y<SUB>0</SUB>>, fillcolor="#e581390f"] ;
9 -> 10 ;
11 [label=<gini = 0.5<br/>samples = 1022<br/>value = [527, 495]<br/>class = y<SUB>0</SUB>>, fillcolor="#e581390f"] ;
10 -> 11 ;
12 [label=<gini = 0.5<br/>samples = 761<br/>value = [392, 369]<br/>class = y<SUB>0</SUB>>, fillcolor="#e581390f"] ;
10 -> 12 ;
13 [label=<gini = 0.496<br/>samples = 1107<br/>value = [601, 506]<br/>class = y<SUB>0</SUB>>, fillcolor="#e5813928"] ;
9 -> 13 ;
14 [label=<DT_home_ats &le; 0.5<br/>gini = 0.5<br/>samples = 5151<br/>value = [2552, 2599]<br/>class = y<SUB>1</SUB>>, fillcolor="#399de505"] ;
0 -> 14 [labeldistance=2.5, labelangle=-45, headlabel="False"] ;
15 [label=<DT_home_tPAr &le; 0.5<br/>gini = 0.499<br/>samples = 3253<br/>value = [1557, 1696]<br/>class = y<SUB>1</SUB>>, fillcolor="#399de515"] ;
14 -> 15 ;
16 [label=<DT_home_winner &le; 0.5<br/>gini = 0.498<br/>samples = 2294<br/>value = [1076, 1218]<br/>class = y<SUB>1</SUB>>, fillcolor="#399de51e"] ;
15 -> 16 ;
17 [label=<gini = 0.498<br/>samples = 1106<br/>value = [514, 592]<br/>class = y<SUB>1</SUB>>, fillcolor="#399de522"] ;
16 -> 17 ;
18 [label=<gini = 0.499<br/>samples = 1188<br/>value = [562, 626]<br/>class = y<SUB>1</SUB>>, fillcolor="#399de51a"] ;
16 -> 18 ;
19 [label=<gini = 0.5<br/>samples = 959<br/>value = [481, 478]<br/>class = y<SUB>0</SUB>>, fillcolor="#e5813902"] ;
15 -> 19 ;
20 [label=<DT_home_winner &le; 0.5<br/>gini = 0.499<br/>samples = 1898<br/>value = [995, 903]<br/>class = y<SUB>0</SUB>>, fillcolor="#e5813918"] ;
14 -> 20 ;
21 [label=<gini = 0.5<br/>samples = 736<br/>value = [379, 357]<br/>class = y<SUB>0</SUB>>, fillcolor="#e581390f"] ;
20 -> 21 ;
22 [label=<gini = 0.498<br/>samples = 1162<br/>value = [616, 546]<br/>class = y<SUB>0</SUB>>, fillcolor="#e581391d"] ;
20 -> 22 ;
}