digraph Tree {
node [shape=box, style="filled, rounded", color="black", fontname=helvetica] ;
edge [fontname=helvetica] ;
0 [label=<DT_home_ats &le; 0.5<br/>gini = 0.5<br/>samples = 14649<br/>value = [7409, 7240]<br/>class = y<SUB>0</SUB>>, fillcolor="#e5813906"] ;
1 [label=<DT_away_movement &le; 0.5<br/>gini = 0.5<br/>samples = 9566<br/>value = [4754, 4812]<br/>class = y<SUB>1</SUB>>, fillcolor="#399de503"] ;
0 -> 1 [labeldistance=2.5, labelangle=45, headlabel="True"] ;
2 [label=<DT_away_ats &le; 0.5<br/>gini = 0.5<br/>samples = 6389<br/>value = [3246, 3143]<br/>class = y<SUB>0</SUB>>, fillcolor="#e5813908"] ;
1 -> 2 ;
3 [label=<DT_home_tPAr &le; 0.5<br/>gini = 0.5<br/>samples = 4209<br/>value = [2170, 2039]<br/>class = y<SUB>0</SUB>>, fillcolor="#e581390f"] ;
2 -> 3 ;
4 [label=<DT_home_public &le; 0.5<br/>gini = 0.499<br/>samples = 2957<br/>value = [1555, 1402]<br/>class = y<SUB>0</SUB>>, fillcolor="#e5813919"] ;
3 -> 4 ;
5 [label=<DT_home_reb &le; 0.5<br/>gini = 0.498<br/>samples = 1903<br/>value = [1012, 891]<br/>class = y<SUB>0</SUB>>, fillcolor="#e581391e"] ;
4 -> 5 ;
6 [label=<gini = 0.499<br/>samples = 1164<br/>value = [608, 556]<br/>class = y<SUB>0</SUB>>, fillcolor="#e5813916"] ;
5 -> 6 ;
7 [label=<gini = 0.496<br/>samples = 739<br/>value = [404, 335]<br/>class = y<SUB>0</SUB>>, fillcolor="#e581392c"] ;
5 -> 7 ;
8 [label=<gini = 0.5<br/>samples = 1054<br/>value = [543, 511]<br/>class = y<SUB>0</SUB>>, fillcolor="#e581390f"] ;
4 -> 8 ;
9 [label=<gini = 0.5<br/>samples = 1252<br/>value = [615, 637]<br/>class = y<SUB>1</SUB>>, fillcolor="#399de509"] ;
3 -> 9 ;
10 [label=<DT_home_reb &le; 0.5<br/>gini = 0.5<br/>samples = 2180<br/>value = [1076, 1104]<br/>class = y<SUB>1</SUB>>, fillcolor="#399de506"] ;
2 -> 10 ;
11 [label=<DT_away_public &le; 0.5<br/>gini = 0.5<br/>samples = 1521<br/>value = [768, 753]<br/>class = y<SUB>0</SUB>>, fillcolor="#e5813905"] ;
10 -> 11 ;
12 [label=<gini = 0.5<br/>samples = 817<br/>value = [419, 398]<br/>class = y<SUB>0</SUB>>, fillcolor="#e581390d"] ;
11 -> 12 ;
13 [label=<gini = 0.5<br/>samples = 704<br/>value = [349, 355]<br/>class = y<SUB>1</SUB>>, fillcolor="#399de504"] ;
11 -> 13 ;
14 [label=<gini = 0.498<br/>samples = 659<br/>value = [308, 351]<br/>class = y<SUB>1</SUB>>, fillcolor="#399de51f"] ;
10 -> 14 ;
15 [label=<DT_home_tPAr &le; 0.5<br/>gini = 0.499<br/>samples = 3177<br/>value = [1508, 1669]<br/>class = y<SUB>1</SUB>>, fillcolor="#399de519"] ;
1 -> 15 ;
16 [label=<DT_home_reb &le; 0.5<br/>gini = 0.497<br/>samples = 2246<br/>value = [1039, 1207]<br/>class = y<SUB>1</SUB>>, fillcolor="#399de523"] ;
15 -> 16 ;
17 [label=<DT_away_public &le; 0.5<br/>gini = 0.499<br/>samples = 1478<br/>value = [700, 778]<br/>class = y<SUB>1</SUB>>, fillcolor="#399de51a"] ;
16 -> 17 ;
18 [label=<gini = 0.5<br/>samples = 638<br/>value = [315, 323]<br/>class = y<SUB>1</SUB>>, fillcolor="#399de506"] ;
17 -> 18 ;
19 [label=<gini = 0.497<br/>samples = 840<br/>value = [385, 455]<br/>class = y<SUB>1</SUB>>, fillcolor="#399de527"] ;
17 -> 19 ;
20 [label=<gini = 0.493<br/>samples = 768<br/>value = [339, 429]<br/>class = y<SUB>1</SUB>>, fillcolor="#399de535"] ;
16 -> 20 ;
21 [label=<gini = 0.5<br/>samples = 931<br/>value = [469, 462]<br/>class = y<SUB>0</SUB>>, fillcolor="#e5813904"] ;
15 -> 21 ;
22 [label=<DT_home_winner &le; 0.5<br/>gini = 0.499<br/>samples = 5083<br/>value = [2655, 2428]<br/>class = y<SUB>0</SUB>>, fillcolor="#e5813916"] ;
0 -> 22 [labeldistance=2.5, labelangle=-45, headlabel="False"] ;
23 [label=<DT_away_ats &le; 0.5<br/>gini = 0.5<br/>samples = 2738<br/>value = [1393, 1345]<br/>class = y<SUB>0</SUB>>, fillcolor="#e5813909"] ;
22 -> 23 ;
24 [label=<DT_home_reb &le; 0.5<br/>gini = 0.498<br/>samples = 1613<br/>value = [853, 760]<br/>class = y<SUB>0</SUB>>, fillcolor="#e581391c"] ;
23 -> 24 ;
25 [label=<gini = 0.5<br/>samples = 780<br/>value = [389, 391]<br/>class = y<SUB>1</SUB>>, fillcolor="#399de501"] ;
24 -> 25 ;
26 [label=<gini = 0.493<br/>samples = 833<br/>value = [464, 369]<br/>class = y<SUB>0</SUB>>, fillcolor="#e5813934"] ;
24 -> 26 ;
27 [label=<gini = 0.499<br/>samples = 1125<br/>value = [540, 585]<br/>class = y<SUB>1</SUB>>, fillcolor="#399de514"] ;
23 -> 27 ;
28 [label=<DT_home_reb &le; 0.5<br/>gini = 0.497<br/>samples = 2345<br/>value = [1262, 1083]<br/>class = y<SUB>0</SUB>>, fillcolor="#e5813924"] ;
22 -> 28 ;
29 [label=<DT_away_movement &le; 0.5<br/>gini = 0.495<br/>samples = 1470<br/>value = [809, 661]<br/>class = y<SUB>0</SUB>>, fillcolor="#e581392f"] ;
28 -> 29 ;
30 [label=<gini = 0.495<br/>samples = 770<br/>value = [424, 346]<br/>class = y<SUB>0</SUB>>, fillcolor="#e581392f"] ;
29 -> 30 ;
31 [label=<gini = 0.495<br/>samples = 700<br/>value = [385, 315]<br/>class = y<SUB>0</SUB>>, fillcolor="#e581392e"] ;
29 -> 31 ;
32 [label=<gini = 0.499<br/>samples = 875<br/>value = [453, 422]<br/>class = y<SUB>0</SUB>>, fillcolor="#e5813911"] ;
28 -> 32 ;
}