digraph Tree {
node [shape=box, style="filled, rounded", color="black", fontname=helvetica] ;
edge [fontname=helvetica] ;
0 [label=<DT_home_ats &le; 0.5<br/>gini = 0.4999<br/>samples = 2851<br/>value = [1401, 1450]<br/>class = y<SUB>1</SUB>>, fillcolor="#399de509"] ;
1 [label=<DT_home_public &le; 0.5<br/>gini = 0.4988<br/>samples = 1639<br/>value = [779, 860]<br/>class = y<SUB>1</SUB>>, fillcolor="#399de518"] ;
0 -> 1 [labeldistance=2.5, labelangle=45, headlabel="True"] ;
2 [label=<DT_home_reb &le; 0.5<br/>gini = 0.4999<br/>samples = 849<br/>value = [419, 430]<br/>class = y<SUB>1</SUB>>, fillcolor="#399de507"] ;
1 -> 2 ;
3 [label=<DT_home_winner &le; 0.5<br/>gini = 0.4999<br/>samples = 542<br/>value = [275, 267]<br/>class = y<SUB>0</SUB>>, fillcolor="#e5813907"] ;
2 -> 3 ;
4 [label=<gini = 0.4997<br/>samples = 361<br/>value = [185, 176]<br/>class = y<SUB>0</SUB>>, fillcolor="#e581390c"] ;
3 -> 4 ;
5 [label=<gini = 0.5<br/>samples = 181<br/>value = [90, 91]<br/>class = y<SUB>1</SUB>>, fillcolor="#399de503"] ;
3 -> 5 ;
6 [label=<DT_home_winner &le; 0.5<br/>gini = 0.4981<br/>samples = 307<br/>value = [144, 163]<br/>class = y<SUB>1</SUB>>, fillcolor="#399de51e"] ;
2 -> 6 ;
7 [label=<gini = 0.4985<br/>samples = 222<br/>value = [105, 117]<br/>class = y<SUB>1</SUB>>, fillcolor="#399de51a"] ;
6 -> 7 ;
8 [label=<gini = 0.4966<br/>samples = 85<br/>value = [39, 46]<br/>class = y<SUB>1</SUB>>, fillcolor="#399de527"] ;
6 -> 8 ;
9 [label=<DT_home_winner &le; 0.5<br/>gini = 0.4961<br/>samples = 790<br/>value = [360, 430]<br/>class = y<SUB>1</SUB>>, fillcolor="#399de52a"] ;
1 -> 9 ;
10 [label=<DT_home_reb &le; 0.5<br/>gini = 0.4977<br/>samples = 618<br/>value = [288, 330]<br/>class = y<SUB>1</SUB>>, fillcolor="#399de520"] ;
9 -> 10 ;
11 [label=<gini = 0.4975<br/>samples = 312<br/>value = [145, 167]<br/>class = y<SUB>1</SUB>>, fillcolor="#399de522"] ;
10 -> 11 ;
12 [label=<gini = 0.4979<br/>samples = 306<br/>value = [143, 163]<br/>class = y<SUB>1</SUB>>, fillcolor="#399de51f"] ;
10 -> 12 ;
13 [label=<DT_home_reb &le; 0.5<br/>gini = 0.4867<br/>samples = 172<br/>value = [72, 100]<br/>class = y<SUB>1</SUB>>, fillcolor="#399de547"] ;
9 -> 13 ;
14 [label=<gini = 0.4962<br/>samples = 92<br/>value = [42, 50]<br/>class = y<SUB>1</SUB>>, fillcolor="#399de529"] ;
13 -> 14 ;
15 [label=<gini = 0.4688<br/>samples = 80<br/>value = [30, 50]<br/>class = y<SUB>1</SUB>>, fillcolor="#399de566"] ;
13 -> 15 ;
16 [label=<DT_home_public &le; 0.5<br/>gini = 0.4997<br/>samples = 1212<br/>value = [622, 590]<br/>class = y<SUB>0</SUB>>, fillcolor="#e581390d"] ;
0 -> 16 [labeldistance=2.5, labelangle=-45, headlabel="False"] ;
17 [label=<DT_home_winner &le; 0.5<br/>gini = 0.4991<br/>samples = 575<br/>value = [300, 275]<br/>class = y<SUB>0</SUB>>, fillcolor="#e5813915"] ;
16 -> 17 ;
18 [label=<DT_home_reb &le; 0.5<br/>gini = 0.4957<br/>samples = 346<br/>value = [189, 157]<br/>class = y<SUB>0</SUB>>, fillcolor="#e581392b"] ;
17 -> 18 ;
19 [label=<gini = 0.4985<br/>samples = 184<br/>value = [97, 87]<br/>class = y<SUB>0</SUB>>, fillcolor="#e581391a"] ;
18 -> 19 ;
20 [label=<gini = 0.4908<br/>samples = 162<br/>value = [92, 70]<br/>class = y<SUB>0</SUB>>, fillcolor="#e581393d"] ;
18 -> 20 ;
21 [label=<DT_home_reb &le; 0.5<br/>gini = 0.4995<br/>samples = 229<br/>value = [111, 118]<br/>class = y<SUB>1</SUB>>, fillcolor="#399de50f"] ;
17 -> 21 ;
22 [label=<gini = 0.4995<br/>samples = 153<br/>value = [79, 74]<br/>class = y<SUB>0</SUB>>, fillcolor="#e5813910"] ;
21 -> 22 ;
23 [label=<gini = 0.4875<br/>samples = 76<br/>value = [32, 44]<br/>class = y<SUB>1</SUB>>, fillcolor="#399de546"] ;
21 -> 23 ;
24 [label=<DT_home_winner &le; 0.5<br/>gini = 0.4999<br/>samples = 637<br/>value = [322, 315]<br/>class = y<SUB>0</SUB>>, fillcolor="#e5813906"] ;
16 -> 24 ;
25 [label=<DT_home_reb &le; 0.5<br/>gini = 0.5<br/>samples = 440<br/>value = [219, 221]<br/>class = y<SUB>1</SUB>>, fillcolor="#399de502"] ;
24 -> 25 ;
26 [label=<gini = 0.4998<br/>samples = 224<br/>value = [114, 110]<br/>class = y<SUB>0</SUB>>, fillcolor="#e5813909"] ;
25 -> 26 ;
27 [label=<gini = 0.4996<br/>samples = 216<br/>value = [105, 111]<br/>class = y<SUB>1</SUB>>, fillcolor="#399de50e"] ;
25 -> 27 ;
28 [label=<DT_home_reb &le; 0.5<br/>gini = 0.499<br/>samples = 197<br/>value = [103, 94]<br/>class = y<SUB>0</SUB>>, fillcolor="#e5813916"] ;
24 -> 28 ;
29 [label=<gini = 0.4999<br/>samples = 91<br/>value = [46, 45]<br/>class = y<SUB>0</SUB>>, fillcolor="#e5813906"] ;
28 -> 29 ;
30 [label=<gini = 0.4972<br/>samples = 106<br/>value = [57, 49]<br/>class = y<SUB>0</SUB>>, fillcolor="#e5813924"] ;
28 -> 30 ;
}