digraph Tree {
node [shape=box, style="filled, rounded", color="black", fontname=helvetica] ;
edge [fontname=helvetica] ;
0 [label=<DT_home_ats &le; 0.5<br/>gini = 0.5<br/>samples = 14112<br/>value = [7143, 6969]<br/>class = y<SUB>0</SUB>>, fillcolor="#e5813906"] ;
1 [label=<DT_away_movement &le; 0.5<br/>gini = 0.5<br/>samples = 9192<br/>value = [4569, 4623]<br/>class = y<SUB>1</SUB>>, fillcolor="#399de503"] ;
0 -> 1 [labeldistance=2.5, labelangle=45, headlabel="True"] ;
2 [label=<DT_home_public &le; 0.5<br/>gini = 0.5<br/>samples = 6268<br/>value = [3175, 3093]<br/>class = y<SUB>0</SUB>>, fillcolor="#e5813907"] ;
1 -> 2 ;
3 [label=<DT_home_winner &le; 0.5<br/>gini = 0.5<br/>samples = 4314<br/>value = [2213, 2101]<br/>class = y<SUB>0</SUB>>, fillcolor="#e581390d"] ;
2 -> 3 ;
4 [label=<DT_away_public &le; 0.5<br/>gini = 0.499<br/>samples = 3023<br/>value = [1567, 1456]<br/>class = y<SUB>0</SUB>>, fillcolor="#e5813912"] ;
3 -> 4 ;
5 [label=<gini = 0.498<br/>samples = 1388<br/>value = [738, 650]<br/>class = y<SUB>0</SUB>>, fillcolor="#e581391e"] ;
4 -> 5 ;
6 [label=<DT_away_ats &le; 0.5<br/>gini = 0.5<br/>samples = 1635<br/>value = [829, 806]<br/>class = y<SUB>0</SUB>>, fillcolor="#e5813907"] ;
4 -> 6 ;
7 [label=<gini = 0.5<br/>samples = 907<br/>value = [466, 441]<br/>class = y<SUB>0</SUB>>, fillcolor="#e581390e"] ;
6 -> 7 ;
8 [label=<gini = 0.5<br/>samples = 728<br/>value = [363, 365]<br/>class = y<SUB>1</SUB>>, fillcolor="#399de501"] ;
6 -> 8 ;
9 [label=<gini = 0.5<br/>samples = 1291<br/>value = [646, 645]<br/>class = y<SUB>0</SUB>>, fillcolor="#e5813900"] ;
3 -> 9 ;
10 [label=<DT_home_reb &le; 0.5<br/>gini = 0.5<br/>samples = 1954<br/>value = [962, 992]<br/>class = y<SUB>1</SUB>>, fillcolor="#399de508"] ;
2 -> 10 ;
11 [label=<gini = 0.5<br/>samples = 1147<br/>value = [577, 570]<br/>class = y<SUB>0</SUB>>, fillcolor="#e5813903"] ;
10 -> 11 ;
12 [label=<gini = 0.499<br/>samples = 807<br/>value = [385, 422]<br/>class = y<SUB>1</SUB>>, fillcolor="#399de516"] ;
10 -> 12 ;
13 [label=<DT_home_reb &le; 0.5<br/>gini = 0.499<br/>samples = 2924<br/>value = [1394, 1530]<br/>class = y<SUB>1</SUB>>, fillcolor="#399de517"] ;
1 -> 13 ;
14 [label=<DT_away_public &le; 0.5<br/>gini = 0.5<br/>samples = 1981<br/>value = [973, 1008]<br/>class = y<SUB>1</SUB>>, fillcolor="#399de509"] ;
13 -> 14 ;
15 [label=<gini = 0.5<br/>samples = 899<br/>value = [460, 439]<br/>class = y<SUB>0</SUB>>, fillcolor="#e581390c"] ;
14 -> 15 ;
16 [label=<gini = 0.499<br/>samples = 1082<br/>value = [513, 569]<br/>class = y<SUB>1</SUB>>, fillcolor="#399de519"] ;
14 -> 16 ;
17 [label=<gini = 0.494<br/>samples = 943<br/>value = [421, 522]<br/>class = y<SUB>1</SUB>>, fillcolor="#399de531"] ;
13 -> 17 ;
18 [label=<DT_home_public &le; 0.5<br/>gini = 0.499<br/>samples = 4920<br/>value = [2574, 2346]<br/>class = y<SUB>0</SUB>>, fillcolor="#e5813917"] ;
0 -> 18 [labeldistance=2.5, labelangle=-45, headlabel="False"] ;
19 [label=<DT_away_ats &le; 0.5<br/>gini = 0.498<br/>samples = 3101<br/>value = [1656, 1445]<br/>class = y<SUB>0</SUB>>, fillcolor="#e5813920"] ;
18 -> 19 ;
20 [label=<DT_home_reb &le; 0.5<br/>gini = 0.496<br/>samples = 1897<br/>value = [1034, 863]<br/>class = y<SUB>0</SUB>>, fillcolor="#e581392a"] ;
19 -> 20 ;
21 [label=<gini = 0.497<br/>samples = 1092<br/>value = [585, 507]<br/>class = y<SUB>0</SUB>>, fillcolor="#e5813922"] ;
20 -> 21 ;
22 [label=<gini = 0.493<br/>samples = 805<br/>value = [449, 356]<br/>class = y<SUB>0</SUB>>, fillcolor="#e5813935"] ;
20 -> 22 ;
23 [label=<DT_away_public &le; 0.5<br/>gini = 0.499<br/>samples = 1204<br/>value = [622, 582]<br/>class = y<SUB>0</SUB>>, fillcolor="#e5813910"] ;
19 -> 23 ;
24 [label=<gini = 0.499<br/>samples = 601<br/>value = [312, 289]<br/>class = y<SUB>0</SUB>>, fillcolor="#e5813913"] ;
23 -> 24 ;
25 [label=<gini = 0.5<br/>samples = 603<br/>value = [310, 293]<br/>class = y<SUB>0</SUB>>, fillcolor="#e581390e"] ;
23 -> 25 ;
26 [label=<DT_home_winner &le; 0.5<br/>gini = 0.5<br/>samples = 1819<br/>value = [918, 901]<br/>class = y<SUB>0</SUB>>, fillcolor="#e5813905"] ;
18 -> 26 ;
27 [label=<gini = 0.5<br/>samples = 1000<br/>value = [507, 493]<br/>class = y<SUB>0</SUB>>, fillcolor="#e5813907"] ;
26 -> 27 ;
28 [label=<gini = 0.5<br/>samples = 819<br/>value = [411, 408]<br/>class = y<SUB>0</SUB>>, fillcolor="#e5813902"] ;
26 -> 28 ;
}