digraph Tree {
node [shape=box, style="filled, rounded", color="black", fontname=helvetica] ;
edge [fontname=helvetica] ;
0 [label=<DT_home_winner &le; 0.5<br/>gini = 0.4999<br/>samples = 14363<br/>value = [7272, 7091]<br/>class = y<SUB>0</SUB>>, fillcolor="#e5813906"] ;
1 [label=<DT_away_ats &le; 0.5<br/>gini = 0.5<br/>samples = 8760<br/>value = [4347, 4413]<br/>class = y<SUB>1</SUB>>, fillcolor="#399de504"] ;
0 -> 1 [labeldistance=2.5, labelangle=45, headlabel="True"] ;
2 [label=<DT_away_movement &le; 0.5<br/>gini = 0.4999<br/>samples = 5402<br/>value = [2743, 2659]<br/>class = y<SUB>0</SUB>>, fillcolor="#e5813908"] ;
1 -> 2 ;
3 [label=<DT_home_public &le; 0.5<br/>gini = 0.4996<br/>samples = 4016<br/>value = [2062, 1954]<br/>class = y<SUB>0</SUB>>, fillcolor="#e581390d"] ;
2 -> 3 ;
4 [label=<DT_home_reb &le; 0.5<br/>gini = 0.4991<br/>samples = 2393<br/>value = [1246, 1147]<br/>class = y<SUB>0</SUB>>, fillcolor="#e5813914"] ;
3 -> 4 ;
5 [label=<DT_away_public &le; 0.5<br/>gini = 0.4995<br/>samples = 1446<br/>value = [745, 701]<br/>class = y<SUB>0</SUB>>, fillcolor="#e581390f"] ;
4 -> 5 ;
6 [label=<gini = 0.499<br/>samples = 727<br/>value = [380, 347]<br/>class = y<SUB>0</SUB>>, fillcolor="#e5813916"] ;
5 -> 6 ;
7 [label=<gini = 0.4999<br/>samples = 719<br/>value = [365, 354]<br/>class = y<SUB>0</SUB>>, fillcolor="#e5813908"] ;
5 -> 7 ;
8 [label=<gini = 0.4983<br/>samples = 947<br/>value = [501, 446]<br/>class = y<SUB>0</SUB>>, fillcolor="#e581391c"] ;
4 -> 8 ;
9 [label=<DT_home_reb &le; 0.5<br/>gini = 0.5<br/>samples = 1623<br/>value = [816, 807]<br/>class = y<SUB>0</SUB>>, fillcolor="#e5813903"] ;
3 -> 9 ;
10 [label=<gini = 0.4998<br/>samples = 838<br/>value = [411, 427]<br/>class = y<SUB>1</SUB>>, fillcolor="#399de50a"] ;
9 -> 10 ;
11 [label=<gini = 0.4995<br/>samples = 785<br/>value = [405, 380]<br/>class = y<SUB>0</SUB>>, fillcolor="#e5813910"] ;
9 -> 11 ;
12 [label=<DT_home_reb &le; 0.5<br/>gini = 0.4999<br/>samples = 1386<br/>value = [681, 705]<br/>class = y<SUB>1</SUB>>, fillcolor="#399de509"] ;
2 -> 12 ;
13 [label=<gini = 0.4991<br/>samples = 735<br/>value = [352, 383]<br/>class = y<SUB>1</SUB>>, fillcolor="#399de515"] ;
12 -> 13 ;
14 [label=<gini = 0.4999<br/>samples = 651<br/>value = [329, 322]<br/>class = y<SUB>0</SUB>>, fillcolor="#e5813905"] ;
12 -> 14 ;
15 [label=<DT_home_reb &le; 0.5<br/>gini = 0.499<br/>samples = 3358<br/>value = [1604, 1754]<br/>class = y<SUB>1</SUB>>, fillcolor="#399de516"] ;
1 -> 15 ;
16 [label=<DT_home_tPAr &le; 0.5<br/>gini = 0.4998<br/>samples = 2205<br/>value = [1079, 1126]<br/>class = y<SUB>1</SUB>>, fillcolor="#399de50b"] ;
15 -> 16 ;
17 [label=<DT_away_public &le; 0.5<br/>gini = 0.499<br/>samples = 1484<br/>value = [708, 776]<br/>class = y<SUB>1</SUB>>, fillcolor="#399de516"] ;
16 -> 17 ;
18 [label=<gini = 0.4988<br/>samples = 845<br/>value = [402, 443]<br/>class = y<SUB>1</SUB>>, fillcolor="#399de518"] ;
17 -> 18 ;
19 [label=<gini = 0.4991<br/>samples = 639<br/>value = [306, 333]<br/>class = y<SUB>1</SUB>>, fillcolor="#399de515"] ;
17 -> 19 ;
20 [label=<gini = 0.4996<br/>samples = 721<br/>value = [371, 350]<br/>class = y<SUB>0</SUB>>, fillcolor="#e581390e"] ;
16 -> 20 ;
21 [label=<gini = 0.496<br/>samples = 1153<br/>value = [525, 628]<br/>class = y<SUB>1</SUB>>, fillcolor="#399de52a"] ;
15 -> 21 ;
22 [label=<DT_home_ats &le; 0.5<br/>gini = 0.499<br/>samples = 5603<br/>value = [2925, 2678]<br/>class = y<SUB>0</SUB>>, fillcolor="#e5813916"] ;
0 -> 22 [labeldistance=2.5, labelangle=-45, headlabel="False"] ;
23 [label=<DT_away_movement &le; 0.5<br/>gini = 0.4999<br/>samples = 3327<br/>value = [1687, 1640]<br/>class = y<SUB>0</SUB>>, fillcolor="#e5813907"] ;
22 -> 23 ;
24 [label=<DT_away_public &le; 0.5<br/>gini = 0.4987<br/>samples = 1785<br/>value = [938, 847]<br/>class = y<SUB>0</SUB>>, fillcolor="#e5813919"] ;
23 -> 24 ;
25 [label=<gini = 0.4988<br/>samples = 1035<br/>value = [543, 492]<br/>class = y<SUB>0</SUB>>, fillcolor="#e5813918"] ;
24 -> 25 ;
26 [label=<gini = 0.4986<br/>samples = 750<br/>value = [395, 355]<br/>class = y<SUB>0</SUB>>, fillcolor="#e581391a"] ;
24 -> 26 ;
27 [label=<DT_away_public &le; 0.5<br/>gini = 0.4996<br/>samples = 1542<br/>value = [749, 793]<br/>class = y<SUB>1</SUB>>, fillcolor="#399de50e"] ;
23 -> 27 ;
28 [label=<gini = 0.5<br/>samples = 722<br/>value = [361, 361]<br/>class = y<SUB>0</SUB>>, fillcolor="#e5813900"] ;
27 -> 28 ;
29 [label=<gini = 0.4986<br/>samples = 820<br/>value = [388, 432]<br/>class = y<SUB>1</SUB>>, fillcolor="#399de51a"] ;
27 -> 29 ;
30 [label=<DT_away_public &le; 0.5<br/>gini = 0.4961<br/>samples = 2276<br/>value = [1238, 1038]<br/>class = y<SUB>0</SUB>>, fillcolor="#e5813929"] ;
22 -> 30 ;
31 [label=<DT_home_reb &le; 0.5<br/>gini = 0.4983<br/>samples = 1542<br/>value = [816, 726]<br/>class = y<SUB>0</SUB>>, fillcolor="#e581391c"] ;
30 -> 31 ;
32 [label=<gini = 0.4953<br/>samples = 886<br/>value = [486, 400]<br/>class = y<SUB>0</SUB>>, fillcolor="#e581392d"] ;
31 -> 32 ;
33 [label=<gini = 0.5<br/>samples = 656<br/>value = [330, 326]<br/>class = y<SUB>0</SUB>>, fillcolor="#e5813903"] ;
31 -> 33 ;
34 [label=<gini = 0.4888<br/>samples = 734<br/>value = [422, 312]<br/>class = y<SUB>0</SUB>>, fillcolor="#e5813942"] ;
30 -> 34 ;
}