digraph Tree {
node [shape=box, style="filled, rounded", color="black", fontname=helvetica] ;
edge [fontname=helvetica] ;
0 [label=<DT_away_movement &le; 0.5<br/>gini = 0.5<br/>samples = 14787<br/>value = [7539, 7248]<br/>class = y<SUB>0</SUB>>, fillcolor="#e581390a"] ;
1 [label=<DT_home_winner &le; 0.5<br/>gini = 0.499<br/>samples = 9688<br/>value = [5031, 4657]<br/>class = y<SUB>0</SUB>>, fillcolor="#e5813913"] ;
0 -> 1 [labeldistance=2.5, labelangle=45, headlabel="True"] ;
2 [label=<DT_away_ats &le; 0.5<br/>gini = 0.5<br/>samples = 6649<br/>value = [3415, 3234]<br/>class = y<SUB>0</SUB>>, fillcolor="#e581390e"] ;
1 -> 2 ;
3 [label=<DT_home_tPAr &le; 0.5<br/>gini = 0.499<br/>samples = 4074<br/>value = [2142, 1932]<br/>class = y<SUB>0</SUB>>, fillcolor="#e5813919"] ;
2 -> 3 ;
4 [label=<DT_home_reb &le; 0.5<br/>gini = 0.498<br/>samples = 2893<br/>value = [1542, 1351]<br/>class = y<SUB>0</SUB>>, fillcolor="#e5813920"] ;
3 -> 4 ;
5 [label=<gini = 0.499<br/>samples = 1563<br/>value = [810, 753]<br/>class = y<SUB>0</SUB>>, fillcolor="#e5813912"] ;
4 -> 5 ;
6 [label=<gini = 0.495<br/>samples = 1330<br/>value = [732, 598]<br/>class = y<SUB>0</SUB>>, fillcolor="#e581392f"] ;
4 -> 6 ;
7 [label=<gini = 0.5<br/>samples = 1181<br/>value = [600, 581]<br/>class = y<SUB>0</SUB>>, fillcolor="#e5813908"] ;
3 -> 7 ;
8 [label=<DT_home_ats &le; 0.5<br/>gini = 0.5<br/>samples = 2575<br/>value = [1273, 1302]<br/>class = y<SUB>1</SUB>>, fillcolor="#399de506"] ;
2 -> 8 ;
9 [label=<DT_away_public &le; 0.5<br/>gini = 0.5<br/>samples = 1731<br/>value = [874, 857]<br/>class = y<SUB>0</SUB>>, fillcolor="#e5813905"] ;
8 -> 9 ;
10 [label=<gini = 0.5<br/>samples = 1001<br/>value = [498, 503]<br/>class = y<SUB>1</SUB>>, fillcolor="#399de503"] ;
9 -> 10 ;
11 [label=<gini = 0.5<br/>samples = 730<br/>value = [376, 354]<br/>class = y<SUB>0</SUB>>, fillcolor="#e581390f"] ;
9 -> 11 ;
12 [label=<gini = 0.499<br/>samples = 844<br/>value = [399, 445]<br/>class = y<SUB>1</SUB>>, fillcolor="#399de51a"] ;
8 -> 12 ;
13 [label=<DT_away_ats &le; 0.5<br/>gini = 0.498<br/>samples = 3039<br/>value = [1616, 1423]<br/>class = y<SUB>0</SUB>>, fillcolor="#e581391e"] ;
1 -> 13 ;
14 [label=<DT_home_tPAr &le; 0.5<br/>gini = 0.499<br/>samples = 2204<br/>value = [1153, 1051]<br/>class = y<SUB>0</SUB>>, fillcolor="#e5813917"] ;
13 -> 14 ;
15 [label=<DT_home_reb &le; 0.5<br/>gini = 0.498<br/>samples = 1554<br/>value = [824, 730]<br/>class = y<SUB>0</SUB>>, fillcolor="#e581391d"] ;
14 -> 15 ;
16 [label=<gini = 0.499<br/>samples = 949<br/>value = [494, 455]<br/>class = y<SUB>0</SUB>>, fillcolor="#e5813914"] ;
15 -> 16 ;
17 [label=<gini = 0.496<br/>samples = 605<br/>value = [330, 275]<br/>class = y<SUB>0</SUB>>, fillcolor="#e581392a"] ;
15 -> 17 ;
18 [label=<gini = 0.5<br/>samples = 650<br/>value = [329, 321]<br/>class = y<SUB>0</SUB>>, fillcolor="#e5813906"] ;
14 -> 18 ;
19 [label=<gini = 0.494<br/>samples = 835<br/>value = [463, 372]<br/>class = y<SUB>0</SUB>>, fillcolor="#e5813932"] ;
13 -> 19 ;
20 [label=<DT_home_ats &le; 0.5<br/>gini = 0.5<br/>samples = 5099<br/>value = [2508, 2591]<br/>class = y<SUB>1</SUB>>, fillcolor="#399de508"] ;
0 -> 20 [labeldistance=2.5, labelangle=-45, headlabel="False"] ;
21 [label=<DT_home_tPAr &le; 0.5<br/>gini = 0.498<br/>samples = 3219<br/>value = [1514, 1705]<br/>class = y<SUB>1</SUB>>, fillcolor="#399de51d"] ;
20 -> 21 ;
22 [label=<DT_away_public &le; 0.5<br/>gini = 0.496<br/>samples = 2283<br/>value = [1042, 1241]<br/>class = y<SUB>1</SUB>>, fillcolor="#399de529"] ;
21 -> 22 ;
23 [label=<gini = 0.498<br/>samples = 1119<br/>value = [527, 592]<br/>class = y<SUB>1</SUB>>, fillcolor="#399de51c"] ;
22 -> 23 ;
24 [label=<DT_home_winner &le; 0.5<br/>gini = 0.493<br/>samples = 1164<br/>value = [515, 649]<br/>class = y<SUB>1</SUB>>, fillcolor="#399de535"] ;
22 -> 24 ;
25 [label=<gini = 0.493<br/>samples = 575<br/>value = [254, 321]<br/>class = y<SUB>1</SUB>>, fillcolor="#399de535"] ;
24 -> 25 ;
26 [label=<gini = 0.494<br/>samples = 589<br/>value = [261, 328]<br/>class = y<SUB>1</SUB>>, fillcolor="#399de534"] ;
24 -> 26 ;
27 [label=<gini = 0.5<br/>samples = 936<br/>value = [472, 464]<br/>class = y<SUB>0</SUB>>, fillcolor="#e5813904"] ;
21 -> 27 ;
28 [label=<DT_home_public &le; 0.5<br/>gini = 0.498<br/>samples = 1880<br/>value = [994, 886]<br/>class = y<SUB>0</SUB>>, fillcolor="#e581391c"] ;
20 -> 28 ;
29 [label=<DT_away_public &le; 0.5<br/>gini = 0.497<br/>samples = 1268<br/>value = [686, 582]<br/>class = y<SUB>0</SUB>>, fillcolor="#e5813927"] ;
28 -> 29 ;
30 [label=<gini = 0.498<br/>samples = 620<br/>value = [330, 290]<br/>class = y<SUB>0</SUB>>, fillcolor="#e581391f"] ;
29 -> 30 ;
31 [label=<gini = 0.495<br/>samples = 648<br/>value = [356, 292]<br/>class = y<SUB>0</SUB>>, fillcolor="#e581392e"] ;
29 -> 31 ;
32 [label=<gini = 0.5<br/>samples = 612<br/>value = [308, 304]<br/>class = y<SUB>0</SUB>>, fillcolor="#e5813903"] ;
28 -> 32 ;
}