digraph Tree {
node [shape=box, style="filled, rounded", color="black", fontname=helvetica] ;
edge [fontname=helvetica] ;
0 [label=<DT_home_ats &le; 0.5<br/>gini = 0.4999<br/>samples = 2501<br/>value = [1230, 1271]<br/>class = y<SUB>1</SUB>>, fillcolor="#399de508"] ;
1 [label=<DT_home_public &le; 0.5<br/>gini = 0.4985<br/>samples = 1429<br/>value = [675, 754]<br/>class = y<SUB>1</SUB>>, fillcolor="#399de51b"] ;
0 -> 1 [labeldistance=2.5, labelangle=45, headlabel="True"] ;
2 [label=<DT_home_winner &le; 0.5<br/>gini = 0.4999<br/>samples = 751<br/>value = [369, 382]<br/>class = y<SUB>1</SUB>>, fillcolor="#399de509"] ;
1 -> 2 ;
3 [label=<DT_home_reb &le; 0.5<br/>gini = 0.4999<br/>samples = 521<br/>value = [265, 256]<br/>class = y<SUB>0</SUB>>, fillcolor="#e5813909"] ;
2 -> 3 ;
4 [label=<gini = 0.4992<br/>samples = 329<br/>value = [171, 158]<br/>class = y<SUB>0</SUB>>, fillcolor="#e5813913"] ;
3 -> 4 ;
5 [label=<gini = 0.4998<br/>samples = 192<br/>value = [94, 98]<br/>class = y<SUB>1</SUB>>, fillcolor="#399de50a"] ;
3 -> 5 ;
6 [label=<DT_home_reb &le; 0.5<br/>gini = 0.4954<br/>samples = 230<br/>value = [104, 126]<br/>class = y<SUB>1</SUB>>, fillcolor="#399de52d"] ;
2 -> 6 ;
7 [label=<gini = 0.4977<br/>samples = 161<br/>value = [75, 86]<br/>class = y<SUB>1</SUB>>, fillcolor="#399de521"] ;
6 -> 7 ;
8 [label=<gini = 0.4873<br/>samples = 69<br/>value = [29, 40]<br/>class = y<SUB>1</SUB>>, fillcolor="#399de546"] ;
6 -> 8 ;
9 [label=<DT_home_winner &le; 0.5<br/>gini = 0.4953<br/>samples = 678<br/>value = [306, 372]<br/>class = y<SUB>1</SUB>>, fillcolor="#399de52d"] ;
1 -> 9 ;
10 [label=<DT_home_reb &le; 0.5<br/>gini = 0.4965<br/>samples = 526<br/>value = [241, 285]<br/>class = y<SUB>1</SUB>>, fillcolor="#399de527"] ;
9 -> 10 ;
11 [label=<gini = 0.4964<br/>samples = 260<br/>value = [119, 141]<br/>class = y<SUB>1</SUB>>, fillcolor="#399de528"] ;
10 -> 11 ;
12 [label=<gini = 0.4966<br/>samples = 266<br/>value = [122, 144]<br/>class = y<SUB>1</SUB>>, fillcolor="#399de527"] ;
10 -> 12 ;
13 [label=<DT_home_reb &le; 0.5<br/>gini = 0.4895<br/>samples = 152<br/>value = [65, 87]<br/>class = y<SUB>1</SUB>>, fillcolor="#399de540"] ;
9 -> 13 ;
14 [label=<gini = 0.497<br/>samples = 78<br/>value = [36, 42]<br/>class = y<SUB>1</SUB>>, fillcolor="#399de524"] ;
13 -> 14 ;
15 [label=<gini = 0.4766<br/>samples = 74<br/>value = [29, 45]<br/>class = y<SUB>1</SUB>>, fillcolor="#399de55b"] ;
13 -> 15 ;
16 [label=<DT_home_winner &le; 0.5<br/>gini = 0.4994<br/>samples = 1072<br/>value = [555, 517]<br/>class = y<SUB>0</SUB>>, fillcolor="#e5813911"] ;
0 -> 16 [labeldistance=2.5, labelangle=-45, headlabel="False"] ;
17 [label=<DT_home_public &le; 0.5<br/>gini = 0.4982<br/>samples = 689<br/>value = [365, 324]<br/>class = y<SUB>0</SUB>>, fillcolor="#e581391d"] ;
16 -> 17 ;
18 [label=<DT_home_reb &le; 0.5<br/>gini = 0.4938<br/>samples = 306<br/>value = [170, 136]<br/>class = y<SUB>0</SUB>>, fillcolor="#e5813933"] ;
17 -> 18 ;
19 [label=<gini = 0.494<br/>samples = 164<br/>value = [91, 73]<br/>class = y<SUB>0</SUB>>, fillcolor="#e5813932"] ;
18 -> 19 ;
20 [label=<gini = 0.4937<br/>samples = 142<br/>value = [79, 63]<br/>class = y<SUB>0</SUB>>, fillcolor="#e5813934"] ;
18 -> 20 ;
21 [label=<DT_home_reb &le; 0.5<br/>gini = 0.4998<br/>samples = 383<br/>value = [195, 188]<br/>class = y<SUB>0</SUB>>, fillcolor="#e5813909"] ;
17 -> 21 ;
22 [label=<gini = 0.4989<br/>samples = 195<br/>value = [102, 93]<br/>class = y<SUB>0</SUB>>, fillcolor="#e5813917"] ;
21 -> 22 ;
23 [label=<gini = 0.4999<br/>samples = 188<br/>value = [93, 95]<br/>class = y<SUB>1</SUB>>, fillcolor="#399de505"] ;
21 -> 23 ;
24 [label=<DT_home_public &le; 0.5<br/>gini = 0.5<br/>samples = 383<br/>value = [190, 193]<br/>class = y<SUB>1</SUB>>, fillcolor="#399de504"] ;
16 -> 24 ;
25 [label=<DT_home_reb &le; 0.5<br/>gini = 0.4991<br/>samples = 213<br/>value = [102, 111]<br/>class = y<SUB>1</SUB>>, fillcolor="#399de515"] ;
24 -> 25 ;
26 [label=<gini = 0.5<br/>samples = 138<br/>value = [69, 69]<br/>class = y<SUB>0</SUB>>, fillcolor="#e5813900"] ;
25 -> 26 ;
27 [label=<gini = 0.4928<br/>samples = 75<br/>value = [33, 42]<br/>class = y<SUB>1</SUB>>, fillcolor="#399de537"] ;
25 -> 27 ;
28 [label=<DT_home_reb &le; 0.5<br/>gini = 0.4994<br/>samples = 170<br/>value = [88, 82]<br/>class = y<SUB>0</SUB>>, fillcolor="#e5813911"] ;
24 -> 28 ;
29 [label=<gini = 0.4993<br/>samples = 81<br/>value = [39, 42]<br/>class = y<SUB>1</SUB>>, fillcolor="#399de512"] ;
28 -> 29 ;
30 [label=<gini = 0.4949<br/>samples = 89<br/>value = [49, 40]<br/>class = y<SUB>0</SUB>>, fillcolor="#e581392f"] ;
28 -> 30 ;
}