digraph Tree {
node [shape=box, style="filled, rounded", color="black", fontname=helvetica] ;
edge [fontname=helvetica] ;
0 [label=<DT_home_ats &le; 0.5<br/>gini = 0.4999<br/>samples = 14338<br/>value = [7283, 7055]<br/>class = y<SUB>0</SUB>>, fillcolor="#e5813908"] ;
1 [label=<DT_away_movement &le; 0.5<br/>gini = 0.5<br/>samples = 9330<br/>value = [4667, 4663]<br/>class = y<SUB>0</SUB>>, fillcolor="#e5813900"] ;
0 -> 1 [labeldistance=2.5, labelangle=45, headlabel="True"] ;
2 [label=<DT_home_public &le; 0.5<br/>gini = 0.4998<br/>samples = 6356<br/>value = [3238, 3118]<br/>class = y<SUB>0</SUB>>, fillcolor="#e5813909"] ;
1 -> 2 ;
3 [label=<DT_away_ats &le; 0.5<br/>gini = 0.4995<br/>samples = 4385<br/>value = [2265, 2120]<br/>class = y<SUB>0</SUB>>, fillcolor="#e5813910"] ;
2 -> 3 ;
4 [label=<DT_home_tPAr &le; 0.5<br/>gini = 0.499<br/>samples = 2747<br/>value = [1434, 1313]<br/>class = y<SUB>0</SUB>>, fillcolor="#e5813916"] ;
3 -> 4 ;
5 [label=<DT_home_reb &le; 0.5<br/>gini = 0.4984<br/>samples = 1939<br/>value = [1024, 915]<br/>class = y<SUB>0</SUB>>, fillcolor="#e581391b"] ;
4 -> 5 ;
6 [label=<gini = 0.4995<br/>samples = 1218<br/>value = [629, 589]<br/>class = y<SUB>0</SUB>>, fillcolor="#e5813910"] ;
5 -> 6 ;
7 [label=<gini = 0.4954<br/>samples = 721<br/>value = [395, 326]<br/>class = y<SUB>0</SUB>>, fillcolor="#e581392d"] ;
5 -> 7 ;
8 [label=<gini = 0.4999<br/>samples = 808<br/>value = [410, 398]<br/>class = y<SUB>0</SUB>>, fillcolor="#e5813907"] ;
4 -> 8 ;
9 [label=<DT_away_public &le; 0.5<br/>gini = 0.4999<br/>samples = 1638<br/>value = [831, 807]<br/>class = y<SUB>0</SUB>>, fillcolor="#e5813907"] ;
3 -> 9 ;
10 [label=<gini = 0.4996<br/>samples = 676<br/>value = [348, 328]<br/>class = y<SUB>0</SUB>>, fillcolor="#e581390f"] ;
9 -> 10 ;
11 [label=<gini = 0.5<br/>samples = 962<br/>value = [483, 479]<br/>class = y<SUB>0</SUB>>, fillcolor="#e5813902"] ;
9 -> 11 ;
12 [label=<DT_home_reb &le; 0.5<br/>gini = 0.4999<br/>samples = 1971<br/>value = [973, 998]<br/>class = y<SUB>1</SUB>>, fillcolor="#399de506"] ;
2 -> 12 ;
13 [label=<gini = 0.5<br/>samples = 1194<br/>value = [599, 595]<br/>class = y<SUB>0</SUB>>, fillcolor="#e5813902"] ;
12 -> 13 ;
14 [label=<gini = 0.4993<br/>samples = 777<br/>value = [374, 403]<br/>class = y<SUB>1</SUB>>, fillcolor="#399de512"] ;
12 -> 14 ;
15 [label=<DT_home_tPAr &le; 0.5<br/>gini = 0.4992<br/>samples = 2974<br/>value = [1429, 1545]<br/>class = y<SUB>1</SUB>>, fillcolor="#399de513"] ;
1 -> 15 ;
16 [label=<DT_home_reb &le; 0.5<br/>gini = 0.4975<br/>samples = 2097<br/>value = [974, 1123]<br/>class = y<SUB>1</SUB>>, fillcolor="#399de522"] ;
15 -> 16 ;
17 [label=<DT_away_public &le; 0.5<br/>gini = 0.499<br/>samples = 1356<br/>value = [648, 708]<br/>class = y<SUB>1</SUB>>, fillcolor="#399de516"] ;
16 -> 17 ;
18 [label=<gini = 0.5<br/>samples = 595<br/>value = [298, 297]<br/>class = y<SUB>0</SUB>>, fillcolor="#e5813901"] ;
17 -> 18 ;
19 [label=<gini = 0.4968<br/>samples = 761<br/>value = [350, 411]<br/>class = y<SUB>1</SUB>>, fillcolor="#399de526"] ;
17 -> 19 ;
20 [label=<gini = 0.4928<br/>samples = 741<br/>value = [326, 415]<br/>class = y<SUB>1</SUB>>, fillcolor="#399de537"] ;
16 -> 20 ;
21 [label=<gini = 0.4993<br/>samples = 877<br/>value = [455, 422]<br/>class = y<SUB>0</SUB>>, fillcolor="#e5813912"] ;
15 -> 21 ;
22 [label=<DT_away_ats &le; 0.5<br/>gini = 0.499<br/>samples = 5008<br/>value = [2616, 2392]<br/>class = y<SUB>0</SUB>>, fillcolor="#e5813916"] ;
0 -> 22 [labeldistance=2.5, labelangle=-45, headlabel="False"] ;
23 [label=<DT_home_public &le; 0.5<br/>gini = 0.4975<br/>samples = 3233<br/>value = [1730, 1503]<br/>class = y<SUB>0</SUB>>, fillcolor="#e5813921"] ;
22 -> 23 ;
24 [label=<DT_away_public &le; 0.5<br/>gini = 0.4961<br/>samples = 1962<br/>value = [1068, 894]<br/>class = y<SUB>0</SUB>>, fillcolor="#e581392a"] ;
23 -> 24 ;
25 [label=<gini = 0.497<br/>samples = 1050<br/>value = [566, 484]<br/>class = y<SUB>0</SUB>>, fillcolor="#e5813925"] ;
24 -> 25 ;
26 [label=<gini = 0.4949<br/>samples = 912<br/>value = [502, 410]<br/>class = y<SUB>0</SUB>>, fillcolor="#e581392f"] ;
24 -> 26 ;
27 [label=<DT_home_winner &le; 0.5<br/>gini = 0.4991<br/>samples = 1271<br/>value = [662, 609]<br/>class = y<SUB>0</SUB>>, fillcolor="#e5813914"] ;
23 -> 27 ;
28 [label=<gini = 0.4997<br/>samples = 678<br/>value = [347, 331]<br/>class = y<SUB>0</SUB>>, fillcolor="#e581390c"] ;
27 -> 28 ;
29 [label=<gini = 0.4981<br/>samples = 593<br/>value = [315, 278]<br/>class = y<SUB>0</SUB>>, fillcolor="#e581391e"] ;
27 -> 29 ;
30 [label=<DT_home_winner &le; 0.5<br/>gini = 0.5<br/>samples = 1775<br/>value = [886, 889]<br/>class = y<SUB>1</SUB>>, fillcolor="#399de501"] ;
22 -> 30 ;
31 [label=<gini = 0.499<br/>samples = 1166<br/>value = [557, 609]<br/>class = y<SUB>1</SUB>>, fillcolor="#399de516"] ;
30 -> 31 ;
32 [label=<gini = 0.4968<br/>samples = 609<br/>value = [329, 280]<br/>class = y<SUB>0</SUB>>, fillcolor="#e5813926"] ;
30 -> 32 ;
}