digraph Tree {
node [shape=box, style="filled, rounded", color="black", fontname=helvetica] ;
edge [fontname=helvetica] ;
0 [label=<DT_away_movement &le; 0.5<br/>gini = 0.5<br/>samples = 13995<br/>value = [7157, 6838]<br/>class = y<SUB>0</SUB>>, fillcolor="#e581390b"] ;
1 [label=<DT_away_ats &le; 0.5<br/>gini = 0.499<br/>samples = 9401<br/>value = [4891, 4510]<br/>class = y<SUB>0</SUB>>, fillcolor="#e5813914"] ;
0 -> 1 [labeldistance=2.5, labelangle=45, headlabel="True"] ;
2 [label=<DT_home_tPAr &le; 0.5<br/>gini = 0.499<br/>samples = 6053<br/>value = [3182, 2871]<br/>class = y<SUB>0</SUB>>, fillcolor="#e5813919"] ;
1 -> 2 ;
3 [label=<DT_home_reb &le; 0.5<br/>gini = 0.498<br/>samples = 4284<br/>value = [2284, 2000]<br/>class = y<SUB>0</SUB>>, fillcolor="#e5813920"] ;
2 -> 3 ;
4 [label=<DT_away_public &le; 0.5<br/>gini = 0.499<br/>samples = 2462<br/>value = [1276, 1186]<br/>class = y<SUB>0</SUB>>, fillcolor="#e5813912"] ;
3 -> 4 ;
5 [label=<DT_home_public &le; 0.5<br/>gini = 0.498<br/>samples = 1550<br/>value = [819, 731]<br/>class = y<SUB>0</SUB>>, fillcolor="#e581391b"] ;
4 -> 5 ;
6 [label=<gini = 0.498<br/>samples = 766<br/>value = [405, 361]<br/>class = y<SUB>0</SUB>>, fillcolor="#e581391c"] ;
5 -> 6 ;
7 [label=<gini = 0.498<br/>samples = 784<br/>value = [414, 370]<br/>class = y<SUB>0</SUB>>, fillcolor="#e581391b"] ;
5 -> 7 ;
8 [label=<gini = 0.5<br/>samples = 912<br/>value = [457, 455]<br/>class = y<SUB>0</SUB>>, fillcolor="#e5813901"] ;
4 -> 8 ;
9 [label=<DT_home_public &le; 0.5<br/>gini = 0.494<br/>samples = 1822<br/>value = [1008, 814]<br/>class = y<SUB>0</SUB>>, fillcolor="#e5813931"] ;
3 -> 9 ;
10 [label=<gini = 0.493<br/>samples = 1082<br/>value = [607, 475]<br/>class = y<SUB>0</SUB>>, fillcolor="#e5813937"] ;
9 -> 10 ;
11 [label=<gini = 0.496<br/>samples = 740<br/>value = [401, 339]<br/>class = y<SUB>0</SUB>>, fillcolor="#e5813927"] ;
9 -> 11 ;
12 [label=<DT_home_winner &le; 0.5<br/>gini = 0.5<br/>samples = 1769<br/>value = [898, 871]<br/>class = y<SUB>0</SUB>>, fillcolor="#e5813908"] ;
2 -> 12 ;
13 [label=<gini = 0.499<br/>samples = 1129<br/>value = [583, 546]<br/>class = y<SUB>0</SUB>>, fillcolor="#e5813910"] ;
12 -> 13 ;
14 [label=<gini = 0.5<br/>samples = 640<br/>value = [315, 325]<br/>class = y<SUB>1</SUB>>, fillcolor="#399de508"] ;
12 -> 14 ;
15 [label=<DT_home_winner &le; 0.5<br/>gini = 0.5<br/>samples = 3348<br/>value = [1709, 1639]<br/>class = y<SUB>0</SUB>>, fillcolor="#e581390a"] ;
1 -> 15 ;
16 [label=<DT_home_reb &le; 0.5<br/>gini = 0.5<br/>samples = 2519<br/>value = [1271, 1248]<br/>class = y<SUB>0</SUB>>, fillcolor="#e5813905"] ;
15 -> 16 ;
17 [label=<DT_away_public &le; 0.5<br/>gini = 0.5<br/>samples = 1699<br/>value = [876, 823]<br/>class = y<SUB>0</SUB>>, fillcolor="#e581390f"] ;
16 -> 17 ;
18 [label=<gini = 0.5<br/>samples = 990<br/>value = [508, 482]<br/>class = y<SUB>0</SUB>>, fillcolor="#e581390d"] ;
17 -> 18 ;
19 [label=<gini = 0.499<br/>samples = 709<br/>value = [368, 341]<br/>class = y<SUB>0</SUB>>, fillcolor="#e5813913"] ;
17 -> 19 ;
20 [label=<gini = 0.499<br/>samples = 820<br/>value = [395, 425]<br/>class = y<SUB>1</SUB>>, fillcolor="#399de512"] ;
16 -> 20 ;
21 [label=<gini = 0.498<br/>samples = 829<br/>value = [438, 391]<br/>class = y<SUB>0</SUB>>, fillcolor="#e581391b"] ;
15 -> 21 ;
22 [label=<DT_home_ats &le; 0.5<br/>gini = 0.5<br/>samples = 4594<br/>value = [2266, 2328]<br/>class = y<SUB>1</SUB>>, fillcolor="#399de507"] ;
0 -> 22 [labeldistance=2.5, labelangle=-45, headlabel="False"] ;
23 [label=<DT_home_tPAr &le; 0.5<br/>gini = 0.499<br/>samples = 2873<br/>value = [1360, 1513]<br/>class = y<SUB>1</SUB>>, fillcolor="#399de51a"] ;
22 -> 23 ;
24 [label=<DT_away_public &le; 0.5<br/>gini = 0.497<br/>samples = 2051<br/>value = [942, 1109]<br/>class = y<SUB>1</SUB>>, fillcolor="#399de526"] ;
23 -> 24 ;
25 [label=<gini = 0.498<br/>samples = 1025<br/>value = [483, 542]<br/>class = y<SUB>1</SUB>>, fillcolor="#399de51c"] ;
24 -> 25 ;
26 [label=<gini = 0.494<br/>samples = 1026<br/>value = [459, 567]<br/>class = y<SUB>1</SUB>>, fillcolor="#399de531"] ;
24 -> 26 ;
27 [label=<gini = 0.5<br/>samples = 822<br/>value = [418, 404]<br/>class = y<SUB>0</SUB>>, fillcolor="#e5813909"] ;
23 -> 27 ;
28 [label=<DT_home_winner &le; 0.5<br/>gini = 0.499<br/>samples = 1721<br/>value = [906, 815]<br/>class = y<SUB>0</SUB>>, fillcolor="#e581391a"] ;
22 -> 28 ;
29 [label=<gini = 0.5<br/>samples = 729<br/>value = [372, 357]<br/>class = y<SUB>0</SUB>>, fillcolor="#e581390a"] ;
28 -> 29 ;
30 [label=<gini = 0.497<br/>samples = 992<br/>value = [534, 458]<br/>class = y<SUB>0</SUB>>, fillcolor="#e5813924"] ;
28 -> 30 ;
}