digraph Tree {
node [shape=box, style="filled, rounded", color="black", fontname=helvetica] ;
edge [fontname=helvetica] ;
0 [label=<DT_away_tPAr &le; 0.5<br/>gini = 0.5<br/>samples = 2473<br/>value = [1207, 1266]<br/>class = y<SUB>1</SUB>>, fillcolor="#399de50c"] ;
1 [label=<DT_home_ats &le; 0.5<br/>gini = 0.499<br/>samples = 1768<br/>value = [842, 926]<br/>class = y<SUB>1</SUB>>, fillcolor="#399de517"] ;
0 -> 1 [labeldistance=2.5, labelangle=45, headlabel="True"] ;
2 [label=<DT_home_public &le; 0.5<br/>gini = 0.496<br/>samples = 1017<br/>value = [461, 556]<br/>class = y<SUB>1</SUB>>, fillcolor="#399de52c"] ;
1 -> 2 ;
3 [label=<DT_away_FT &le; 0.5<br/>gini = 0.499<br/>samples = 530<br/>value = [255, 275]<br/>class = y<SUB>1</SUB>>, fillcolor="#399de513"] ;
2 -> 3 ;
4 [label=<DT_home_FT &le; 0.5<br/>gini = 0.5<br/>samples = 336<br/>value = [173, 163]<br/>class = y<SUB>0</SUB>>, fillcolor="#e581390f"] ;
3 -> 4 ;
5 [label=<gini = 0.498<br/>samples = 219<br/>value = [117, 102]<br/>class = y<SUB>0</SUB>>, fillcolor="#e5813921"] ;
4 -> 5 ;
6 [label=<gini = 0.499<br/>samples = 117<br/>value = [56, 61]<br/>class = y<SUB>1</SUB>>, fillcolor="#399de515"] ;
4 -> 6 ;
7 [label=<gini = 0.488<br/>samples = 194<br/>value = [82, 112]<br/>class = y<SUB>1</SUB>>, fillcolor="#399de544"] ;
3 -> 7 ;
8 [label=<DT_home_TOVP &le; 0.5<br/>gini = 0.488<br/>samples = 487<br/>value = [206, 281]<br/>class = y<SUB>1</SUB>>, fillcolor="#399de544"] ;
2 -> 8 ;
9 [label=<DT_home_winner &le; 0.5<br/>gini = 0.494<br/>samples = 397<br/>value = [176, 221]<br/>class = y<SUB>1</SUB>>, fillcolor="#399de534"] ;
8 -> 9 ;
10 [label=<DT_home_FT &le; 0.5<br/>gini = 0.498<br/>samples = 307<br/>value = [144, 163]<br/>class = y<SUB>1</SUB>>, fillcolor="#399de51e"] ;
9 -> 10 ;
11 [label=<DT_home_reb &le; 0.5<br/>gini = 0.495<br/>samples = 185<br/>value = [83, 102]<br/>class = y<SUB>1</SUB>>, fillcolor="#399de530"] ;
10 -> 11 ;
12 [label=<gini = 0.495<br/>samples = 109<br/>value = [49, 60]<br/>class = y<SUB>1</SUB>>, fillcolor="#399de52f"] ;
11 -> 12 ;
13 [label=<gini = 0.494<br/>samples = 76<br/>value = [34, 42]<br/>class = y<SUB>1</SUB>>, fillcolor="#399de531"] ;
11 -> 13 ;
14 [label=<gini = 0.5<br/>samples = 122<br/>value = [61, 61]<br/>class = y<SUB>0</SUB>>, fillcolor="#e5813900"] ;
10 -> 14 ;
15 [label=<gini = 0.458<br/>samples = 90<br/>value = [32, 58]<br/>class = y<SUB>1</SUB>>, fillcolor="#399de572"] ;
9 -> 15 ;
16 [label=<gini = 0.444<br/>samples = 90<br/>value = [30, 60]<br/>class = y<SUB>1</SUB>>, fillcolor="#399de57f"] ;
8 -> 16 ;
17 [label=<DT_home_winner &le; 0.5<br/>gini = 0.5<br/>samples = 751<br/>value = [381, 370]<br/>class = y<SUB>0</SUB>>, fillcolor="#e5813907"] ;
1 -> 17 ;
18 [label=<DT_home_FT &le; 0.5<br/>gini = 0.498<br/>samples = 480<br/>value = [254, 226]<br/>class = y<SUB>0</SUB>>, fillcolor="#e581391c"] ;
17 -> 18 ;
19 [label=<DT_home_public &le; 0.5<br/>gini = 0.492<br/>samples = 286<br/>value = [161, 125]<br/>class = y<SUB>0</SUB>>, fillcolor="#e5813939"] ;
18 -> 19 ;
20 [label=<gini = 0.48<br/>samples = 135<br/>value = [81, 54]<br/>class = y<SUB>0</SUB>>, fillcolor="#e5813955"] ;
19 -> 20 ;
21 [label=<gini = 0.498<br/>samples = 151<br/>value = [80, 71]<br/>class = y<SUB>0</SUB>>, fillcolor="#e581391d"] ;
19 -> 21 ;
22 [label=<DT_away_FT &le; 0.5<br/>gini = 0.499<br/>samples = 194<br/>value = [93, 101]<br/>class = y<SUB>1</SUB>>, fillcolor="#399de514"] ;
18 -> 22 ;
23 [label=<gini = 0.5<br/>samples = 108<br/>value = [54, 54]<br/>class = y<SUB>0</SUB>>, fillcolor="#e5813900"] ;
22 -> 23 ;
24 [label=<gini = 0.496<br/>samples = 86<br/>value = [39, 47]<br/>class = y<SUB>1</SUB>>, fillcolor="#399de52b"] ;
22 -> 24 ;
25 [label=<DT_home_FT &le; 0.5<br/>gini = 0.498<br/>samples = 271<br/>value = [127, 144]<br/>class = y<SUB>1</SUB>>, fillcolor="#399de51e"] ;
17 -> 25 ;
26 [label=<gini = 0.491<br/>samples = 162<br/>value = [70, 92]<br/>class = y<SUB>1</SUB>>, fillcolor="#399de53d"] ;
25 -> 26 ;
27 [label=<gini = 0.499<br/>samples = 109<br/>value = [57, 52]<br/>class = y<SUB>0</SUB>>, fillcolor="#e5813916"] ;
25 -> 27 ;
28 [label=<DT_home_reb &le; 0.5<br/>gini = 0.499<br/>samples = 705<br/>value = [365, 340]<br/>class = y<SUB>0</SUB>>, fillcolor="#e5813911"] ;
0 -> 28 [labeldistance=2.5, labelangle=-45, headlabel="False"] ;
29 [label=<DT_home_public &le; 0.5<br/>gini = 0.492<br/>samples = 326<br/>value = [183, 143]<br/>class = y<SUB>0</SUB>>, fillcolor="#e5813938"] ;
28 -> 29 ;
30 [label=<gini = 0.487<br/>samples = 198<br/>value = [115, 83]<br/>class = y<SUB>0</SUB>>, fillcolor="#e5813947"] ;
29 -> 30 ;
31 [label=<gini = 0.498<br/>samples = 128<br/>value = [68, 60]<br/>class = y<SUB>0</SUB>>, fillcolor="#e581391e"] ;
29 -> 31 ;
32 [label=<DT_home_FT &le; 0.5<br/>gini = 0.499<br/>samples = 379<br/>value = [182, 197]<br/>class = y<SUB>1</SUB>>, fillcolor="#399de513"] ;
28 -> 32 ;
33 [label=<DT_home_winner &le; 0.5<br/>gini = 0.494<br/>samples = 221<br/>value = [98, 123]<br/>class = y<SUB>1</SUB>>, fillcolor="#399de534"] ;
32 -> 33 ;
34 [label=<gini = 0.499<br/>samples = 141<br/>value = [67, 74]<br/>class = y<SUB>1</SUB>>, fillcolor="#399de518"] ;
33 -> 34 ;
35 [label=<gini = 0.475<br/>samples = 80<br/>value = [31, 49]<br/>class = y<SUB>1</SUB>>, fillcolor="#399de55e"] ;
33 -> 35 ;
36 [label=<gini = 0.498<br/>samples = 158<br/>value = [84, 74]<br/>class = y<SUB>0</SUB>>, fillcolor="#e581391e"] ;
32 -> 36 ;
}