digraph Tree {
node [shape=box, style="filled, rounded", color="black", fontname=helvetica] ;
edge [fontname=helvetica] ;
0 [label=<DT_home_ats &le; 0.5<br/>gini = 0.4999<br/>samples = 2945<br/>value = [1451, 1494]<br/>class = y<SUB>1</SUB>>, fillcolor="#399de507"] ;
1 [label=<DT_home_public &le; 0.5<br/>gini = 0.4988<br/>samples = 1696<br/>value = [807, 889]<br/>class = y<SUB>1</SUB>>, fillcolor="#399de518"] ;
0 -> 1 [labeldistance=2.5, labelangle=45, headlabel="True"] ;
2 [label=<DT_home_winner &le; 0.5<br/>gini = 0.4999<br/>samples = 889<br/>value = [440, 449]<br/>class = y<SUB>1</SUB>>, fillcolor="#399de505"] ;
1 -> 2 ;
3 [label=<DT_home_reb &le; 0.5<br/>gini = 0.5<br/>samples = 609<br/>value = [307, 302]<br/>class = y<SUB>0</SUB>>, fillcolor="#e5813904"] ;
2 -> 3 ;
4 [label=<gini = 0.4994<br/>samples = 381<br/>value = [197, 184]<br/>class = y<SUB>0</SUB>>, fillcolor="#e5813911"] ;
3 -> 4 ;
5 [label=<gini = 0.4994<br/>samples = 228<br/>value = [110, 118]<br/>class = y<SUB>1</SUB>>, fillcolor="#399de511"] ;
3 -> 5 ;
6 [label=<DT_home_reb &le; 0.5<br/>gini = 0.4988<br/>samples = 280<br/>value = [133, 147]<br/>class = y<SUB>1</SUB>>, fillcolor="#399de518"] ;
2 -> 6 ;
7 [label=<gini = 0.4991<br/>samples = 192<br/>value = [92, 100]<br/>class = y<SUB>1</SUB>>, fillcolor="#399de514"] ;
6 -> 7 ;
8 [label=<gini = 0.4977<br/>samples = 88<br/>value = [41, 47]<br/>class = y<SUB>1</SUB>>, fillcolor="#399de521"] ;
6 -> 8 ;
9 [label=<DT_home_winner &le; 0.5<br/>gini = 0.4959<br/>samples = 807<br/>value = [367, 440]<br/>class = y<SUB>1</SUB>>, fillcolor="#399de52a"] ;
1 -> 9 ;
10 [label=<DT_home_reb &le; 0.5<br/>gini = 0.4979<br/>samples = 624<br/>value = [292, 332]<br/>class = y<SUB>1</SUB>>, fillcolor="#399de51f"] ;
9 -> 10 ;
11 [label=<gini = 0.4976<br/>samples = 316<br/>value = [147, 169]<br/>class = y<SUB>1</SUB>>, fillcolor="#399de521"] ;
10 -> 11 ;
12 [label=<gini = 0.4983<br/>samples = 308<br/>value = [145, 163]<br/>class = y<SUB>1</SUB>>, fillcolor="#399de51c"] ;
10 -> 12 ;
13 [label=<DT_home_reb &le; 0.5<br/>gini = 0.4837<br/>samples = 183<br/>value = [75, 108]<br/>class = y<SUB>1</SUB>>, fillcolor="#399de54e"] ;
9 -> 13 ;
14 [label=<gini = 0.4933<br/>samples = 95<br/>value = [42, 53]<br/>class = y<SUB>1</SUB>>, fillcolor="#399de535"] ;
13 -> 14 ;
15 [label=<gini = 0.4688<br/>samples = 88<br/>value = [33, 55]<br/>class = y<SUB>1</SUB>>, fillcolor="#399de566"] ;
13 -> 15 ;
16 [label=<DT_home_winner &le; 0.5<br/>gini = 0.4995<br/>samples = 1249<br/>value = [644, 605]<br/>class = y<SUB>0</SUB>>, fillcolor="#e581390f"] ;
0 -> 16 [labeldistance=2.5, labelangle=-45, headlabel="False"] ;
17 [label=<DT_home_public &le; 0.5<br/>gini = 0.4986<br/>samples = 802<br/>value = [422, 380]<br/>class = y<SUB>0</SUB>>, fillcolor="#e5813919"] ;
16 -> 17 ;
18 [label=<DT_home_reb &le; 0.5<br/>gini = 0.4939<br/>samples = 353<br/>value = [196, 157]<br/>class = y<SUB>0</SUB>>, fillcolor="#e5813933"] ;
17 -> 18 ;
19 [label=<gini = 0.496<br/>samples = 191<br/>value = [104, 87]<br/>class = y<SUB>0</SUB>>, fillcolor="#e581392a"] ;
18 -> 19 ;
20 [label=<gini = 0.4908<br/>samples = 162<br/>value = [92, 70]<br/>class = y<SUB>0</SUB>>, fillcolor="#e581393d"] ;
18 -> 20 ;
21 [label=<DT_home_reb &le; 0.5<br/>gini = 0.5<br/>samples = 449<br/>value = [226, 223]<br/>class = y<SUB>0</SUB>>, fillcolor="#e5813903"] ;
17 -> 21 ;
22 [label=<gini = 0.4998<br/>samples = 227<br/>value = [116, 111]<br/>class = y<SUB>0</SUB>>, fillcolor="#e581390b"] ;
21 -> 22 ;
23 [label=<gini = 0.5<br/>samples = 222<br/>value = [110, 112]<br/>class = y<SUB>1</SUB>>, fillcolor="#399de505"] ;
21 -> 23 ;
24 [label=<DT_home_public &le; 0.5<br/>gini = 0.5<br/>samples = 447<br/>value = [222, 225]<br/>class = y<SUB>1</SUB>>, fillcolor="#399de503"] ;
16 -> 24 ;
25 [label=<DT_home_reb &le; 0.5<br/>gini = 0.499<br/>samples = 241<br/>value = [115, 126]<br/>class = y<SUB>1</SUB>>, fillcolor="#399de516"] ;
24 -> 25 ;
26 [label=<gini = 0.5<br/>samples = 163<br/>value = [82, 81]<br/>class = y<SUB>0</SUB>>, fillcolor="#e5813903"] ;
25 -> 26 ;
27 [label=<gini = 0.4882<br/>samples = 78<br/>value = [33, 45]<br/>class = y<SUB>1</SUB>>, fillcolor="#399de544"] ;
25 -> 27 ;
28 [label=<DT_home_reb &le; 0.5<br/>gini = 0.4992<br/>samples = 206<br/>value = [107, 99]<br/>class = y<SUB>0</SUB>>, fillcolor="#e5813913"] ;
24 -> 28 ;
29 [label=<gini = 0.5<br/>samples = 96<br/>value = [48, 48]<br/>class = y<SUB>0</SUB>>, fillcolor="#e5813900"] ;
28 -> 29 ;
30 [label=<gini = 0.4974<br/>samples = 110<br/>value = [59, 51]<br/>class = y<SUB>0</SUB>>, fillcolor="#e5813923"] ;
28 -> 30 ;
}