digraph Tree {
node [shape=box, style="filled, rounded", color="black", fontname=helvetica] ;
edge [fontname=helvetica] ;
0 [label=<DT_home_ats &le; 0.5<br/>gini = 0.4999<br/>samples = 17345<br/>value = [8813, 8532]<br/>class = y<SUB>0</SUB>>, fillcolor="#e5813908"] ;
1 [label=<DT_away_movement &le; 0.5<br/>gini = 0.5<br/>samples = 11298<br/>value = [5659, 5639]<br/>class = y<SUB>0</SUB>>, fillcolor="#e5813901"] ;
0 -> 1 [labeldistance=2.5, labelangle=45, headlabel="True"] ;
2 [label=<DT_home_public &le; 0.5<br/>gini = 0.4997<br/>samples = 7692<br/>value = [3935, 3757]<br/>class = y<SUB>0</SUB>>, fillcolor="#e581390c"] ;
1 -> 2 ;
3 [label=<DT_away_ats &le; 0.5<br/>gini = 0.4994<br/>samples = 5258<br/>value = [2717, 2541]<br/>class = y<SUB>0</SUB>>, fillcolor="#e5813911"] ;
2 -> 3 ;
4 [label=<DT_home_tPAr &le; 0.5<br/>gini = 0.4992<br/>samples = 3260<br/>value = [1697, 1563]<br/>class = y<SUB>0</SUB>>, fillcolor="#e5813914"] ;
3 -> 4 ;
5 [label=<DT_home_reb &le; 0.5<br/>gini = 0.4984<br/>samples = 2296<br/>value = [1212, 1084]<br/>class = y<SUB>0</SUB>>, fillcolor="#e581391b"] ;
4 -> 5 ;
6 [label=<gini = 0.4995<br/>samples = 1449<br/>value = [747, 702]<br/>class = y<SUB>0</SUB>>, fillcolor="#e581390f"] ;
5 -> 6 ;
7 [label=<gini = 0.4952<br/>samples = 847<br/>value = [465, 382]<br/>class = y<SUB>0</SUB>>, fillcolor="#e581392e"] ;
5 -> 7 ;
8 [label=<gini = 0.5<br/>samples = 964<br/>value = [485, 479]<br/>class = y<SUB>0</SUB>>, fillcolor="#e5813903"] ;
4 -> 8 ;
9 [label=<DT_away_public &le; 0.5<br/>gini = 0.4998<br/>samples = 1998<br/>value = [1020, 978]<br/>class = y<SUB>0</SUB>>, fillcolor="#e581390b"] ;
3 -> 9 ;
10 [label=<gini = 0.4989<br/>samples = 822<br/>value = [430, 392]<br/>class = y<SUB>0</SUB>>, fillcolor="#e5813917"] ;
9 -> 10 ;
11 [label=<gini = 0.5<br/>samples = 1176<br/>value = [590, 586]<br/>class = y<SUB>0</SUB>>, fillcolor="#e5813902"] ;
9 -> 11 ;
12 [label=<DT_away_ats &le; 0.5<br/>gini = 0.5<br/>samples = 2434<br/>value = [1218, 1216]<br/>class = y<SUB>0</SUB>>, fillcolor="#e5813900"] ;
2 -> 12 ;
13 [label=<DT_home_reb &le; 0.5<br/>gini = 0.4998<br/>samples = 1772<br/>value = [902, 870]<br/>class = y<SUB>0</SUB>>, fillcolor="#e5813909"] ;
12 -> 13 ;
14 [label=<gini = 0.4996<br/>samples = 997<br/>value = [512, 485]<br/>class = y<SUB>0</SUB>>, fillcolor="#e581390d"] ;
13 -> 14 ;
15 [label=<gini = 0.5<br/>samples = 775<br/>value = [390, 385]<br/>class = y<SUB>0</SUB>>, fillcolor="#e5813903"] ;
13 -> 15 ;
16 [label=<gini = 0.499<br/>samples = 662<br/>value = [316, 346]<br/>class = y<SUB>1</SUB>>, fillcolor="#399de516"] ;
12 -> 16 ;
17 [label=<DT_home_tPAr &le; 0.5<br/>gini = 0.499<br/>samples = 3606<br/>value = [1724, 1882]<br/>class = y<SUB>1</SUB>>, fillcolor="#399de515"] ;
1 -> 17 ;
18 [label=<DT_away_public &le; 0.5<br/>gini = 0.4975<br/>samples = 2553<br/>value = [1187, 1366]<br/>class = y<SUB>1</SUB>>, fillcolor="#399de521"] ;
17 -> 18 ;
19 [label=<DT_home_winner &le; 0.5<br/>gini = 0.499<br/>samples = 1281<br/>value = [612, 669]<br/>class = y<SUB>1</SUB>>, fillcolor="#399de516"] ;
18 -> 19 ;
20 [label=<gini = 0.4963<br/>samples = 694<br/>value = [317, 377]<br/>class = y<SUB>1</SUB>>, fillcolor="#399de529"] ;
19 -> 20 ;
21 [label=<gini = 0.5<br/>samples = 587<br/>value = [295, 292]<br/>class = y<SUB>0</SUB>>, fillcolor="#e5813903"] ;
19 -> 21 ;
22 [label=<gini = 0.4954<br/>samples = 1272<br/>value = [575, 697]<br/>class = y<SUB>1</SUB>>, fillcolor="#399de52d"] ;
18 -> 22 ;
23 [label=<gini = 0.4998<br/>samples = 1053<br/>value = [537, 516]<br/>class = y<SUB>0</SUB>>, fillcolor="#e581390a"] ;
17 -> 23 ;
24 [label=<DT_home_winner &le; 0.5<br/>gini = 0.4991<br/>samples = 6047<br/>value = [3154, 2893]<br/>class = y<SUB>0</SUB>>, fillcolor="#e5813915"] ;
0 -> 24 [labeldistance=2.5, labelangle=-45, headlabel="False"] ;
25 [label=<DT_away_ats &le; 0.5<br/>gini = 0.4999<br/>samples = 3286<br/>value = [1664, 1622]<br/>class = y<SUB>0</SUB>>, fillcolor="#e5813906"] ;
24 -> 25 ;
26 [label=<DT_home_reb &le; 0.5<br/>gini = 0.4986<br/>samples = 1924<br/>value = [1012, 912]<br/>class = y<SUB>0</SUB>>, fillcolor="#e5813919"] ;
25 -> 26 ;
27 [label=<gini = 0.5<br/>samples = 916<br/>value = [460, 456]<br/>class = y<SUB>0</SUB>>, fillcolor="#e5813902"] ;
26 -> 27 ;
28 [label=<gini = 0.4955<br/>samples = 1008<br/>value = [552, 456]<br/>class = y<SUB>0</SUB>>, fillcolor="#e581392c"] ;
26 -> 28 ;
29 [label=<gini = 0.4991<br/>samples = 1362<br/>value = [652, 710]<br/>class = y<SUB>1</SUB>>, fillcolor="#399de515"] ;
25 -> 29 ;
30 [label=<DT_home_reb &le; 0.5<br/>gini = 0.4969<br/>samples = 2761<br/>value = [1490, 1271]<br/>class = y<SUB>0</SUB>>, fillcolor="#e5813925"] ;
24 -> 30 ;
31 [label=<DT_away_movement &le; 0.5<br/>gini = 0.4946<br/>samples = 1705<br/>value = [941, 764]<br/>class = y<SUB>0</SUB>>, fillcolor="#e5813930"] ;
30 -> 31 ;
32 [label=<gini = 0.4951<br/>samples = 899<br/>value = [494, 405]<br/>class = y<SUB>0</SUB>>, fillcolor="#e581392e"] ;
31 -> 32 ;
33 [label=<gini = 0.494<br/>samples = 806<br/>value = [447, 359]<br/>class = y<SUB>0</SUB>>, fillcolor="#e5813932"] ;
31 -> 33 ;
34 [label=<gini = 0.4992<br/>samples = 1056<br/>value = [549, 507]<br/>class = y<SUB>0</SUB>>, fillcolor="#e5813914"] ;
30 -> 34 ;
}