digraph Tree {
node [shape=box, style="filled, rounded", color="black", fontname=helvetica] ;
edge [fontname=helvetica] ;
0 [label=<DT_home_ats &le; 0.5<br/>gini = 0.5<br/>samples = 14943<br/>value = [7539, 7404]<br/>class = y<SUB>0</SUB>>, fillcolor="#e5813905"] ;
1 [label=<DT_away_movement &le; 0.5<br/>gini = 0.5<br/>samples = 9735<br/>value = [4836, 4899]<br/>class = y<SUB>1</SUB>>, fillcolor="#399de503"] ;
0 -> 1 [labeldistance=2.5, labelangle=45, headlabel="True"] ;
2 [label=<DT_away_ats &le; 0.5<br/>gini = 0.5<br/>samples = 6504<br/>value = [3302, 3202]<br/>class = y<SUB>0</SUB>>, fillcolor="#e5813908"] ;
1 -> 2 ;
3 [label=<DT_home_tPAr &le; 0.5<br/>gini = 0.499<br/>samples = 4276<br/>value = [2208, 2068]<br/>class = y<SUB>0</SUB>>, fillcolor="#e5813910"] ;
2 -> 3 ;
4 [label=<gini = 0.499<br/>samples = 3005<br/>value = [1579, 1426]<br/>class = y<SUB>0</SUB>>, fillcolor="#e5813919"] ;
3 -> 4 ;
5 [label=<gini = 0.5<br/>samples = 1271<br/>value = [629, 642]<br/>class = y<SUB>1</SUB>>, fillcolor="#399de505"] ;
3 -> 5 ;
6 [label=<DT_away_reb &le; 0.5<br/>gini = 0.5<br/>samples = 2228<br/>value = [1094, 1134]<br/>class = y<SUB>1</SUB>>, fillcolor="#399de509"] ;
2 -> 6 ;
7 [label=<gini = 0.499<br/>samples = 1429<br/>value = [677, 752]<br/>class = y<SUB>1</SUB>>, fillcolor="#399de519"] ;
6 -> 7 ;
8 [label=<gini = 0.499<br/>samples = 799<br/>value = [417, 382]<br/>class = y<SUB>0</SUB>>, fillcolor="#e5813915"] ;
6 -> 8 ;
9 [label=<DT_home_tPAr &le; 0.5<br/>gini = 0.499<br/>samples = 3231<br/>value = [1534, 1697]<br/>class = y<SUB>1</SUB>>, fillcolor="#399de518"] ;
1 -> 9 ;
10 [label=<DT_away_ats &le; 0.5<br/>gini = 0.497<br/>samples = 2283<br/>value = [1058, 1225]<br/>class = y<SUB>1</SUB>>, fillcolor="#399de523"] ;
9 -> 10 ;
11 [label=<gini = 0.497<br/>samples = 1569<br/>value = [719, 850]<br/>class = y<SUB>1</SUB>>, fillcolor="#399de527"] ;
10 -> 11 ;
12 [label=<gini = 0.499<br/>samples = 714<br/>value = [339, 375]<br/>class = y<SUB>1</SUB>>, fillcolor="#399de518"] ;
10 -> 12 ;
13 [label=<gini = 0.5<br/>samples = 948<br/>value = [476, 472]<br/>class = y<SUB>0</SUB>>, fillcolor="#e5813902"] ;
9 -> 13 ;
14 [label=<DT_home_winner &le; 0.5<br/>gini = 0.499<br/>samples = 5208<br/>value = [2703, 2505]<br/>class = y<SUB>0</SUB>>, fillcolor="#e5813913"] ;
0 -> 14 [labeldistance=2.5, labelangle=-45, headlabel="False"] ;
15 [label=<DT_away_ats &le; 0.5<br/>gini = 0.5<br/>samples = 2797<br/>value = [1421, 1376]<br/>class = y<SUB>0</SUB>>, fillcolor="#e5813908"] ;
14 -> 15 ;
16 [label=<gini = 0.498<br/>samples = 1636<br/>value = [863, 773]<br/>class = y<SUB>0</SUB>>, fillcolor="#e581391b"] ;
15 -> 16 ;
17 [label=<gini = 0.499<br/>samples = 1161<br/>value = [558, 603]<br/>class = y<SUB>1</SUB>>, fillcolor="#399de513"] ;
15 -> 17 ;
18 [label=<DT_home_tPAr &le; 0.5<br/>gini = 0.498<br/>samples = 2411<br/>value = [1282, 1129]<br/>class = y<SUB>0</SUB>>, fillcolor="#e581391e"] ;
14 -> 18 ;
19 [label=<DT_away_movement &le; 0.5<br/>gini = 0.497<br/>samples = 1658<br/>value = [894, 764]<br/>class = y<SUB>0</SUB>>, fillcolor="#e5813925"] ;
18 -> 19 ;
20 [label=<gini = 0.497<br/>samples = 906<br/>value = [490, 416]<br/>class = y<SUB>0</SUB>>, fillcolor="#e5813927"] ;
19 -> 20 ;
21 [label=<gini = 0.497<br/>samples = 752<br/>value = [404, 348]<br/>class = y<SUB>0</SUB>>, fillcolor="#e5813923"] ;
19 -> 21 ;
22 [label=<gini = 0.5<br/>samples = 753<br/>value = [388, 365]<br/>class = y<SUB>0</SUB>>, fillcolor="#e581390f"] ;
18 -> 22 ;
}