digraph Tree {
node [shape=box, style="filled, rounded", color="black", fontname=helvetica] ;
edge [fontname=helvetica] ;
0 [label=<DT_home_winner &le; 0.5<br/>gini = 0.4995<br/>samples = 1823<br/>value = [884, 939]<br/>class = y<SUB>1</SUB>>, fillcolor="#399de50f"] ;
1 [label=<DT_away_movement &le; 0.5<br/>gini = 0.5<br/>samples = 1290<br/>value = [644, 646]<br/>class = y<SUB>1</SUB>>, fillcolor="#399de501"] ;
0 -> 1 [labeldistance=2.5, labelangle=45, headlabel="True"] ;
2 [label=<DT_home_public &le; 0.5<br/>gini = 0.4988<br/>samples = 599<br/>value = [314, 285]<br/>class = y<SUB>0</SUB>>, fillcolor="#e5813918"] ;
1 -> 2 ;
3 [label=<DT_away_public &le; 0.5<br/>gini = 0.4998<br/>samples = 362<br/>value = [185, 177]<br/>class = y<SUB>0</SUB>>, fillcolor="#e581390b"] ;
2 -> 3 ;
4 [label=<gini = 0.4979<br/>samples = 218<br/>value = [116, 102]<br/>class = y<SUB>0</SUB>>, fillcolor="#e581391f"] ;
3 -> 4 ;
5 [label=<gini = 0.4991<br/>samples = 144<br/>value = [69, 75]<br/>class = y<SUB>1</SUB>>, fillcolor="#399de514"] ;
3 -> 5 ;
6 [label=<DT_away_public &le; 0.5<br/>gini = 0.4961<br/>samples = 237<br/>value = [129, 108]<br/>class = y<SUB>0</SUB>>, fillcolor="#e581392a"] ;
2 -> 6 ;
7 [label=<gini = 0.4994<br/>samples = 120<br/>value = [62, 58]<br/>class = y<SUB>0</SUB>>, fillcolor="#e5813910"] ;
6 -> 7 ;
8 [label=<gini = 0.4894<br/>samples = 117<br/>value = [67, 50]<br/>class = y<SUB>0</SUB>>, fillcolor="#e5813941"] ;
6 -> 8 ;
9 [label=<DT_home_public &le; 0.5<br/>gini = 0.499<br/>samples = 691<br/>value = [330, 361]<br/>class = y<SUB>1</SUB>>, fillcolor="#399de516"] ;
1 -> 9 ;
10 [label=<DT_away_public &le; 0.5<br/>gini = 0.4961<br/>samples = 410<br/>value = [187, 223]<br/>class = y<SUB>1</SUB>>, fillcolor="#399de529"] ;
9 -> 10 ;
11 [label=<gini = 0.4957<br/>samples = 216<br/>value = [98, 118]<br/>class = y<SUB>1</SUB>>, fillcolor="#399de52b"] ;
10 -> 11 ;
12 [label=<gini = 0.4966<br/>samples = 194<br/>value = [89, 105]<br/>class = y<SUB>1</SUB>>, fillcolor="#399de527"] ;
10 -> 12 ;
13 [label=<DT_away_public &le; 0.5<br/>gini = 0.4998<br/>samples = 281<br/>value = [143, 138]<br/>class = y<SUB>0</SUB>>, fillcolor="#e5813909"] ;
9 -> 13 ;
14 [label=<gini = 0.4983<br/>samples = 138<br/>value = [73, 65]<br/>class = y<SUB>0</SUB>>, fillcolor="#e581391c"] ;
13 -> 14 ;
15 [label=<gini = 0.4998<br/>samples = 143<br/>value = [70, 73]<br/>class = y<SUB>1</SUB>>, fillcolor="#399de50a"] ;
13 -> 15 ;
16 [label=<DT_away_public &le; 0.5<br/>gini = 0.4951<br/>samples = 533<br/>value = [240, 293]<br/>class = y<SUB>1</SUB>>, fillcolor="#399de52e"] ;
0 -> 16 [labeldistance=2.5, labelangle=-45, headlabel="False"] ;
17 [label=<DT_home_public &le; 0.5<br/>gini = 0.4999<br/>samples = 345<br/>value = [170, 175]<br/>class = y<SUB>1</SUB>>, fillcolor="#399de507"] ;
16 -> 17 ;
18 [label=<DT_away_movement &le; 0.5<br/>gini = 0.4977<br/>samples = 191<br/>value = [89, 102]<br/>class = y<SUB>1</SUB>>, fillcolor="#399de521"] ;
17 -> 18 ;
19 [label=<gini = 0.5<br/>samples = 135<br/>value = [67, 68]<br/>class = y<SUB>1</SUB>>, fillcolor="#399de504"] ;
18 -> 19 ;
20 [label=<gini = 0.477<br/>samples = 56<br/>value = [22, 34]<br/>class = y<SUB>1</SUB>>, fillcolor="#399de55a"] ;
18 -> 20 ;
21 [label=<DT_away_movement &le; 0.5<br/>gini = 0.4987<br/>samples = 154<br/>value = [81, 73]<br/>class = y<SUB>0</SUB>>, fillcolor="#e5813919"] ;
17 -> 21 ;
22 [label=<gini = 0.4991<br/>samples = 94<br/>value = [49, 45]<br/>class = y<SUB>0</SUB>>, fillcolor="#e5813915"] ;
21 -> 22 ;
23 [label=<gini = 0.4978<br/>samples = 60<br/>value = [32, 28]<br/>class = y<SUB>0</SUB>>, fillcolor="#e5813920"] ;
21 -> 23 ;
24 [label=<DT_home_public &le; 0.5<br/>gini = 0.4674<br/>samples = 188<br/>value = [70, 118]<br/>class = y<SUB>1</SUB>>, fillcolor="#399de568"] ;
16 -> 24 ;
25 [label=<DT_away_movement &le; 0.5<br/>gini = 0.4567<br/>samples = 85<br/>value = [30, 55]<br/>class = y<SUB>1</SUB>>, fillcolor="#399de574"] ;
24 -> 25 ;
26 [label=<gini = 0.4783<br/>samples = 48<br/>value = [19, 29]<br/>class = y<SUB>1</SUB>>, fillcolor="#399de558"] ;
25 -> 26 ;
27 [label=<gini = 0.4178<br/>samples = 37<br/>value = [11, 26]<br/>class = y<SUB>1</SUB>>, fillcolor="#399de593"] ;
25 -> 27 ;
28 [label=<DT_away_movement &le; 0.5<br/>gini = 0.4751<br/>samples = 103<br/>value = [40, 63]<br/>class = y<SUB>1</SUB>>, fillcolor="#399de55d"] ;
24 -> 28 ;
29 [label=<gini = 0.4274<br/>samples = 42<br/>value = [13, 29]<br/>class = y<SUB>1</SUB>>, fillcolor="#399de58d"] ;
28 -> 29 ;
30 [label=<gini = 0.4934<br/>samples = 61<br/>value = [27, 34]<br/>class = y<SUB>1</SUB>>, fillcolor="#399de534"] ;
28 -> 30 ;
}