digraph Tree {
node [shape=box, style="filled, rounded", color="black", fontname=helvetica] ;
edge [fontname=helvetica] ;
0 [label=<DT_home_ats &le; 0.5<br/>gini = 0.4998<br/>samples = 13795<br/>value = [7031, 6764]<br/>class = y<SUB>0</SUB>>, fillcolor="#e581390a"] ;
1 [label=<DT_away_movement &le; 0.5<br/>gini = 0.5<br/>samples = 8942<br/>value = [4488, 4454]<br/>class = y<SUB>0</SUB>>, fillcolor="#e5813902"] ;
0 -> 1 [labeldistance=2.5, labelangle=45, headlabel="True"] ;
2 [label=<DT_away_reb &le; 0.5<br/>gini = 0.4997<br/>samples = 6224<br/>value = [3182, 3042]<br/>class = y<SUB>0</SUB>>, fillcolor="#e581390b"] ;
1 -> 2 ;
3 [label=<DT_home_public &le; 0.5<br/>gini = 0.5<br/>samples = 4215<br/>value = [2119, 2096]<br/>class = y<SUB>0</SUB>>, fillcolor="#e5813903"] ;
2 -> 3 ;
4 [label=<DT_home_tPAr &le; 0.5<br/>gini = 0.4996<br/>samples = 2751<br/>value = [1416, 1335]<br/>class = y<SUB>0</SUB>>, fillcolor="#e581390f"] ;
3 -> 4 ;
5 [label=<DT_away_ats &le; 0.5<br/>gini = 0.4989<br/>samples = 2100<br/>value = [1099, 1001]<br/>class = y<SUB>0</SUB>>, fillcolor="#e5813917"] ;
4 -> 5 ;
6 [label=<gini = 0.4968<br/>samples = 1340<br/>value = [724, 616]<br/>class = y<SUB>0</SUB>>, fillcolor="#e5813926"] ;
5 -> 6 ;
7 [label=<gini = 0.4999<br/>samples = 760<br/>value = [375, 385]<br/>class = y<SUB>1</SUB>>, fillcolor="#399de507"] ;
5 -> 7 ;
8 [label=<gini = 0.4997<br/>samples = 651<br/>value = [317, 334]<br/>class = y<SUB>1</SUB>>, fillcolor="#399de50d"] ;
4 -> 8 ;
9 [label=<DT_home_winner &le; 0.5<br/>gini = 0.4992<br/>samples = 1464<br/>value = [703, 761]<br/>class = y<SUB>1</SUB>>, fillcolor="#399de513"] ;
3 -> 9 ;
10 [label=<DT_home_reb &le; 0.5<br/>gini = 0.4986<br/>samples = 1078<br/>value = [510, 568]<br/>class = y<SUB>1</SUB>>, fillcolor="#399de51a"] ;
9 -> 10 ;
11 [label=<gini = 0.4986<br/>samples = 486<br/>value = [230, 256]<br/>class = y<SUB>1</SUB>>, fillcolor="#399de51a"] ;
10 -> 11 ;
12 [label=<gini = 0.4985<br/>samples = 592<br/>value = [280, 312]<br/>class = y<SUB>1</SUB>>, fillcolor="#399de51a"] ;
10 -> 12 ;
13 [label=<gini = 0.5<br/>samples = 386<br/>value = [193, 193]<br/>class = y<SUB>0</SUB>>, fillcolor="#e5813900"] ;
9 -> 13 ;
14 [label=<DT_home_winner &le; 0.5<br/>gini = 0.4983<br/>samples = 2009<br/>value = [1063, 946]<br/>class = y<SUB>0</SUB>>, fillcolor="#e581391c"] ;
2 -> 14 ;
15 [label=<DT_away_ats &le; 0.5<br/>gini = 0.497<br/>samples = 1465<br/>value = [789, 676]<br/>class = y<SUB>0</SUB>>, fillcolor="#e5813925"] ;
14 -> 15 ;
16 [label=<gini = 0.4986<br/>samples = 815<br/>value = [429, 386]<br/>class = y<SUB>0</SUB>>, fillcolor="#e581391a"] ;
15 -> 16 ;
17 [label=<gini = 0.4942<br/>samples = 650<br/>value = [360, 290]<br/>class = y<SUB>0</SUB>>, fillcolor="#e5813932"] ;
15 -> 17 ;
18 [label=<gini = 0.5<br/>samples = 544<br/>value = [274, 270]<br/>class = y<SUB>0</SUB>>, fillcolor="#e5813904"] ;
14 -> 18 ;
19 [label=<DT_home_tPAr &le; 0.5<br/>gini = 0.4992<br/>samples = 2718<br/>value = [1306, 1412]<br/>class = y<SUB>1</SUB>>, fillcolor="#399de513"] ;
1 -> 19 ;
20 [label=<DT_home_reb &le; 0.5<br/>gini = 0.4981<br/>samples = 1926<br/>value = [904, 1022]<br/>class = y<SUB>1</SUB>>, fillcolor="#399de51d"] ;
19 -> 20 ;
21 [label=<DT_away_public &le; 0.5<br/>gini = 0.4993<br/>samples = 1273<br/>value = [613, 660]<br/>class = y<SUB>1</SUB>>, fillcolor="#399de512"] ;
20 -> 21 ;
22 [label=<gini = 0.4999<br/>samples = 587<br/>value = [298, 289]<br/>class = y<SUB>0</SUB>>, fillcolor="#e5813908"] ;
21 -> 22 ;
23 [label=<gini = 0.4967<br/>samples = 686<br/>value = [315, 371]<br/>class = y<SUB>1</SUB>>, fillcolor="#399de526"] ;
21 -> 23 ;
24 [label=<gini = 0.4941<br/>samples = 653<br/>value = [291, 362]<br/>class = y<SUB>1</SUB>>, fillcolor="#399de532"] ;
20 -> 24 ;
25 [label=<gini = 0.4999<br/>samples = 792<br/>value = [402, 390]<br/>class = y<SUB>0</SUB>>, fillcolor="#e5813908"] ;
19 -> 25 ;
26 [label=<DT_home_winner &le; 0.5<br/>gini = 0.4988<br/>samples = 4853<br/>value = [2543, 2310]<br/>class = y<SUB>0</SUB>>, fillcolor="#e5813917"] ;
0 -> 26 [labeldistance=2.5, labelangle=-45, headlabel="False"] ;
27 [label=<DT_home_tPAr &le; 0.5<br/>gini = 0.4998<br/>samples = 2646<br/>value = [1351, 1295]<br/>class = y<SUB>0</SUB>>, fillcolor="#e581390b"] ;
26 -> 27 ;
28 [label=<DT_away_ats &le; 0.5<br/>gini = 0.5<br/>samples = 1987<br/>value = [999, 988]<br/>class = y<SUB>0</SUB>>, fillcolor="#e5813903"] ;
27 -> 28 ;
29 [label=<DT_home_public &le; 0.5<br/>gini = 0.4996<br/>samples = 1146<br/>value = [590, 556]<br/>class = y<SUB>0</SUB>>, fillcolor="#e581390f"] ;
28 -> 29 ;
30 [label=<gini = 0.499<br/>samples = 659<br/>value = [344, 315]<br/>class = y<SUB>0</SUB>>, fillcolor="#e5813915"] ;
29 -> 30 ;
31 [label=<gini = 0.4999<br/>samples = 487<br/>value = [246, 241]<br/>class = y<SUB>0</SUB>>, fillcolor="#e5813905"] ;
29 -> 31 ;
32 [label=<gini = 0.4996<br/>samples = 841<br/>value = [409, 432]<br/>class = y<SUB>1</SUB>>, fillcolor="#399de50e"] ;
28 -> 32 ;
33 [label=<gini = 0.4977<br/>samples = 659<br/>value = [352, 307]<br/>class = y<SUB>0</SUB>>, fillcolor="#e5813921"] ;
27 -> 33 ;
34 [label=<DT_home_tPAr &le; 0.5<br/>gini = 0.4968<br/>samples = 2207<br/>value = [1192, 1015]<br/>class = y<SUB>0</SUB>>, fillcolor="#e5813926"] ;
26 -> 34 ;
35 [label=<DT_away_ats &le; 0.5<br/>gini = 0.4951<br/>samples = 1543<br/>value = [848, 695]<br/>class = y<SUB>0</SUB>>, fillcolor="#e581392e"] ;
34 -> 35 ;
36 [label=<DT_home_reb &le; 0.5<br/>gini = 0.493<br/>samples = 1121<br/>value = [627, 494]<br/>class = y<SUB>0</SUB>>, fillcolor="#e5813936"] ;
35 -> 36 ;
37 [label=<gini = 0.491<br/>samples = 580<br/>value = [329, 251]<br/>class = y<SUB>0</SUB>>, fillcolor="#e581393c"] ;
36 -> 37 ;
38 [label=<gini = 0.4948<br/>samples = 541<br/>value = [298, 243]<br/>class = y<SUB>0</SUB>>, fillcolor="#e581392f"] ;
36 -> 38 ;
39 [label=<gini = 0.4989<br/>samples = 422<br/>value = [221, 201]<br/>class = y<SUB>0</SUB>>, fillcolor="#e5813917"] ;
35 -> 39 ;
40 [label=<gini = 0.4993<br/>samples = 664<br/>value = [344, 320]<br/>class = y<SUB>0</SUB>>, fillcolor="#e5813912"] ;
34 -> 40 ;
}