digraph Tree {
node [shape=box, style="filled, rounded", color="black", fontname=helvetica] ;
edge [fontname=helvetica] ;
0 [label=<DT_home_public &le; 0.5<br/>gini = 0.4998<br/>samples = 2238<br/>value = [1095, 1143]<br/>class = y<SUB>1</SUB>>, fillcolor="#399de50b"] ;
1 [label=<DT_away_movement &le; 0.5<br/>gini = 0.4981<br/>samples = 1289<br/>value = [605, 684]<br/>class = y<SUB>1</SUB>>, fillcolor="#399de51d"] ;
0 -> 1 [labeldistance=2.5, labelangle=45, headlabel="True"] ;
2 [label=<DT_away_public &le; 0.5<br/>gini = 0.4999<br/>samples = 655<br/>value = [322, 333]<br/>class = y<SUB>1</SUB>>, fillcolor="#399de508"] ;
1 -> 2 ;
3 [label=<DT_home_winner &le; 0.5<br/>gini = 0.4998<br/>samples = 413<br/>value = [211, 202]<br/>class = y<SUB>0</SUB>>, fillcolor="#e581390b"] ;
2 -> 3 ;
4 [label=<gini = 0.4995<br/>samples = 256<br/>value = [132, 124]<br/>class = y<SUB>0</SUB>>, fillcolor="#e581390f"] ;
3 -> 4 ;
5 [label=<gini = 0.5<br/>samples = 157<br/>value = [79, 78]<br/>class = y<SUB>0</SUB>>, fillcolor="#e5813903"] ;
3 -> 5 ;
6 [label=<DT_home_winner &le; 0.5<br/>gini = 0.4966<br/>samples = 242<br/>value = [111, 131]<br/>class = y<SUB>1</SUB>>, fillcolor="#399de527"] ;
2 -> 6 ;
7 [label=<gini = 0.4975<br/>samples = 183<br/>value = [85, 98]<br/>class = y<SUB>1</SUB>>, fillcolor="#399de522"] ;
6 -> 7 ;
8 [label=<gini = 0.493<br/>samples = 59<br/>value = [26, 33]<br/>class = y<SUB>1</SUB>>, fillcolor="#399de536"] ;
6 -> 8 ;
9 [label=<DT_home_winner &le; 0.5<br/>gini = 0.4942<br/>samples = 634<br/>value = [283, 351]<br/>class = y<SUB>1</SUB>>, fillcolor="#399de531"] ;
1 -> 9 ;
10 [label=<DT_away_public &le; 0.5<br/>gini = 0.4975<br/>samples = 512<br/>value = [238, 274]<br/>class = y<SUB>1</SUB>>, fillcolor="#399de522"] ;
9 -> 10 ;
11 [label=<gini = 0.4968<br/>samples = 263<br/>value = [121, 142]<br/>class = y<SUB>1</SUB>>, fillcolor="#399de526"] ;
10 -> 11 ;
12 [label=<gini = 0.4982<br/>samples = 249<br/>value = [117, 132]<br/>class = y<SUB>1</SUB>>, fillcolor="#399de51d"] ;
10 -> 12 ;
13 [label=<DT_away_public &le; 0.5<br/>gini = 0.4656<br/>samples = 122<br/>value = [45, 77]<br/>class = y<SUB>1</SUB>>, fillcolor="#399de56a"] ;
9 -> 13 ;
14 [label=<gini = 0.4832<br/>samples = 71<br/>value = [29, 42]<br/>class = y<SUB>1</SUB>>, fillcolor="#399de54f"] ;
13 -> 14 ;
15 [label=<gini = 0.4306<br/>samples = 51<br/>value = [16, 35]<br/>class = y<SUB>1</SUB>>, fillcolor="#399de58a"] ;
13 -> 15 ;
16 [label=<DT_home_winner &le; 0.5<br/>gini = 0.4995<br/>samples = 949<br/>value = [490, 459]<br/>class = y<SUB>0</SUB>>, fillcolor="#e5813910"] ;
0 -> 16 [labeldistance=2.5, labelangle=-45, headlabel="False"] ;
17 [label=<DT_away_movement &le; 0.5<br/>gini = 0.4983<br/>samples = 641<br/>value = [339, 302]<br/>class = y<SUB>0</SUB>>, fillcolor="#e581391c"] ;
16 -> 17 ;
18 [label=<DT_away_public &le; 0.5<br/>gini = 0.4942<br/>samples = 287<br/>value = [159, 128]<br/>class = y<SUB>0</SUB>>, fillcolor="#e5813932"] ;
17 -> 18 ;
19 [label=<gini = 0.4972<br/>samples = 147<br/>value = [79, 68]<br/>class = y<SUB>0</SUB>>, fillcolor="#e5813924"] ;
18 -> 19 ;
20 [label=<gini = 0.4898<br/>samples = 140<br/>value = [80, 60]<br/>class = y<SUB>0</SUB>>, fillcolor="#e5813940"] ;
18 -> 20 ;
21 [label=<DT_away_public &le; 0.5<br/>gini = 0.4999<br/>samples = 354<br/>value = [180, 174]<br/>class = y<SUB>0</SUB>>, fillcolor="#e5813908"] ;
17 -> 21 ;
22 [label=<gini = 0.4996<br/>samples = 175<br/>value = [90, 85]<br/>class = y<SUB>0</SUB>>, fillcolor="#e581390e"] ;
21 -> 22 ;
23 [label=<gini = 0.5<br/>samples = 179<br/>value = [90, 89]<br/>class = y<SUB>0</SUB>>, fillcolor="#e5813903"] ;
21 -> 23 ;
24 [label=<DT_away_public &le; 0.5<br/>gini = 0.4998<br/>samples = 308<br/>value = [151, 157]<br/>class = y<SUB>1</SUB>>, fillcolor="#399de50a"] ;
16 -> 24 ;
25 [label=<DT_away_movement &le; 0.5<br/>gini = 0.4988<br/>samples = 183<br/>value = [96, 87]<br/>class = y<SUB>0</SUB>>, fillcolor="#e5813918"] ;
24 -> 25 ;
26 [label=<gini = 0.499<br/>samples = 111<br/>value = [58, 53]<br/>class = y<SUB>0</SUB>>, fillcolor="#e5813916"] ;
25 -> 26 ;
27 [label=<gini = 0.4985<br/>samples = 72<br/>value = [38, 34]<br/>class = y<SUB>0</SUB>>, fillcolor="#e581391b"] ;
25 -> 27 ;
28 [label=<DT_away_movement &le; 0.5<br/>gini = 0.4928<br/>samples = 125<br/>value = [55, 70]<br/>class = y<SUB>1</SUB>>, fillcolor="#399de537"] ;
24 -> 28 ;
29 [label=<gini = 0.4648<br/>samples = 49<br/>value = [18, 31]<br/>class = y<SUB>1</SUB>>, fillcolor="#399de56b"] ;
28 -> 29 ;
30 [label=<gini = 0.4997<br/>samples = 76<br/>value = [37, 39]<br/>class = y<SUB>1</SUB>>, fillcolor="#399de50d"] ;
28 -> 30 ;
}