digraph Tree {
node [shape=box, style="filled, rounded", color="black", fontname=helvetica] ;
edge [fontname=helvetica] ;
0 [label=<DT_home_ats &le; 0.5<br/>gini = 0.4998<br/>samples = 13727<br/>value = [6990, 6737]<br/>class = y<SUB>0</SUB>>, fillcolor="#e5813909"] ;
1 [label=<DT_away_movement &le; 0.5<br/>gini = 0.5<br/>samples = 8893<br/>value = [4473, 4420]<br/>class = y<SUB>0</SUB>>, fillcolor="#e5813903"] ;
0 -> 1 [labeldistance=2.5, labelangle=45, headlabel="True"] ;
2 [label=<DT_home_tPAr &le; 0.5<br/>gini = 0.4997<br/>samples = 6165<br/>value = [3157, 3008]<br/>class = y<SUB>0</SUB>>, fillcolor="#e581390c"] ;
1 -> 2 ;
3 [label=<DT_away_ats &le; 0.5<br/>gini = 0.4994<br/>samples = 4399<br/>value = [2277, 2122]<br/>class = y<SUB>0</SUB>>, fillcolor="#e5813911"] ;
2 -> 3 ;
4 [label=<DT_home_reb &le; 0.5<br/>gini = 0.4987<br/>samples = 2809<br/>value = [1477, 1332]<br/>class = y<SUB>0</SUB>>, fillcolor="#e5813919"] ;
3 -> 4 ;
5 [label=<DT_home_public &le; 0.5<br/>gini = 0.4998<br/>samples = 1652<br/>value = [843, 809]<br/>class = y<SUB>0</SUB>>, fillcolor="#e581390a"] ;
4 -> 5 ;
6 [label=<gini = 0.5<br/>samples = 1139<br/>value = [570, 569]<br/>class = y<SUB>0</SUB>>, fillcolor="#e5813900"] ;
5 -> 6 ;
7 [label=<gini = 0.4979<br/>samples = 513<br/>value = [273, 240]<br/>class = y<SUB>0</SUB>>, fillcolor="#e581391f"] ;
5 -> 7 ;
8 [label=<DT_home_public &le; 0.5<br/>gini = 0.4954<br/>samples = 1157<br/>value = [634, 523]<br/>class = y<SUB>0</SUB>>, fillcolor="#e581392d"] ;
4 -> 8 ;
9 [label=<gini = 0.4936<br/>samples = 690<br/>value = [384, 306]<br/>class = y<SUB>0</SUB>>, fillcolor="#e5813934"] ;
8 -> 9 ;
10 [label=<gini = 0.4975<br/>samples = 467<br/>value = [250, 217]<br/>class = y<SUB>0</SUB>>, fillcolor="#e5813922"] ;
8 -> 10 ;
11 [label=<DT_away_reb &le; 0.5<br/>gini = 0.5<br/>samples = 1590<br/>value = [800, 790]<br/>class = y<SUB>0</SUB>>, fillcolor="#e5813903"] ;
3 -> 11 ;
12 [label=<DT_home_reb &le; 0.5<br/>gini = 0.4998<br/>samples = 1052<br/>value = [516, 536]<br/>class = y<SUB>1</SUB>>, fillcolor="#399de50a"] ;
11 -> 12 ;
13 [label=<gini = 0.5<br/>samples = 563<br/>value = [282, 281]<br/>class = y<SUB>0</SUB>>, fillcolor="#e5813901"] ;
12 -> 13 ;
14 [label=<gini = 0.4991<br/>samples = 489<br/>value = [234, 255]<br/>class = y<SUB>1</SUB>>, fillcolor="#399de515"] ;
12 -> 14 ;
15 [label=<gini = 0.4984<br/>samples = 538<br/>value = [284, 254]<br/>class = y<SUB>0</SUB>>, fillcolor="#e581391b"] ;
11 -> 15 ;
16 [label=<DT_home_reb &le; 0.5<br/>gini = 0.5<br/>samples = 1766<br/>value = [880, 886]<br/>class = y<SUB>1</SUB>>, fillcolor="#399de502"] ;
2 -> 16 ;
17 [label=<DT_away_reb &le; 0.5<br/>gini = 0.4993<br/>samples = 1304<br/>value = [676, 628]<br/>class = y<SUB>0</SUB>>, fillcolor="#e5813912"] ;
16 -> 17 ;
18 [label=<gini = 0.5<br/>samples = 522<br/>value = [260, 262]<br/>class = y<SUB>1</SUB>>, fillcolor="#399de502"] ;
17 -> 18 ;
19 [label=<gini = 0.498<br/>samples = 782<br/>value = [416, 366]<br/>class = y<SUB>0</SUB>>, fillcolor="#e581391f"] ;
17 -> 19 ;
20 [label=<gini = 0.4932<br/>samples = 462<br/>value = [204, 258]<br/>class = y<SUB>1</SUB>>, fillcolor="#399de535"] ;
16 -> 20 ;
21 [label=<DT_home_tPAr &le; 0.5<br/>gini = 0.4994<br/>samples = 2728<br/>value = [1316, 1412]<br/>class = y<SUB>1</SUB>>, fillcolor="#399de511"] ;
1 -> 21 ;
22 [label=<DT_home_reb &le; 0.5<br/>gini = 0.498<br/>samples = 1925<br/>value = [901, 1024]<br/>class = y<SUB>1</SUB>>, fillcolor="#399de51f"] ;
21 -> 22 ;
23 [label=<DT_away_public &le; 0.5<br/>gini = 0.4995<br/>samples = 1259<br/>value = [610, 649]<br/>class = y<SUB>1</SUB>>, fillcolor="#399de50f"] ;
22 -> 23 ;
24 [label=<gini = 0.4993<br/>samples = 551<br/>value = [286, 265]<br/>class = y<SUB>0</SUB>>, fillcolor="#e5813913"] ;
23 -> 24 ;
25 [label=<gini = 0.4964<br/>samples = 708<br/>value = [324, 384]<br/>class = y<SUB>1</SUB>>, fillcolor="#399de528"] ;
23 -> 25 ;
26 [label=<gini = 0.492<br/>samples = 666<br/>value = [291, 375]<br/>class = y<SUB>1</SUB>>, fillcolor="#399de539"] ;
22 -> 26 ;
27 [label=<DT_away_public &le; 0.5<br/>gini = 0.4994<br/>samples = 803<br/>value = [415, 388]<br/>class = y<SUB>0</SUB>>, fillcolor="#e5813911"] ;
21 -> 27 ;
28 [label=<gini = 0.4992<br/>samples = 421<br/>value = [219, 202]<br/>class = y<SUB>0</SUB>>, fillcolor="#e5813914"] ;
27 -> 28 ;
29 [label=<gini = 0.4997<br/>samples = 382<br/>value = [196, 186]<br/>class = y<SUB>0</SUB>>, fillcolor="#e581390d"] ;
27 -> 29 ;
30 [label=<DT_home_winner &le; 0.5<br/>gini = 0.4991<br/>samples = 4834<br/>value = [2517, 2317]<br/>class = y<SUB>0</SUB>>, fillcolor="#e5813914"] ;
0 -> 30 [labeldistance=2.5, labelangle=-45, headlabel="False"] ;
31 [label=<DT_away_ats &le; 0.5<br/>gini = 0.4999<br/>samples = 2604<br/>value = [1324, 1280]<br/>class = y<SUB>0</SUB>>, fillcolor="#e5813908"] ;
30 -> 31 ;
32 [label=<DT_home_public &le; 0.5<br/>gini = 0.4986<br/>samples = 1499<br/>value = [789, 710]<br/>class = y<SUB>0</SUB>>, fillcolor="#e581391a"] ;
31 -> 32 ;
33 [label=<DT_home_reb &le; 0.5<br/>gini = 0.4978<br/>samples = 842<br/>value = [449, 393]<br/>class = y<SUB>0</SUB>>, fillcolor="#e5813920"] ;
32 -> 33 ;
34 [label=<gini = 0.4973<br/>samples = 460<br/>value = [247, 213]<br/>class = y<SUB>0</SUB>>, fillcolor="#e5813923"] ;
33 -> 34 ;
35 [label=<gini = 0.4983<br/>samples = 382<br/>value = [202, 180]<br/>class = y<SUB>0</SUB>>, fillcolor="#e581391c"] ;
33 -> 35 ;
36 [label=<gini = 0.4994<br/>samples = 657<br/>value = [340, 317]<br/>class = y<SUB>0</SUB>>, fillcolor="#e5813911"] ;
32 -> 36 ;
37 [label=<DT_home_reb &le; 0.5<br/>gini = 0.4995<br/>samples = 1105<br/>value = [535, 570]<br/>class = y<SUB>1</SUB>>, fillcolor="#399de510"] ;
31 -> 37 ;
38 [label=<gini = 0.5<br/>samples = 676<br/>value = [336, 340]<br/>class = y<SUB>1</SUB>>, fillcolor="#399de503"] ;
37 -> 38 ;
39 [label=<gini = 0.4974<br/>samples = 429<br/>value = [199, 230]<br/>class = y<SUB>1</SUB>>, fillcolor="#399de522"] ;
37 -> 39 ;
40 [label=<DT_home_reb &le; 0.5<br/>gini = 0.4976<br/>samples = 2230<br/>value = [1193, 1037]<br/>class = y<SUB>0</SUB>>, fillcolor="#e5813921"] ;
30 -> 40 ;
41 [label=<DT_away_ats &le; 0.5<br/>gini = 0.4954<br/>samples = 1278<br/>value = [700, 578]<br/>class = y<SUB>0</SUB>>, fillcolor="#e581392c"] ;
40 -> 41 ;
42 [label=<DT_away_movement &le; 0.5<br/>gini = 0.4973<br/>samples = 892<br/>value = [479, 413]<br/>class = y<SUB>0</SUB>>, fillcolor="#e5813923"] ;
41 -> 42 ;
43 [label=<gini = 0.4998<br/>samples = 434<br/>value = [221, 213]<br/>class = y<SUB>0</SUB>>, fillcolor="#e5813909"] ;
42 -> 43 ;
44 [label=<gini = 0.492<br/>samples = 458<br/>value = [258, 200]<br/>class = y<SUB>0</SUB>>, fillcolor="#e5813939"] ;
42 -> 44 ;
45 [label=<gini = 0.4895<br/>samples = 386<br/>value = [221, 165]<br/>class = y<SUB>0</SUB>>, fillcolor="#e5813941"] ;
41 -> 45 ;
46 [label=<DT_home_public &le; 0.5<br/>gini = 0.4994<br/>samples = 952<br/>value = [493, 459]<br/>class = y<SUB>0</SUB>>, fillcolor="#e5813912"] ;
40 -> 46 ;
47 [label=<gini = 0.4984<br/>samples = 568<br/>value = [300, 268]<br/>class = y<SUB>0</SUB>>, fillcolor="#e581391b"] ;
46 -> 47 ;
48 [label=<gini = 0.5<br/>samples = 384<br/>value = [193, 191]<br/>class = y<SUB>0</SUB>>, fillcolor="#e5813903"] ;
46 -> 48 ;
}