digraph Tree {
node [shape=box, style="filled, rounded", color="black", fontname=helvetica] ;
edge [fontname=helvetica] ;
0 [label=<DT_home_public &le; 0.5<br/>gini = 0.5<br/>samples = 1738<br/>value = [865, 873]<br/>class = y<SUB>1</SUB>>, fillcolor="#399de502"] ;
1 [label=<DT_away_movement &le; 0.5<br/>gini = 0.4991<br/>samples = 1018<br/>value = [488, 530]<br/>class = y<SUB>1</SUB>>, fillcolor="#399de514"] ;
0 -> 1 [labeldistance=2.5, labelangle=45, headlabel="True"] ;
2 [label=<DT_away_public &le; 0.5<br/>gini = 0.5<br/>samples = 516<br/>value = [257, 259]<br/>class = y<SUB>1</SUB>>, fillcolor="#399de502"] ;
1 -> 2 ;
3 [label=<DT_home_winner &le; 0.5<br/>gini = 0.4996<br/>samples = 313<br/>value = [161, 152]<br/>class = y<SUB>0</SUB>>, fillcolor="#e581390e"] ;
2 -> 3 ;
4 [label=<gini = 0.4995<br/>samples = 190<br/>value = [98, 92]<br/>class = y<SUB>0</SUB>>, fillcolor="#e5813910"] ;
3 -> 4 ;
5 [label=<gini = 0.4997<br/>samples = 123<br/>value = [63, 60]<br/>class = y<SUB>0</SUB>>, fillcolor="#e581390c"] ;
3 -> 5 ;
6 [label=<DT_home_winner &le; 0.5<br/>gini = 0.4985<br/>samples = 203<br/>value = [96, 107]<br/>class = y<SUB>1</SUB>>, fillcolor="#399de51a"] ;
2 -> 6 ;
7 [label=<gini = 0.499<br/>samples = 157<br/>value = [75, 82]<br/>class = y<SUB>1</SUB>>, fillcolor="#399de516"] ;
6 -> 7 ;
8 [label=<gini = 0.4962<br/>samples = 46<br/>value = [21, 25]<br/>class = y<SUB>1</SUB>>, fillcolor="#399de529"] ;
6 -> 8 ;
9 [label=<DT_home_winner &le; 0.5<br/>gini = 0.4968<br/>samples = 502<br/>value = [231, 271]<br/>class = y<SUB>1</SUB>>, fillcolor="#399de526"] ;
1 -> 9 ;
10 [label=<DT_away_public &le; 0.5<br/>gini = 0.4994<br/>samples = 402<br/>value = [194, 208]<br/>class = y<SUB>1</SUB>>, fillcolor="#399de511"] ;
9 -> 10 ;
11 [label=<gini = 0.4996<br/>samples = 200<br/>value = [97, 103]<br/>class = y<SUB>1</SUB>>, fillcolor="#399de50f"] ;
10 -> 11 ;
12 [label=<gini = 0.4992<br/>samples = 202<br/>value = [97, 105]<br/>class = y<SUB>1</SUB>>, fillcolor="#399de513"] ;
10 -> 12 ;
13 [label=<DT_away_public &le; 0.5<br/>gini = 0.4662<br/>samples = 100<br/>value = [37, 63]<br/>class = y<SUB>1</SUB>>, fillcolor="#399de569"] ;
9 -> 13 ;
14 [label=<gini = 0.4786<br/>samples = 58<br/>value = [23, 35]<br/>class = y<SUB>1</SUB>>, fillcolor="#399de557"] ;
13 -> 14 ;
15 [label=<gini = 0.4444<br/>samples = 42<br/>value = [14, 28]<br/>class = y<SUB>1</SUB>>, fillcolor="#399de57f"] ;
13 -> 15 ;
16 [label=<DT_home_winner &le; 0.5<br/>gini = 0.4989<br/>samples = 720<br/>value = [377, 343]<br/>class = y<SUB>0</SUB>>, fillcolor="#e5813917"] ;
0 -> 16 [labeldistance=2.5, labelangle=-45, headlabel="False"] ;
17 [label=<DT_away_movement &le; 0.5<br/>gini = 0.4969<br/>samples = 486<br/>value = [262, 224]<br/>class = y<SUB>0</SUB>>, fillcolor="#e5813925"] ;
16 -> 17 ;
18 [label=<DT_away_public &le; 0.5<br/>gini = 0.4857<br/>samples = 207<br/>value = [121, 86]<br/>class = y<SUB>0</SUB>>, fillcolor="#e581394a"] ;
17 -> 18 ;
19 [label=<gini = 0.4909<br/>samples = 104<br/>value = [59, 45]<br/>class = y<SUB>0</SUB>>, fillcolor="#e581393d"] ;
18 -> 19 ;
20 [label=<gini = 0.4792<br/>samples = 103<br/>value = [62, 41]<br/>class = y<SUB>0</SUB>>, fillcolor="#e5813956"] ;
18 -> 20 ;
21 [label=<DT_away_public &le; 0.5<br/>gini = 0.4999<br/>samples = 279<br/>value = [141, 138]<br/>class = y<SUB>0</SUB>>, fillcolor="#e5813905"] ;
17 -> 21 ;
22 [label=<gini = 0.4996<br/>samples = 138<br/>value = [71, 67]<br/>class = y<SUB>0</SUB>>, fillcolor="#e581390e"] ;
21 -> 22 ;
23 [label=<gini = 0.5<br/>samples = 141<br/>value = [70, 71]<br/>class = y<SUB>1</SUB>>, fillcolor="#399de504"] ;
21 -> 23 ;
24 [label=<DT_away_public &le; 0.5<br/>gini = 0.4999<br/>samples = 234<br/>value = [115, 119]<br/>class = y<SUB>1</SUB>>, fillcolor="#399de509"] ;
16 -> 24 ;
25 [label=<DT_away_movement &le; 0.5<br/>gini = 0.4998<br/>samples = 147<br/>value = [75, 72]<br/>class = y<SUB>0</SUB>>, fillcolor="#e581390a"] ;
24 -> 25 ;
26 [label=<gini = 0.4994<br/>samples = 87<br/>value = [45, 42]<br/>class = y<SUB>0</SUB>>, fillcolor="#e5813911"] ;
25 -> 26 ;
27 [label=<gini = 0.5<br/>samples = 60<br/>value = [30, 30]<br/>class = y<SUB>0</SUB>>, fillcolor="#e5813900"] ;
25 -> 27 ;
28 [label=<DT_away_movement &le; 0.5<br/>gini = 0.4968<br/>samples = 87<br/>value = [40, 47]<br/>class = y<SUB>1</SUB>>, fillcolor="#399de526"] ;
24 -> 28 ;
29 [label=<gini = 0.4444<br/>samples = 30<br/>value = [10, 20]<br/>class = y<SUB>1</SUB>>, fillcolor="#399de57f"] ;
28 -> 29 ;
30 [label=<gini = 0.4986<br/>samples = 57<br/>value = [30, 27]<br/>class = y<SUB>0</SUB>>, fillcolor="#e5813919"] ;
28 -> 30 ;
}