digraph Tree {
node [shape=box, style="filled, rounded", color="black", fontname=helvetica] ;
edge [fontname=helvetica] ;
0 [label=<DT_home_winner &le; 0.5<br/>gini = 0.4995<br/>samples = 1823<br/>value = [884, 939]<br/>class = y<SUB>1</SUB>>, fillcolor="#399de50f"] ;
1 [label=<DT_home_public &le; 0.5<br/>gini = 0.5<br/>samples = 1289<br/>value = [642, 647]<br/>class = y<SUB>1</SUB>>, fillcolor="#399de502"] ;
0 -> 1 [labeldistance=2.5, labelangle=45, headlabel="True"] ;
2 [label=<DT_away_movement &le; 0.5<br/>gini = 0.4991<br/>samples = 773<br/>value = [370, 403]<br/>class = y<SUB>1</SUB>>, fillcolor="#399de515"] ;
1 -> 2 ;
3 [label=<DT_away_public &le; 0.5<br/>gini = 0.5<br/>samples = 365<br/>value = [184, 181]<br/>class = y<SUB>0</SUB>>, fillcolor="#e5813904"] ;
2 -> 3 ;
4 [label=<gini = 0.4982<br/>samples = 219<br/>value = [116, 103]<br/>class = y<SUB>0</SUB>>, fillcolor="#e581391d"] ;
3 -> 4 ;
5 [label=<gini = 0.4977<br/>samples = 146<br/>value = [68, 78]<br/>class = y<SUB>1</SUB>>, fillcolor="#399de521"] ;
3 -> 5 ;
6 [label=<DT_away_public &le; 0.5<br/>gini = 0.4961<br/>samples = 408<br/>value = [186, 222]<br/>class = y<SUB>1</SUB>>, fillcolor="#399de529"] ;
2 -> 6 ;
7 [label=<gini = 0.4956<br/>samples = 214<br/>value = [97, 117]<br/>class = y<SUB>1</SUB>>, fillcolor="#399de52c"] ;
6 -> 7 ;
8 [label=<gini = 0.4966<br/>samples = 194<br/>value = [89, 105]<br/>class = y<SUB>1</SUB>>, fillcolor="#399de527"] ;
6 -> 8 ;
9 [label=<DT_away_movement &le; 0.5<br/>gini = 0.4985<br/>samples = 516<br/>value = [272, 244]<br/>class = y<SUB>0</SUB>>, fillcolor="#e581391a"] ;
1 -> 9 ;
10 [label=<DT_away_public &le; 0.5<br/>gini = 0.4943<br/>samples = 235<br/>value = [130, 105]<br/>class = y<SUB>0</SUB>>, fillcolor="#e5813931"] ;
9 -> 10 ;
11 [label=<gini = 0.4971<br/>samples = 119<br/>value = [64, 55]<br/>class = y<SUB>0</SUB>>, fillcolor="#e5813924"] ;
10 -> 11 ;
12 [label=<gini = 0.4905<br/>samples = 116<br/>value = [66, 50]<br/>class = y<SUB>0</SUB>>, fillcolor="#e581393e"] ;
10 -> 12 ;
13 [label=<DT_away_public &le; 0.5<br/>gini = 0.4999<br/>samples = 281<br/>value = [142, 139]<br/>class = y<SUB>0</SUB>>, fillcolor="#e5813905"] ;
9 -> 13 ;
14 [label=<gini = 0.4987<br/>samples = 137<br/>value = [72, 65]<br/>class = y<SUB>0</SUB>>, fillcolor="#e5813919"] ;
13 -> 14 ;
15 [label=<gini = 0.4996<br/>samples = 144<br/>value = [70, 74]<br/>class = y<SUB>1</SUB>>, fillcolor="#399de50e"] ;
13 -> 15 ;
16 [label=<DT_away_public &le; 0.5<br/>gini = 0.4956<br/>samples = 534<br/>value = [242, 292]<br/>class = y<SUB>1</SUB>>, fillcolor="#399de52c"] ;
0 -> 16 [labeldistance=2.5, labelangle=-45, headlabel="False"] ;
17 [label=<DT_home_public &le; 0.5<br/>gini = 0.4997<br/>samples = 348<br/>value = [170, 178]<br/>class = y<SUB>1</SUB>>, fillcolor="#399de50b"] ;
16 -> 17 ;
18 [label=<DT_away_movement &le; 0.5<br/>gini = 0.498<br/>samples = 192<br/>value = [90, 102]<br/>class = y<SUB>1</SUB>>, fillcolor="#399de51e"] ;
17 -> 18 ;
19 [label=<gini = 0.5<br/>samples = 134<br/>value = [67, 67]<br/>class = y<SUB>0</SUB>>, fillcolor="#e5813900"] ;
18 -> 19 ;
20 [label=<gini = 0.4786<br/>samples = 58<br/>value = [23, 35]<br/>class = y<SUB>1</SUB>>, fillcolor="#399de557"] ;
18 -> 20 ;
21 [label=<DT_away_movement &le; 0.5<br/>gini = 0.4997<br/>samples = 156<br/>value = [80, 76]<br/>class = y<SUB>0</SUB>>, fillcolor="#e581390d"] ;
17 -> 21 ;
22 [label=<gini = 0.4999<br/>samples = 95<br/>value = [47, 48]<br/>class = y<SUB>1</SUB>>, fillcolor="#399de505"] ;
21 -> 22 ;
23 [label=<gini = 0.4966<br/>samples = 61<br/>value = [33, 28]<br/>class = y<SUB>0</SUB>>, fillcolor="#e5813927"] ;
21 -> 23 ;
24 [label=<DT_home_public &le; 0.5<br/>gini = 0.4745<br/>samples = 186<br/>value = [72, 114]<br/>class = y<SUB>1</SUB>>, fillcolor="#399de55e"] ;
16 -> 24 ;
25 [label=<DT_away_movement &le; 0.5<br/>gini = 0.468<br/>samples = 83<br/>value = [31, 52]<br/>class = y<SUB>1</SUB>>, fillcolor="#399de567"] ;
24 -> 25 ;
26 [label=<gini = 0.4915<br/>samples = 46<br/>value = [20, 26]<br/>class = y<SUB>1</SUB>>, fillcolor="#399de53b"] ;
25 -> 26 ;
27 [label=<gini = 0.4178<br/>samples = 37<br/>value = [11, 26]<br/>class = y<SUB>1</SUB>>, fillcolor="#399de593"] ;
25 -> 27 ;
28 [label=<DT_away_movement &le; 0.5<br/>gini = 0.4792<br/>samples = 103<br/>value = [41, 62]<br/>class = y<SUB>1</SUB>>, fillcolor="#399de556"] ;
24 -> 28 ;
29 [label=<gini = 0.4392<br/>samples = 43<br/>value = [14, 29]<br/>class = y<SUB>1</SUB>>, fillcolor="#399de584"] ;
28 -> 29 ;
30 [label=<gini = 0.495<br/>samples = 60<br/>value = [27, 33]<br/>class = y<SUB>1</SUB>>, fillcolor="#399de52e"] ;
28 -> 30 ;
}