digraph Tree {
node [shape=box, style="filled, rounded", color="black", fontname=helvetica] ;
edge [fontname=helvetica] ;
0 [label=<DT_home_public &le; 0.5<br/>gini = 0.5<br/>samples = 1738<br/>value = [865, 873]<br/>class = y<SUB>1</SUB>>, fillcolor="#399de502"] ;
1 [label=<DT_away_movement &le; 0.5<br/>gini = 0.4991<br/>samples = 1018<br/>value = [488, 530]<br/>class = y<SUB>1</SUB>>, fillcolor="#399de514"] ;
0 -> 1 [labeldistance=2.5, labelangle=45, headlabel="True"] ;
2 [label=<DT_away_public &le; 0.5<br/>gini = 0.5<br/>samples = 516<br/>value = [257, 259]<br/>class = y<SUB>1</SUB>>, fillcolor="#399de502"] ;
1 -> 2 ;
3 [label=<DT_home_winner &le; 0.5<br/>gini = 0.4996<br/>samples = 313<br/>value = [161, 152]<br/>class = y<SUB>0</SUB>>, fillcolor="#e581390e"] ;
2 -> 3 ;
4 [label=<gini = 0.4997<br/>samples = 191<br/>value = [98, 93]<br/>class = y<SUB>0</SUB>>, fillcolor="#e581390d"] ;
3 -> 4 ;
5 [label=<gini = 0.4995<br/>samples = 122<br/>value = [63, 59]<br/>class = y<SUB>0</SUB>>, fillcolor="#e5813910"] ;
3 -> 5 ;
6 [label=<DT_home_winner &le; 0.5<br/>gini = 0.4985<br/>samples = 203<br/>value = [96, 107]<br/>class = y<SUB>1</SUB>>, fillcolor="#399de51a"] ;
2 -> 6 ;
7 [label=<gini = 0.4984<br/>samples = 157<br/>value = [74, 83]<br/>class = y<SUB>1</SUB>>, fillcolor="#399de51c"] ;
6 -> 7 ;
8 [label=<gini = 0.4991<br/>samples = 46<br/>value = [22, 24]<br/>class = y<SUB>1</SUB>>, fillcolor="#399de515"] ;
6 -> 8 ;
9 [label=<DT_home_winner &le; 0.5<br/>gini = 0.4968<br/>samples = 502<br/>value = [231, 271]<br/>class = y<SUB>1</SUB>>, fillcolor="#399de526"] ;
1 -> 9 ;
10 [label=<DT_away_public &le; 0.5<br/>gini = 0.4995<br/>samples = 399<br/>value = [193, 206]<br/>class = y<SUB>1</SUB>>, fillcolor="#399de510"] ;
9 -> 10 ;
11 [label=<gini = 0.4998<br/>samples = 196<br/>value = [96, 100]<br/>class = y<SUB>1</SUB>>, fillcolor="#399de50a"] ;
10 -> 11 ;
12 [label=<gini = 0.499<br/>samples = 203<br/>value = [97, 106]<br/>class = y<SUB>1</SUB>>, fillcolor="#399de516"] ;
10 -> 12 ;
13 [label=<DT_away_public &le; 0.5<br/>gini = 0.4656<br/>samples = 103<br/>value = [38, 65]<br/>class = y<SUB>1</SUB>>, fillcolor="#399de56a"] ;
9 -> 13 ;
14 [label=<gini = 0.4745<br/>samples = 62<br/>value = [24, 38]<br/>class = y<SUB>1</SUB>>, fillcolor="#399de55e"] ;
13 -> 14 ;
15 [label=<gini = 0.4497<br/>samples = 41<br/>value = [14, 27]<br/>class = y<SUB>1</SUB>>, fillcolor="#399de57b"] ;
13 -> 15 ;
16 [label=<DT_home_winner &le; 0.5<br/>gini = 0.4989<br/>samples = 720<br/>value = [377, 343]<br/>class = y<SUB>0</SUB>>, fillcolor="#e5813917"] ;
0 -> 16 [labeldistance=2.5, labelangle=-45, headlabel="False"] ;
17 [label=<DT_away_movement &le; 0.5<br/>gini = 0.4971<br/>samples = 483<br/>value = [260, 223]<br/>class = y<SUB>0</SUB>>, fillcolor="#e5813924"] ;
16 -> 17 ;
18 [label=<DT_away_public &le; 0.5<br/>gini = 0.4837<br/>samples = 205<br/>value = [121, 84]<br/>class = y<SUB>0</SUB>>, fillcolor="#e581394e"] ;
17 -> 18 ;
19 [label=<gini = 0.4877<br/>samples = 102<br/>value = [59, 43]<br/>class = y<SUB>0</SUB>>, fillcolor="#e5813945"] ;
18 -> 19 ;
20 [label=<gini = 0.4792<br/>samples = 103<br/>value = [62, 41]<br/>class = y<SUB>0</SUB>>, fillcolor="#e5813956"] ;
18 -> 20 ;
21 [label=<DT_away_public &le; 0.5<br/>gini = 0.5<br/>samples = 278<br/>value = [139, 139]<br/>class = y<SUB>0</SUB>>, fillcolor="#e5813900"] ;
17 -> 21 ;
22 [label=<gini = 0.4996<br/>samples = 138<br/>value = [71, 67]<br/>class = y<SUB>0</SUB>>, fillcolor="#e581390e"] ;
21 -> 22 ;
23 [label=<gini = 0.4996<br/>samples = 140<br/>value = [68, 72]<br/>class = y<SUB>1</SUB>>, fillcolor="#399de50e"] ;
21 -> 23 ;
24 [label=<DT_away_movement &le; 0.5<br/>gini = 0.4999<br/>samples = 237<br/>value = [117, 120]<br/>class = y<SUB>1</SUB>>, fillcolor="#399de506"] ;
16 -> 24 ;
25 [label=<DT_away_public &le; 0.5<br/>gini = 0.4971<br/>samples = 119<br/>value = [55, 64]<br/>class = y<SUB>1</SUB>>, fillcolor="#399de524"] ;
24 -> 25 ;
26 [label=<gini = 0.4999<br/>samples = 89<br/>value = [45, 44]<br/>class = y<SUB>0</SUB>>, fillcolor="#e5813906"] ;
25 -> 26 ;
27 [label=<gini = 0.4444<br/>samples = 30<br/>value = [10, 20]<br/>class = y<SUB>1</SUB>>, fillcolor="#399de57f"] ;
25 -> 27 ;
28 [label=<DT_away_public &le; 0.5<br/>gini = 0.4987<br/>samples = 118<br/>value = [62, 56]<br/>class = y<SUB>0</SUB>>, fillcolor="#e5813919"] ;
24 -> 28 ;
29 [label=<gini = 0.5<br/>samples = 60<br/>value = [30, 30]<br/>class = y<SUB>0</SUB>>, fillcolor="#e5813900"] ;
28 -> 29 ;
30 [label=<gini = 0.4946<br/>samples = 58<br/>value = [32, 26]<br/>class = y<SUB>0</SUB>>, fillcolor="#e5813930"] ;
28 -> 30 ;
}