digraph Tree {
node [shape=box, style="filled, rounded", color="black", fontname=helvetica] ;
edge [fontname=helvetica] ;
0 [label=<DT_home_ats &le; 0.5<br/>gini = 0.4998<br/>samples = 13795<br/>value = [7031, 6764]<br/>class = y<SUB>0</SUB>>, fillcolor="#e581390a"] ;
1 [label=<DT_away_movement &le; 0.5<br/>gini = 0.5<br/>samples = 8942<br/>value = [4488, 4454]<br/>class = y<SUB>0</SUB>>, fillcolor="#e5813902"] ;
0 -> 1 [labeldistance=2.5, labelangle=45, headlabel="True"] ;
2 [label=<DT_away_reb &le; 0.5<br/>gini = 0.4997<br/>samples = 6224<br/>value = [3182, 3042]<br/>class = y<SUB>0</SUB>>, fillcolor="#e581390b"] ;
1 -> 2 ;
3 [label=<DT_home_public &le; 0.5<br/>gini = 0.5<br/>samples = 4215<br/>value = [2119, 2096]<br/>class = y<SUB>0</SUB>>, fillcolor="#e5813903"] ;
2 -> 3 ;
4 [label=<DT_home_tPAr &le; 0.5<br/>gini = 0.4996<br/>samples = 2751<br/>value = [1416, 1335]<br/>class = y<SUB>0</SUB>>, fillcolor="#e581390f"] ;
3 -> 4 ;
5 [label=<DT_away_ats &le; 0.5<br/>gini = 0.4989<br/>samples = 2100<br/>value = [1099, 1001]<br/>class = y<SUB>0</SUB>>, fillcolor="#e5813917"] ;
4 -> 5 ;
6 [label=<gini = 0.4968<br/>samples = 1340<br/>value = [724, 616]<br/>class = y<SUB>0</SUB>>, fillcolor="#e5813926"] ;
5 -> 6 ;
7 [label=<gini = 0.4999<br/>samples = 760<br/>value = [375, 385]<br/>class = y<SUB>1</SUB>>, fillcolor="#399de507"] ;
5 -> 7 ;
8 [label=<gini = 0.4997<br/>samples = 651<br/>value = [317, 334]<br/>class = y<SUB>1</SUB>>, fillcolor="#399de50d"] ;
4 -> 8 ;
9 [label=<DT_home_reb &le; 0.5<br/>gini = 0.4992<br/>samples = 1464<br/>value = [703, 761]<br/>class = y<SUB>1</SUB>>, fillcolor="#399de513"] ;
3 -> 9 ;
10 [label=<gini = 0.4998<br/>samples = 658<br/>value = [323, 335]<br/>class = y<SUB>1</SUB>>, fillcolor="#399de509"] ;
9 -> 10 ;
11 [label=<gini = 0.4984<br/>samples = 806<br/>value = [380, 426]<br/>class = y<SUB>1</SUB>>, fillcolor="#399de51c"] ;
9 -> 11 ;
12 [label=<DT_home_winner &le; 0.5<br/>gini = 0.4983<br/>samples = 2009<br/>value = [1063, 946]<br/>class = y<SUB>0</SUB>>, fillcolor="#e581391c"] ;
2 -> 12 ;
13 [label=<DT_away_ats &le; 0.5<br/>gini = 0.4967<br/>samples = 1468<br/>value = [794, 674]<br/>class = y<SUB>0</SUB>>, fillcolor="#e5813927"] ;
12 -> 13 ;
14 [label=<gini = 0.4984<br/>samples = 819<br/>value = [433, 386]<br/>class = y<SUB>0</SUB>>, fillcolor="#e581391c"] ;
13 -> 14 ;
15 [label=<gini = 0.4937<br/>samples = 649<br/>value = [361, 288]<br/>class = y<SUB>0</SUB>>, fillcolor="#e5813934"] ;
13 -> 15 ;
16 [label=<gini = 0.5<br/>samples = 541<br/>value = [269, 272]<br/>class = y<SUB>1</SUB>>, fillcolor="#399de503"] ;
12 -> 16 ;
17 [label=<DT_home_tPAr &le; 0.5<br/>gini = 0.4992<br/>samples = 2718<br/>value = [1306, 1412]<br/>class = y<SUB>1</SUB>>, fillcolor="#399de513"] ;
1 -> 17 ;
18 [label=<DT_home_reb &le; 0.5<br/>gini = 0.4981<br/>samples = 1926<br/>value = [904, 1022]<br/>class = y<SUB>1</SUB>>, fillcolor="#399de51d"] ;
17 -> 18 ;
19 [label=<DT_away_public &le; 0.5<br/>gini = 0.4993<br/>samples = 1273<br/>value = [613, 660]<br/>class = y<SUB>1</SUB>>, fillcolor="#399de512"] ;
18 -> 19 ;
20 [label=<gini = 0.4999<br/>samples = 587<br/>value = [298, 289]<br/>class = y<SUB>0</SUB>>, fillcolor="#e5813908"] ;
19 -> 20 ;
21 [label=<gini = 0.4967<br/>samples = 686<br/>value = [315, 371]<br/>class = y<SUB>1</SUB>>, fillcolor="#399de526"] ;
19 -> 21 ;
22 [label=<gini = 0.4941<br/>samples = 653<br/>value = [291, 362]<br/>class = y<SUB>1</SUB>>, fillcolor="#399de532"] ;
18 -> 22 ;
23 [label=<gini = 0.4999<br/>samples = 792<br/>value = [402, 390]<br/>class = y<SUB>0</SUB>>, fillcolor="#e5813908"] ;
17 -> 23 ;
24 [label=<DT_home_winner &le; 0.5<br/>gini = 0.4988<br/>samples = 4853<br/>value = [2543, 2310]<br/>class = y<SUB>0</SUB>>, fillcolor="#e5813917"] ;
0 -> 24 [labeldistance=2.5, labelangle=-45, headlabel="False"] ;
25 [label=<DT_home_tPAr &le; 0.5<br/>gini = 0.5<br/>samples = 2636<br/>value = [1327, 1309]<br/>class = y<SUB>0</SUB>>, fillcolor="#e5813903"] ;
24 -> 25 ;
26 [label=<DT_away_ats &le; 0.5<br/>gini = 0.5<br/>samples = 1974<br/>value = [978, 996]<br/>class = y<SUB>1</SUB>>, fillcolor="#399de505"] ;
25 -> 26 ;
27 [label=<DT_home_public &le; 0.5<br/>gini = 0.4999<br/>samples = 1131<br/>value = [573, 558]<br/>class = y<SUB>0</SUB>>, fillcolor="#e5813907"] ;
26 -> 27 ;
28 [label=<gini = 0.5<br/>samples = 662<br/>value = [333, 329]<br/>class = y<SUB>0</SUB>>, fillcolor="#e5813903"] ;
27 -> 28 ;
29 [label=<gini = 0.4997<br/>samples = 469<br/>value = [240, 229]<br/>class = y<SUB>0</SUB>>, fillcolor="#e581390c"] ;
27 -> 29 ;
30 [label=<gini = 0.4992<br/>samples = 843<br/>value = [405, 438]<br/>class = y<SUB>1</SUB>>, fillcolor="#399de513"] ;
26 -> 30 ;
31 [label=<gini = 0.4985<br/>samples = 662<br/>value = [349, 313]<br/>class = y<SUB>0</SUB>>, fillcolor="#e581391a"] ;
25 -> 31 ;
32 [label=<DT_home_tPAr &le; 0.5<br/>gini = 0.4953<br/>samples = 2217<br/>value = [1216, 1001]<br/>class = y<SUB>0</SUB>>, fillcolor="#e581392d"] ;
24 -> 32 ;
33 [label=<DT_away_ats &le; 0.5<br/>gini = 0.4932<br/>samples = 1556<br/>value = [869, 687]<br/>class = y<SUB>0</SUB>>, fillcolor="#e5813935"] ;
32 -> 33 ;
34 [label=<DT_home_public &le; 0.5<br/>gini = 0.491<br/>samples = 1136<br/>value = [644, 492]<br/>class = y<SUB>0</SUB>>, fillcolor="#e581393c"] ;
33 -> 34 ;
35 [label=<gini = 0.4876<br/>samples = 719<br/>value = [416, 303]<br/>class = y<SUB>0</SUB>>, fillcolor="#e5813945"] ;
34 -> 35 ;
36 [label=<gini = 0.4956<br/>samples = 417<br/>value = [228, 189]<br/>class = y<SUB>0</SUB>>, fillcolor="#e581392c"] ;
34 -> 36 ;
37 [label=<gini = 0.4974<br/>samples = 420<br/>value = [225, 195]<br/>class = y<SUB>0</SUB>>, fillcolor="#e5813922"] ;
33 -> 37 ;
38 [label=<gini = 0.4988<br/>samples = 661<br/>value = [347, 314]<br/>class = y<SUB>0</SUB>>, fillcolor="#e5813918"] ;
32 -> 38 ;
}