digraph Tree {
node [shape=box, style="filled, rounded", color="black", fontname=helvetica] ;
edge [fontname=helvetica] ;
0 [label=<DT_away_movement &le; 0.5<br/>gini = 0.4998<br/>samples = 13882<br/>value = [7094, 6788]<br/>class = y<SUB>0</SUB>>, fillcolor="#e581390b"] ;
1 [label=<DT_away_ats &le; 0.5<br/>gini = 0.4993<br/>samples = 9507<br/>value = [4936, 4571]<br/>class = y<SUB>0</SUB>>, fillcolor="#e5813913"] ;
0 -> 1 [labeldistance=2.5, labelangle=45, headlabel="True"] ;
2 [label=<DT_home_tPAr &le; 0.5<br/>gini = 0.4988<br/>samples = 6125<br/>value = [3213, 2912]<br/>class = y<SUB>0</SUB>>, fillcolor="#e5813918"] ;
1 -> 2 ;
3 [label=<DT_home_reb &le; 0.5<br/>gini = 0.498<br/>samples = 4323<br/>value = [2298, 2025]<br/>class = y<SUB>0</SUB>>, fillcolor="#e581391e"] ;
2 -> 3 ;
4 [label=<DT_away_public &le; 0.5<br/>gini = 0.4995<br/>samples = 2488<br/>value = [1285, 1203]<br/>class = y<SUB>0</SUB>>, fillcolor="#e5813910"] ;
3 -> 4 ;
5 [label=<DT_home_winner &le; 0.5<br/>gini = 0.4986<br/>samples = 1566<br/>value = [825, 741]<br/>class = y<SUB>0</SUB>>, fillcolor="#e581391a"] ;
4 -> 5 ;
6 [label=<gini = 0.4983<br/>samples = 989<br/>value = [523, 466]<br/>class = y<SUB>0</SUB>>, fillcolor="#e581391c"] ;
5 -> 6 ;
7 [label=<gini = 0.4989<br/>samples = 577<br/>value = [302, 275]<br/>class = y<SUB>0</SUB>>, fillcolor="#e5813917"] ;
5 -> 7 ;
8 [label=<gini = 0.5<br/>samples = 922<br/>value = [460, 462]<br/>class = y<SUB>1</SUB>>, fillcolor="#399de501"] ;
4 -> 8 ;
9 [label=<DT_home_public &le; 0.5<br/>gini = 0.4946<br/>samples = 1835<br/>value = [1013, 822]<br/>class = y<SUB>0</SUB>>, fillcolor="#e5813930"] ;
3 -> 9 ;
10 [label=<gini = 0.4924<br/>samples = 1095<br/>value = [615, 480]<br/>class = y<SUB>0</SUB>>, fillcolor="#e5813938"] ;
9 -> 10 ;
11 [label=<gini = 0.4971<br/>samples = 740<br/>value = [398, 342]<br/>class = y<SUB>0</SUB>>, fillcolor="#e5813924"] ;
9 -> 11 ;
12 [label=<DT_away_public &le; 0.5<br/>gini = 0.4999<br/>samples = 1802<br/>value = [915, 887]<br/>class = y<SUB>0</SUB>>, fillcolor="#e5813908"] ;
2 -> 12 ;
13 [label=<DT_home_public &le; 0.5<br/>gini = 0.5<br/>samples = 1223<br/>value = [611, 612]<br/>class = y<SUB>1</SUB>>, fillcolor="#399de500"] ;
12 -> 13 ;
14 [label=<gini = 0.4999<br/>samples = 576<br/>value = [292, 284]<br/>class = y<SUB>0</SUB>>, fillcolor="#e5813907"] ;
13 -> 14 ;
15 [label=<gini = 0.4999<br/>samples = 647<br/>value = [319, 328]<br/>class = y<SUB>1</SUB>>, fillcolor="#399de507"] ;
13 -> 15 ;
16 [label=<gini = 0.4987<br/>samples = 579<br/>value = [304, 275]<br/>class = y<SUB>0</SUB>>, fillcolor="#e5813918"] ;
12 -> 16 ;
17 [label=<DT_home_winner &le; 0.5<br/>gini = 0.4998<br/>samples = 3382<br/>value = [1723, 1659]<br/>class = y<SUB>0</SUB>>, fillcolor="#e5813909"] ;
1 -> 17 ;
18 [label=<DT_home_reb &le; 0.5<br/>gini = 0.5<br/>samples = 2536<br/>value = [1272, 1264]<br/>class = y<SUB>0</SUB>>, fillcolor="#e5813902"] ;
17 -> 18 ;
19 [label=<DT_away_public &le; 0.5<br/>gini = 0.4998<br/>samples = 1717<br/>value = [876, 841]<br/>class = y<SUB>0</SUB>>, fillcolor="#e581390a"] ;
18 -> 19 ;
20 [label=<gini = 0.4999<br/>samples = 995<br/>value = [503, 492]<br/>class = y<SUB>0</SUB>>, fillcolor="#e5813906"] ;
19 -> 20 ;
21 [label=<gini = 0.4994<br/>samples = 722<br/>value = [373, 349]<br/>class = y<SUB>0</SUB>>, fillcolor="#e5813910"] ;
19 -> 21 ;
22 [label=<gini = 0.4995<br/>samples = 819<br/>value = [396, 423]<br/>class = y<SUB>1</SUB>>, fillcolor="#399de510"] ;
18 -> 22 ;
23 [label=<gini = 0.4978<br/>samples = 846<br/>value = [451, 395]<br/>class = y<SUB>0</SUB>>, fillcolor="#e5813920"] ;
17 -> 23 ;
24 [label=<DT_home_ats &le; 0.5<br/>gini = 0.4999<br/>samples = 4375<br/>value = [2158, 2217]<br/>class = y<SUB>1</SUB>>, fillcolor="#399de507"] ;
0 -> 24 [labeldistance=2.5, labelangle=-45, headlabel="False"] ;
25 [label=<DT_home_tPAr &le; 0.5<br/>gini = 0.4986<br/>samples = 2734<br/>value = [1294, 1440]<br/>class = y<SUB>1</SUB>>, fillcolor="#399de51a"] ;
24 -> 25 ;
26 [label=<DT_home_reb &le; 0.5<br/>gini = 0.4967<br/>samples = 1960<br/>value = [900, 1060]<br/>class = y<SUB>1</SUB>>, fillcolor="#399de526"] ;
25 -> 26 ;
27 [label=<DT_home_winner &le; 0.5<br/>gini = 0.498<br/>samples = 1253<br/>value = [587, 666]<br/>class = y<SUB>1</SUB>>, fillcolor="#399de51e"] ;
26 -> 27 ;
28 [label=<gini = 0.4972<br/>samples = 616<br/>value = [285, 331]<br/>class = y<SUB>1</SUB>>, fillcolor="#399de523"] ;
27 -> 28 ;
29 [label=<gini = 0.4987<br/>samples = 637<br/>value = [302, 335]<br/>class = y<SUB>1</SUB>>, fillcolor="#399de519"] ;
27 -> 29 ;
30 [label=<gini = 0.4934<br/>samples = 707<br/>value = [313, 394]<br/>class = y<SUB>1</SUB>>, fillcolor="#399de534"] ;
26 -> 30 ;
31 [label=<gini = 0.4998<br/>samples = 774<br/>value = [394, 380]<br/>class = y<SUB>0</SUB>>, fillcolor="#e5813909"] ;
25 -> 31 ;
32 [label=<DT_home_reb &le; 0.5<br/>gini = 0.4986<br/>samples = 1641<br/>value = [864, 777]<br/>class = y<SUB>0</SUB>>, fillcolor="#e581391a"] ;
24 -> 32 ;
33 [label=<gini = 0.4973<br/>samples = 915<br/>value = [491, 424]<br/>class = y<SUB>0</SUB>>, fillcolor="#e5813923"] ;
32 -> 33 ;
34 [label=<gini = 0.4996<br/>samples = 726<br/>value = [373, 353]<br/>class = y<SUB>0</SUB>>, fillcolor="#e581390e"] ;
32 -> 34 ;
}