digraph Tree {
node [shape=box, style="filled, rounded", color="black", fontname=helvetica] ;
edge [fontname=helvetica] ;
0 [label=<DT_away_ats &le; 0.5<br/>gini = 0.4999<br/>samples = 13697<br/>value = [6941, 6756]<br/>class = y<SUB>0</SUB>>, fillcolor="#e5813907"] ;
1 [label=<DT_home_ats &le; 0.5<br/>gini = 0.4996<br/>samples = 9035<br/>value = [4652, 4383]<br/>class = y<SUB>0</SUB>>, fillcolor="#e581390f"] ;
0 -> 1 [labeldistance=2.5, labelangle=45, headlabel="True"] ;
2 [label=<DT_away_movement &le; 0.5<br/>gini = 0.4999<br/>samples = 5915<br/>value = [2996, 2919]<br/>class = y<SUB>0</SUB>>, fillcolor="#e5813907"] ;
1 -> 2 ;
3 [label=<DT_home_tPAr &le; 0.5<br/>gini = 0.4995<br/>samples = 3991<br/>value = [2057, 1934]<br/>class = y<SUB>0</SUB>>, fillcolor="#e581390f"] ;
2 -> 3 ;
4 [label=<DT_home_reb &le; 0.5<br/>gini = 0.4987<br/>samples = 2806<br/>value = [1474, 1332]<br/>class = y<SUB>0</SUB>>, fillcolor="#e5813919"] ;
3 -> 4 ;
5 [label=<DT_home_winner &le; 0.5<br/>gini = 0.4996<br/>samples = 1664<br/>value = [856, 808]<br/>class = y<SUB>0</SUB>>, fillcolor="#e581390e"] ;
4 -> 5 ;
6 [label=<gini = 0.5<br/>samples = 1084<br/>value = [547, 537]<br/>class = y<SUB>0</SUB>>, fillcolor="#e5813905"] ;
5 -> 6 ;
7 [label=<gini = 0.4979<br/>samples = 580<br/>value = [309, 271]<br/>class = y<SUB>0</SUB>>, fillcolor="#e581391f"] ;
5 -> 7 ;
8 [label=<DT_home_public &le; 0.5<br/>gini = 0.4966<br/>samples = 1142<br/>value = [618, 524]<br/>class = y<SUB>0</SUB>>, fillcolor="#e5813927"] ;
4 -> 8 ;
9 [label=<gini = 0.4907<br/>samples = 653<br/>value = [371, 282]<br/>class = y<SUB>0</SUB>>, fillcolor="#e581393d"] ;
8 -> 9 ;
10 [label=<gini = 0.4999<br/>samples = 489<br/>value = [247, 242]<br/>class = y<SUB>0</SUB>>, fillcolor="#e5813905"] ;
8 -> 10 ;
11 [label=<DT_away_reb &le; 0.5<br/>gini = 0.4999<br/>samples = 1185<br/>value = [583, 602]<br/>class = y<SUB>1</SUB>>, fillcolor="#399de508"] ;
3 -> 11 ;
12 [label=<gini = 0.4977<br/>samples = 749<br/>value = [349, 400]<br/>class = y<SUB>1</SUB>>, fillcolor="#399de521"] ;
11 -> 12 ;
13 [label=<gini = 0.4973<br/>samples = 436<br/>value = [234, 202]<br/>class = y<SUB>0</SUB>>, fillcolor="#e5813923"] ;
11 -> 13 ;
14 [label=<DT_home_tPAr &le; 0.5<br/>gini = 0.4997<br/>samples = 1924<br/>value = [939, 985]<br/>class = y<SUB>1</SUB>>, fillcolor="#399de50c"] ;
2 -> 14 ;
15 [label=<DT_home_reb &le; 0.5<br/>gini = 0.4982<br/>samples = 1346<br/>value = [633, 713]<br/>class = y<SUB>1</SUB>>, fillcolor="#399de51d"] ;
14 -> 15 ;
16 [label=<DT_away_public &le; 0.5<br/>gini = 0.4992<br/>samples = 841<br/>value = [404, 437]<br/>class = y<SUB>1</SUB>>, fillcolor="#399de513"] ;
15 -> 16 ;
17 [label=<gini = 0.4997<br/>samples = 401<br/>value = [196, 205]<br/>class = y<SUB>1</SUB>>, fillcolor="#399de50b"] ;
16 -> 17 ;
18 [label=<gini = 0.4985<br/>samples = 440<br/>value = [208, 232]<br/>class = y<SUB>1</SUB>>, fillcolor="#399de51a"] ;
16 -> 18 ;
19 [label=<gini = 0.4957<br/>samples = 505<br/>value = [229, 276]<br/>class = y<SUB>1</SUB>>, fillcolor="#399de52b"] ;
15 -> 19 ;
20 [label=<gini = 0.4983<br/>samples = 578<br/>value = [306, 272]<br/>class = y<SUB>0</SUB>>, fillcolor="#e581391c"] ;
14 -> 20 ;
21 [label=<DT_home_public &le; 0.5<br/>gini = 0.4981<br/>samples = 3120<br/>value = [1656, 1464]<br/>class = y<SUB>0</SUB>>, fillcolor="#e581391e"] ;
1 -> 21 ;
22 [label=<DT_home_tPAr &le; 0.5<br/>gini = 0.4962<br/>samples = 1829<br/>value = [994, 835]<br/>class = y<SUB>0</SUB>>, fillcolor="#e5813929"] ;
21 -> 22 ;
23 [label=<DT_home_winner &le; 0.5<br/>gini = 0.4976<br/>samples = 1316<br/>value = [704, 612]<br/>class = y<SUB>0</SUB>>, fillcolor="#e5813921"] ;
22 -> 23 ;
24 [label=<gini = 0.4996<br/>samples = 676<br/>value = [347, 329]<br/>class = y<SUB>0</SUB>>, fillcolor="#e581390d"] ;
23 -> 24 ;
25 [label=<gini = 0.4933<br/>samples = 640<br/>value = [357, 283]<br/>class = y<SUB>0</SUB>>, fillcolor="#e5813935"] ;
23 -> 25 ;
26 [label=<gini = 0.4915<br/>samples = 513<br/>value = [290, 223]<br/>class = y<SUB>0</SUB>>, fillcolor="#e581393b"] ;
22 -> 26 ;
27 [label=<DT_home_tPAr &le; 0.5<br/>gini = 0.4997<br/>samples = 1291<br/>value = [662, 629]<br/>class = y<SUB>0</SUB>>, fillcolor="#e581390d"] ;
21 -> 27 ;
28 [label=<DT_home_winner &le; 0.5<br/>gini = 0.4976<br/>samples = 904<br/>value = [483, 421]<br/>class = y<SUB>0</SUB>>, fillcolor="#e5813921"] ;
27 -> 28 ;
29 [label=<gini = 0.4984<br/>samples = 496<br/>value = [262, 234]<br/>class = y<SUB>0</SUB>>, fillcolor="#e581391b"] ;
28 -> 29 ;
30 [label=<gini = 0.4965<br/>samples = 408<br/>value = [221, 187]<br/>class = y<SUB>0</SUB>>, fillcolor="#e5813927"] ;
28 -> 30 ;
31 [label=<gini = 0.4972<br/>samples = 387<br/>value = [179, 208]<br/>class = y<SUB>1</SUB>>, fillcolor="#399de524"] ;
27 -> 31 ;
32 [label=<DT_home_reb &le; 0.5<br/>gini = 0.4998<br/>samples = 4662<br/>value = [2289, 2373]<br/>class = y<SUB>1</SUB>>, fillcolor="#399de509"] ;
0 -> 32 [labeldistance=2.5, labelangle=-45, headlabel="False"] ;
33 [label=<DT_home_tPAr &le; 0.5<br/>gini = 0.5<br/>samples = 3185<br/>value = [1593, 1592]<br/>class = y<SUB>0</SUB>>, fillcolor="#e5813900"] ;
32 -> 33 ;
34 [label=<DT_home_public &le; 0.5<br/>gini = 0.4999<br/>samples = 2155<br/>value = [1061, 1094]<br/>class = y<SUB>1</SUB>>, fillcolor="#399de508"] ;
33 -> 34 ;
35 [label=<DT_home_winner &le; 0.5<br/>gini = 0.4995<br/>samples = 1613<br/>value = [782, 831]<br/>class = y<SUB>1</SUB>>, fillcolor="#399de50f"] ;
34 -> 35 ;
36 [label=<DT_away_public &le; 0.5<br/>gini = 0.4983<br/>samples = 1004<br/>value = [473, 531]<br/>class = y<SUB>1</SUB>>, fillcolor="#399de51c"] ;
35 -> 36 ;
37 [label=<gini = 0.4993<br/>samples = 411<br/>value = [198, 213]<br/>class = y<SUB>1</SUB>>, fillcolor="#399de512"] ;
36 -> 37 ;
38 [label=<gini = 0.4974<br/>samples = 593<br/>value = [275, 318]<br/>class = y<SUB>1</SUB>>, fillcolor="#399de522"] ;
36 -> 38 ;
39 [label=<gini = 0.4999<br/>samples = 609<br/>value = [309, 300]<br/>class = y<SUB>0</SUB>>, fillcolor="#e5813907"] ;
35 -> 39 ;
40 [label=<gini = 0.4996<br/>samples = 542<br/>value = [279, 263]<br/>class = y<SUB>0</SUB>>, fillcolor="#e581390f"] ;
34 -> 40 ;
41 [label=<DT_away_reb &le; 0.5<br/>gini = 0.4995<br/>samples = 1030<br/>value = [532, 498]<br/>class = y<SUB>0</SUB>>, fillcolor="#e5813910"] ;
33 -> 41 ;
42 [label=<gini = 0.4996<br/>samples = 408<br/>value = [198, 210]<br/>class = y<SUB>1</SUB>>, fillcolor="#399de50f"] ;
41 -> 42 ;
43 [label=<gini = 0.4973<br/>samples = 622<br/>value = [334, 288]<br/>class = y<SUB>0</SUB>>, fillcolor="#e5813923"] ;
41 -> 43 ;
44 [label=<DT_home_public &le; 0.5<br/>gini = 0.4983<br/>samples = 1477<br/>value = [696, 781]<br/>class = y<SUB>1</SUB>>, fillcolor="#399de51c"] ;
32 -> 44 ;
45 [label=<DT_home_ats &le; 0.5<br/>gini = 0.4998<br/>samples = 1010<br/>value = [496, 514]<br/>class = y<SUB>1</SUB>>, fillcolor="#399de509"] ;
44 -> 45 ;
46 [label=<gini = 0.4997<br/>samples = 607<br/>value = [296, 311]<br/>class = y<SUB>1</SUB>>, fillcolor="#399de50c"] ;
45 -> 46 ;
47 [label=<gini = 0.5<br/>samples = 403<br/>value = [200, 203]<br/>class = y<SUB>1</SUB>>, fillcolor="#399de504"] ;
45 -> 47 ;
48 [label=<gini = 0.4897<br/>samples = 467<br/>value = [200, 267]<br/>class = y<SUB>1</SUB>>, fillcolor="#399de540"] ;
44 -> 48 ;
}