digraph Tree {
node [shape=box, style="filled, rounded", color="black", fontname=helvetica] ;
edge [fontname=helvetica] ;
0 [label=<DT_home_ats &le; 0.5<br/>gini = 0.4998<br/>samples = 2238<br/>value = [1095, 1143]<br/>class = y<SUB>1</SUB>>, fillcolor="#399de50b"] ;
1 [label=<DT_home_public &le; 0.5<br/>gini = 0.4981<br/>samples = 1289<br/>value = [605, 684]<br/>class = y<SUB>1</SUB>>, fillcolor="#399de51d"] ;
0 -> 1 [labeldistance=2.5, labelangle=45, headlabel="True"] ;
2 [label=<DT_home_tPAr &le; 0.5<br/>gini = 0.4999<br/>samples = 655<br/>value = [322, 333]<br/>class = y<SUB>1</SUB>>, fillcolor="#399de508"] ;
1 -> 2 ;
3 [label=<DT_away_ats &le; 0.5<br/>gini = 0.4998<br/>samples = 413<br/>value = [211, 202]<br/>class = y<SUB>0</SUB>>, fillcolor="#e581390b"] ;
2 -> 3 ;
4 [label=<gini = 0.4979<br/>samples = 248<br/>value = [132, 116]<br/>class = y<SUB>0</SUB>>, fillcolor="#e581391f"] ;
3 -> 4 ;
5 [label=<gini = 0.4991<br/>samples = 165<br/>value = [79, 86]<br/>class = y<SUB>1</SUB>>, fillcolor="#399de515"] ;
3 -> 5 ;
6 [label=<gini = 0.4966<br/>samples = 242<br/>value = [111, 131]<br/>class = y<SUB>1</SUB>>, fillcolor="#399de527"] ;
2 -> 6 ;
7 [label=<DT_away_movement &le; 0.5<br/>gini = 0.4942<br/>samples = 634<br/>value = [283, 351]<br/>class = y<SUB>1</SUB>>, fillcolor="#399de531"] ;
1 -> 7 ;
8 [label=<DT_home_tPAr &le; 0.5<br/>gini = 0.4929<br/>samples = 463<br/>value = [204, 259]<br/>class = y<SUB>1</SUB>>, fillcolor="#399de536"] ;
7 -> 8 ;
9 [label=<gini = 0.4887<br/>samples = 233<br/>value = [99, 134]<br/>class = y<SUB>1</SUB>>, fillcolor="#399de543"] ;
8 -> 9 ;
10 [label=<gini = 0.4962<br/>samples = 230<br/>value = [105, 125]<br/>class = y<SUB>1</SUB>>, fillcolor="#399de529"] ;
8 -> 10 ;
11 [label=<gini = 0.4971<br/>samples = 171<br/>value = [79, 92]<br/>class = y<SUB>1</SUB>>, fillcolor="#399de524"] ;
7 -> 11 ;
12 [label=<DT_away_public &le; 0.5<br/>gini = 0.4995<br/>samples = 949<br/>value = [490, 459]<br/>class = y<SUB>0</SUB>>, fillcolor="#e5813910"] ;
0 -> 12 [labeldistance=2.5, labelangle=-45, headlabel="False"] ;
13 [label=<DT_away_movement &le; 0.5<br/>gini = 0.5<br/>samples = 790<br/>value = [397, 393]<br/>class = y<SUB>0</SUB>>, fillcolor="#e5813903"] ;
12 -> 13 ;
14 [label=<DT_home_tPAr &le; 0.5<br/>gini = 0.4997<br/>samples = 598<br/>value = [292, 306]<br/>class = y<SUB>1</SUB>>, fillcolor="#399de50c"] ;
13 -> 14 ;
15 [label=<gini = 0.4999<br/>samples = 303<br/>value = [154, 149]<br/>class = y<SUB>0</SUB>>, fillcolor="#e5813908"] ;
14 -> 15 ;
16 [label=<gini = 0.4979<br/>samples = 295<br/>value = [138, 157]<br/>class = y<SUB>1</SUB>>, fillcolor="#399de51f"] ;
14 -> 16 ;
17 [label=<gini = 0.4956<br/>samples = 192<br/>value = [105, 87]<br/>class = y<SUB>0</SUB>>, fillcolor="#e581392c"] ;
13 -> 17 ;
18 [label=<gini = 0.4856<br/>samples = 159<br/>value = [93, 66]<br/>class = y<SUB>0</SUB>>, fillcolor="#e581394a"] ;
12 -> 18 ;
}