digraph Tree {
node [shape=box, style="filled, rounded", color="black", fontname=helvetica] ;
edge [fontname=helvetica] ;
0 [label=<DT_home_ats &le; 0.5<br/>gini = 0.4998<br/>samples = 14434<br/>value = [7349, 7085]<br/>class = y<SUB>0</SUB>>, fillcolor="#e5813909"] ;
1 [label=<DT_away_movement &le; 0.5<br/>gini = 0.5<br/>samples = 9401<br/>value = [4717, 4684]<br/>class = y<SUB>0</SUB>>, fillcolor="#e5813902"] ;
0 -> 1 [labeldistance=2.5, labelangle=45, headlabel="True"] ;
2 [label=<DT_home_public &le; 0.5<br/>gini = 0.4997<br/>samples = 6529<br/>value = [3343, 3186]<br/>class = y<SUB>0</SUB>>, fillcolor="#e581390c"] ;
1 -> 2 ;
3 [label=<DT_away_public &le; 0.5<br/>gini = 0.4993<br/>samples = 4469<br/>value = [2321, 2148]<br/>class = y<SUB>0</SUB>>, fillcolor="#e5813913"] ;
2 -> 3 ;
4 [label=<DT_home_winner &le; 0.5<br/>gini = 0.4979<br/>samples = 2046<br/>value = [1090, 956]<br/>class = y<SUB>0</SUB>>, fillcolor="#e581391f"] ;
3 -> 4 ;
5 [label=<DT_away_ats &le; 0.5<br/>gini = 0.4962<br/>samples = 1450<br/>value = [788, 662]<br/>class = y<SUB>0</SUB>>, fillcolor="#e5813929"] ;
4 -> 5 ;
6 [label=<gini = 0.4957<br/>samples = 888<br/>value = [485, 403]<br/>class = y<SUB>0</SUB>>, fillcolor="#e581392b"] ;
5 -> 6 ;
7 [label=<gini = 0.4969<br/>samples = 562<br/>value = [303, 259]<br/>class = y<SUB>0</SUB>>, fillcolor="#e5813925"] ;
5 -> 7 ;
8 [label=<gini = 0.4999<br/>samples = 596<br/>value = [302, 294]<br/>class = y<SUB>0</SUB>>, fillcolor="#e5813907"] ;
4 -> 8 ;
9 [label=<DT_away_ats &le; 0.5<br/>gini = 0.4999<br/>samples = 2423<br/>value = [1231, 1192]<br/>class = y<SUB>0</SUB>>, fillcolor="#e5813908"] ;
3 -> 9 ;
10 [label=<DT_home_reb &le; 0.5<br/>gini = 0.4997<br/>samples = 1424<br/>value = [729, 695]<br/>class = y<SUB>0</SUB>>, fillcolor="#e581390c"] ;
9 -> 10 ;
11 [label=<gini = 0.5<br/>samples = 995<br/>value = [495, 500]<br/>class = y<SUB>1</SUB>>, fillcolor="#399de503"] ;
10 -> 11 ;
12 [label=<gini = 0.4959<br/>samples = 429<br/>value = [234, 195]<br/>class = y<SUB>0</SUB>>, fillcolor="#e581392a"] ;
10 -> 12 ;
13 [label=<gini = 0.5<br/>samples = 999<br/>value = [502, 497]<br/>class = y<SUB>0</SUB>>, fillcolor="#e5813903"] ;
9 -> 13 ;
14 [label=<DT_home_reb &le; 0.5<br/>gini = 0.5<br/>samples = 2060<br/>value = [1022, 1038]<br/>class = y<SUB>1</SUB>>, fillcolor="#399de504"] ;
2 -> 14 ;
15 [label=<gini = 0.4996<br/>samples = 1215<br/>value = [624, 591]<br/>class = y<SUB>0</SUB>>, fillcolor="#e581390d"] ;
14 -> 15 ;
16 [label=<gini = 0.4983<br/>samples = 845<br/>value = [398, 447]<br/>class = y<SUB>1</SUB>>, fillcolor="#399de51c"] ;
14 -> 16 ;
17 [label=<DT_home_tPAr &le; 0.5<br/>gini = 0.4991<br/>samples = 2872<br/>value = [1374, 1498]<br/>class = y<SUB>1</SUB>>, fillcolor="#399de515"] ;
1 -> 17 ;
18 [label=<DT_home_winner &le; 0.5<br/>gini = 0.4979<br/>samples = 2028<br/>value = [948, 1080]<br/>class = y<SUB>1</SUB>>, fillcolor="#399de51f"] ;
17 -> 18 ;
19 [label=<gini = 0.4994<br/>samples = 954<br/>value = [461, 493]<br/>class = y<SUB>1</SUB>>, fillcolor="#399de511"] ;
18 -> 19 ;
20 [label=<DT_away_public &le; 0.5<br/>gini = 0.4957<br/>samples = 1074<br/>value = [487, 587]<br/>class = y<SUB>1</SUB>>, fillcolor="#399de52b"] ;
18 -> 20 ;
21 [label=<gini = 0.4993<br/>samples = 507<br/>value = [244, 263]<br/>class = y<SUB>1</SUB>>, fillcolor="#399de512"] ;
20 -> 21 ;
22 [label=<gini = 0.4898<br/>samples = 567<br/>value = [243, 324]<br/>class = y<SUB>1</SUB>>, fillcolor="#399de540"] ;
20 -> 22 ;
23 [label=<gini = 0.5<br/>samples = 844<br/>value = [426, 418]<br/>class = y<SUB>0</SUB>>, fillcolor="#e5813905"] ;
17 -> 23 ;
24 [label=<DT_home_winner &le; 0.5<br/>gini = 0.4989<br/>samples = 5033<br/>value = [2632, 2401]<br/>class = y<SUB>0</SUB>>, fillcolor="#e5813916"] ;
0 -> 24 [labeldistance=2.5, labelangle=-45, headlabel="False"] ;
25 [label=<DT_away_ats &le; 0.5<br/>gini = 0.4996<br/>samples = 2671<br/>value = [1371, 1300]<br/>class = y<SUB>0</SUB>>, fillcolor="#e581390d"] ;
24 -> 25 ;
26 [label=<DT_home_reb &le; 0.5<br/>gini = 0.4986<br/>samples = 1545<br/>value = [813, 732]<br/>class = y<SUB>0</SUB>>, fillcolor="#e5813919"] ;
25 -> 26 ;
27 [label=<gini = 0.4995<br/>samples = 720<br/>value = [371, 349]<br/>class = y<SUB>0</SUB>>, fillcolor="#e581390f"] ;
26 -> 27 ;
28 [label=<gini = 0.4974<br/>samples = 825<br/>value = [442, 383]<br/>class = y<SUB>0</SUB>>, fillcolor="#e5813922"] ;
26 -> 28 ;
29 [label=<DT_home_reb &le; 0.5<br/>gini = 0.5<br/>samples = 1126<br/>value = [558, 568]<br/>class = y<SUB>1</SUB>>, fillcolor="#399de504"] ;
25 -> 29 ;
30 [label=<gini = 0.4999<br/>samples = 642<br/>value = [325, 317]<br/>class = y<SUB>0</SUB>>, fillcolor="#e5813906"] ;
29 -> 30 ;
31 [label=<gini = 0.4993<br/>samples = 484<br/>value = [233, 251]<br/>class = y<SUB>1</SUB>>, fillcolor="#399de512"] ;
29 -> 31 ;
32 [label=<DT_home_tPAr &le; 0.5<br/>gini = 0.4977<br/>samples = 2362<br/>value = [1261, 1101]<br/>class = y<SUB>0</SUB>>, fillcolor="#e5813920"] ;
24 -> 32 ;
33 [label=<DT_away_movement &le; 0.5<br/>gini = 0.4965<br/>samples = 1679<br/>value = [910, 769]<br/>class = y<SUB>0</SUB>>, fillcolor="#e5813928"] ;
32 -> 33 ;
34 [label=<gini = 0.4981<br/>samples = 917<br/>value = [487, 430]<br/>class = y<SUB>0</SUB>>, fillcolor="#e581391e"] ;
33 -> 34 ;
35 [label=<gini = 0.4939<br/>samples = 762<br/>value = [423, 339]<br/>class = y<SUB>0</SUB>>, fillcolor="#e5813933"] ;
33 -> 35 ;
36 [label=<gini = 0.4996<br/>samples = 683<br/>value = [351, 332]<br/>class = y<SUB>0</SUB>>, fillcolor="#e581390e"] ;
32 -> 36 ;
}