digraph Tree {
node [shape=box, style="filled, rounded", color="black", fontname=helvetica] ;
edge [fontname=helvetica] ;
0 [label=<DT_home_ats &le; 0.5<br/>gini = 0.4997<br/>samples = 1848<br/>value = [901, 947]<br/>class = y<SUB>1</SUB>>, fillcolor="#399de50c"] ;
1 [label=<DT_home_public &le; 0.5<br/>gini = 0.4973<br/>samples = 1054<br/>value = [488, 566]<br/>class = y<SUB>1</SUB>>, fillcolor="#399de523"] ;
0 -> 1 [labeldistance=2.5, labelangle=45, headlabel="True"] ;
2 [label=<DT_home_tPAr &le; 0.5<br/>gini = 0.4996<br/>samples = 534<br/>value = [259, 275]<br/>class = y<SUB>1</SUB>>, fillcolor="#399de50f"] ;
1 -> 2 ;
3 [label=<gini = 0.4998<br/>samples = 337<br/>value = [172, 165]<br/>class = y<SUB>0</SUB>>, fillcolor="#e581390a"] ;
2 -> 3 ;
4 [label=<gini = 0.4932<br/>samples = 197<br/>value = [87, 110]<br/>class = y<SUB>1</SUB>>, fillcolor="#399de535"] ;
2 -> 4 ;
5 [label=<DT_away_movement &le; 0.5<br/>gini = 0.4929<br/>samples = 520<br/>value = [229, 291]<br/>class = y<SUB>1</SUB>>, fillcolor="#399de536"] ;
1 -> 5 ;
6 [label=<DT_home_tPAr &le; 0.5<br/>gini = 0.4913<br/>samples = 357<br/>value = [155, 202]<br/>class = y<SUB>1</SUB>>, fillcolor="#399de53b"] ;
5 -> 6 ;
7 [label=<gini = 0.4879<br/>samples = 180<br/>value = [76, 104]<br/>class = y<SUB>1</SUB>>, fillcolor="#399de545"] ;
6 -> 7 ;
8 [label=<gini = 0.4942<br/>samples = 177<br/>value = [79, 98]<br/>class = y<SUB>1</SUB>>, fillcolor="#399de531"] ;
6 -> 8 ;
9 [label=<gini = 0.4958<br/>samples = 163<br/>value = [74, 89]<br/>class = y<SUB>1</SUB>>, fillcolor="#399de52b"] ;
5 -> 9 ;
10 [label=<DT_away_movement &le; 0.5<br/>gini = 0.4992<br/>samples = 794<br/>value = [413, 381]<br/>class = y<SUB>0</SUB>>, fillcolor="#e5813914"] ;
0 -> 10 [labeldistance=2.5, labelangle=-45, headlabel="False"] ;
11 [label=<DT_home_tPAr &le; 0.5<br/>gini = 0.4999<br/>samples = 565<br/>value = [287, 278]<br/>class = y<SUB>0</SUB>>, fillcolor="#e5813908"] ;
10 -> 11 ;
12 [label=<gini = 0.4986<br/>samples = 302<br/>value = [159, 143]<br/>class = y<SUB>0</SUB>>, fillcolor="#e581391a"] ;
11 -> 12 ;
13 [label=<gini = 0.4996<br/>samples = 263<br/>value = [128, 135]<br/>class = y<SUB>1</SUB>>, fillcolor="#399de50d"] ;
11 -> 13 ;
14 [label=<gini = 0.495<br/>samples = 229<br/>value = [126, 103]<br/>class = y<SUB>0</SUB>>, fillcolor="#e581392f"] ;
10 -> 14 ;
}