digraph Tree {
node [shape=box, style="filled, rounded", color="black", fontname=helvetica] ;
edge [fontname=helvetica] ;
0 [label=<DT_home_ats &le; 0.5<br/>gini = 0.4996<br/>samples = 1851<br/>value = [898, 953]<br/>class = y<SUB>1</SUB>>, fillcolor="#399de50f"] ;
1 [label=<DT_home_public &le; 0.5<br/>gini = 0.4972<br/>samples = 1061<br/>value = [491, 570]<br/>class = y<SUB>1</SUB>>, fillcolor="#399de523"] ;
0 -> 1 [labeldistance=2.5, labelangle=45, headlabel="True"] ;
2 [label=<DT_home_tPAr &le; 0.5<br/>gini = 0.4994<br/>samples = 534<br/>value = [258, 276]<br/>class = y<SUB>1</SUB>>, fillcolor="#399de511"] ;
1 -> 2 ;
3 [label=<DT_home_winner &le; 0.5<br/>gini = 0.5<br/>samples = 341<br/>value = [172, 169]<br/>class = y<SUB>0</SUB>>, fillcolor="#e5813904"] ;
2 -> 3 ;
4 [label=<gini = 0.4979<br/>samples = 186<br/>value = [99, 87]<br/>class = y<SUB>0</SUB>>, fillcolor="#e581391f"] ;
3 -> 4 ;
5 [label=<gini = 0.4983<br/>samples = 155<br/>value = [73, 82]<br/>class = y<SUB>1</SUB>>, fillcolor="#399de51c"] ;
3 -> 5 ;
6 [label=<gini = 0.4941<br/>samples = 193<br/>value = [86, 107]<br/>class = y<SUB>1</SUB>>, fillcolor="#399de532"] ;
2 -> 6 ;
7 [label=<DT_home_winner &le; 0.5<br/>gini = 0.4933<br/>samples = 527<br/>value = [233, 294]<br/>class = y<SUB>1</SUB>>, fillcolor="#399de535"] ;
1 -> 7 ;
8 [label=<DT_home_tPAr &le; 0.5<br/>gini = 0.4942<br/>samples = 370<br/>value = [165, 205]<br/>class = y<SUB>1</SUB>>, fillcolor="#399de532"] ;
7 -> 8 ;
9 [label=<gini = 0.4894<br/>samples = 192<br/>value = [82, 110]<br/>class = y<SUB>1</SUB>>, fillcolor="#399de541"] ;
8 -> 9 ;
10 [label=<gini = 0.4977<br/>samples = 178<br/>value = [83, 95]<br/>class = y<SUB>1</SUB>>, fillcolor="#399de520"] ;
8 -> 10 ;
11 [label=<gini = 0.4911<br/>samples = 157<br/>value = [68, 89]<br/>class = y<SUB>1</SUB>>, fillcolor="#399de53c"] ;
7 -> 11 ;
12 [label=<DT_away_movement &le; 0.5<br/>gini = 0.4995<br/>samples = 790<br/>value = [407, 383]<br/>class = y<SUB>0</SUB>>, fillcolor="#e581390f"] ;
0 -> 12 [labeldistance=2.5, labelangle=-45, headlabel="False"] ;
13 [label=<DT_home_tPAr &le; 0.5<br/>gini = 0.4999<br/>samples = 592<br/>value = [300, 292]<br/>class = y<SUB>0</SUB>>, fillcolor="#e5813907"] ;
12 -> 13 ;
14 [label=<gini = 0.4994<br/>samples = 307<br/>value = [159, 148]<br/>class = y<SUB>0</SUB>>, fillcolor="#e5813912"] ;
13 -> 14 ;
15 [label=<gini = 0.4999<br/>samples = 285<br/>value = [141, 144]<br/>class = y<SUB>1</SUB>>, fillcolor="#399de505"] ;
13 -> 15 ;
16 [label=<gini = 0.4967<br/>samples = 198<br/>value = [107, 91]<br/>class = y<SUB>0</SUB>>, fillcolor="#e5813926"] ;
12 -> 16 ;
}