digraph Tree {
node [shape=box, style="filled, rounded", color="black", fontname=helvetica] ;
edge [fontname=helvetica] ;
0 [label=<DT_home_public &le; 0.5<br/>gini = 0.4998<br/>samples = 1895<br/>value = [927, 968]<br/>class = y<SUB>1</SUB>>, fillcolor="#399de50b"] ;
1 [label=<DT_away_movement &le; 0.5<br/>gini = 0.4977<br/>samples = 1088<br/>value = [507, 581]<br/>class = y<SUB>1</SUB>>, fillcolor="#399de520"] ;
0 -> 1 [labeldistance=2.5, labelangle=45, headlabel="True"] ;
2 [label=<DT_away_public &le; 0.5<br/>gini = 0.4999<br/>samples = 550<br/>value = [271, 279]<br/>class = y<SUB>1</SUB>>, fillcolor="#399de507"] ;
1 -> 2 ;
3 [label=<DT_home_winner &le; 0.5<br/>gini = 0.4994<br/>samples = 344<br/>value = [178, 166]<br/>class = y<SUB>0</SUB>>, fillcolor="#e5813911"] ;
2 -> 3 ;
4 [label=<gini = 0.4982<br/>samples = 217<br/>value = [115, 102]<br/>class = y<SUB>0</SUB>>, fillcolor="#e581391d"] ;
3 -> 4 ;
5 [label=<gini = 0.5<br/>samples = 127<br/>value = [63, 64]<br/>class = y<SUB>1</SUB>>, fillcolor="#399de504"] ;
3 -> 5 ;
6 [label=<gini = 0.4953<br/>samples = 206<br/>value = [93, 113]<br/>class = y<SUB>1</SUB>>, fillcolor="#399de52d"] ;
2 -> 6 ;
7 [label=<DT_away_public &le; 0.5<br/>gini = 0.4925<br/>samples = 538<br/>value = [236, 302]<br/>class = y<SUB>1</SUB>>, fillcolor="#399de538"] ;
1 -> 7 ;
8 [label=<gini = 0.4926<br/>samples = 280<br/>value = [123, 157]<br/>class = y<SUB>1</SUB>>, fillcolor="#399de537"] ;
7 -> 8 ;
9 [label=<gini = 0.4923<br/>samples = 258<br/>value = [113, 145]<br/>class = y<SUB>1</SUB>>, fillcolor="#399de538"] ;
7 -> 9 ;
10 [label=<DT_home_winner &le; 0.5<br/>gini = 0.4992<br/>samples = 807<br/>value = [420, 387]<br/>class = y<SUB>0</SUB>>, fillcolor="#e5813914"] ;
0 -> 10 [labeldistance=2.5, labelangle=-45, headlabel="False"] ;
11 [label=<DT_away_movement &le; 0.5<br/>gini = 0.4975<br/>samples = 551<br/>value = [295, 256]<br/>class = y<SUB>0</SUB>>, fillcolor="#e5813922"] ;
10 -> 11 ;
12 [label=<DT_away_public &le; 0.5<br/>gini = 0.495<br/>samples = 249<br/>value = [137, 112]<br/>class = y<SUB>0</SUB>>, fillcolor="#e581392f"] ;
11 -> 12 ;
13 [label=<gini = 0.4961<br/>samples = 125<br/>value = [68, 57]<br/>class = y<SUB>0</SUB>>, fillcolor="#e5813929"] ;
12 -> 13 ;
14 [label=<gini = 0.4936<br/>samples = 124<br/>value = [69, 55]<br/>class = y<SUB>0</SUB>>, fillcolor="#e5813934"] ;
12 -> 14 ;
15 [label=<DT_away_public &le; 0.5<br/>gini = 0.4989<br/>samples = 302<br/>value = [158, 144]<br/>class = y<SUB>0</SUB>>, fillcolor="#e5813917"] ;
11 -> 15 ;
16 [label=<gini = 0.4972<br/>samples = 147<br/>value = [79, 68]<br/>class = y<SUB>0</SUB>>, fillcolor="#e5813924"] ;
15 -> 16 ;
17 [label=<gini = 0.4998<br/>samples = 155<br/>value = [79, 76]<br/>class = y<SUB>0</SUB>>, fillcolor="#e581390a"] ;
15 -> 17 ;
18 [label=<DT_away_public &le; 0.5<br/>gini = 0.4997<br/>samples = 256<br/>value = [125, 131]<br/>class = y<SUB>1</SUB>>, fillcolor="#399de50c"] ;
10 -> 18 ;
19 [label=<gini = 0.4994<br/>samples = 149<br/>value = [77, 72]<br/>class = y<SUB>0</SUB>>, fillcolor="#e5813911"] ;
18 -> 19 ;
20 [label=<gini = 0.4947<br/>samples = 107<br/>value = [48, 59]<br/>class = y<SUB>1</SUB>>, fillcolor="#399de530"] ;
18 -> 20 ;
}