digraph Tree {
node [shape=box, style="filled, rounded", color="black", fontname=helvetica] ;
edge [fontname=helvetica] ;
0 [label=<DT_home_ats &le; 0.5<br/>gini = 0.4998<br/>samples = 13828<br/>value = [7048, 6780]<br/>class = y<SUB>0</SUB>>, fillcolor="#e581390a"] ;
1 [label=<DT_away_movement &le; 0.5<br/>gini = 0.5<br/>samples = 8963<br/>value = [4497, 4466]<br/>class = y<SUB>0</SUB>>, fillcolor="#e5813902"] ;
0 -> 1 [labeldistance=2.5, labelangle=45, headlabel="True"] ;
2 [label=<DT_away_reb &le; 0.5<br/>gini = 0.4998<br/>samples = 6236<br/>value = [3187, 3049]<br/>class = y<SUB>0</SUB>>, fillcolor="#e581390b"] ;
1 -> 2 ;
3 [label=<DT_home_public &le; 0.5<br/>gini = 0.5<br/>samples = 4224<br/>value = [2122, 2102]<br/>class = y<SUB>0</SUB>>, fillcolor="#e5813902"] ;
2 -> 3 ;
4 [label=<DT_home_tPAr &le; 0.5<br/>gini = 0.4996<br/>samples = 2758<br/>value = [1419, 1339]<br/>class = y<SUB>0</SUB>>, fillcolor="#e581390e"] ;
3 -> 4 ;
5 [label=<DT_away_ats &le; 0.5<br/>gini = 0.4989<br/>samples = 2105<br/>value = [1102, 1003]<br/>class = y<SUB>0</SUB>>, fillcolor="#e5813917"] ;
4 -> 5 ;
6 [label=<gini = 0.4967<br/>samples = 1343<br/>value = [726, 617]<br/>class = y<SUB>0</SUB>>, fillcolor="#e5813926"] ;
5 -> 6 ;
7 [label=<gini = 0.4999<br/>samples = 762<br/>value = [376, 386]<br/>class = y<SUB>1</SUB>>, fillcolor="#399de507"] ;
5 -> 7 ;
8 [label=<gini = 0.4996<br/>samples = 653<br/>value = [317, 336]<br/>class = y<SUB>1</SUB>>, fillcolor="#399de50e"] ;
4 -> 8 ;
9 [label=<DT_home_reb &le; 0.5<br/>gini = 0.4992<br/>samples = 1466<br/>value = [703, 763]<br/>class = y<SUB>1</SUB>>, fillcolor="#399de514"] ;
3 -> 9 ;
10 [label=<gini = 0.4998<br/>samples = 658<br/>value = [323, 335]<br/>class = y<SUB>1</SUB>>, fillcolor="#399de509"] ;
9 -> 10 ;
11 [label=<gini = 0.4982<br/>samples = 808<br/>value = [380, 428]<br/>class = y<SUB>1</SUB>>, fillcolor="#399de51d"] ;
9 -> 11 ;
12 [label=<DT_home_winner &le; 0.5<br/>gini = 0.4983<br/>samples = 2012<br/>value = [1065, 947]<br/>class = y<SUB>0</SUB>>, fillcolor="#e581391c"] ;
2 -> 12 ;
13 [label=<DT_away_ats &le; 0.5<br/>gini = 0.4968<br/>samples = 1393<br/>value = [752, 641]<br/>class = y<SUB>0</SUB>>, fillcolor="#e5813926"] ;
12 -> 13 ;
14 [label=<gini = 0.4988<br/>samples = 760<br/>value = [399, 361]<br/>class = y<SUB>0</SUB>>, fillcolor="#e5813918"] ;
13 -> 14 ;
15 [label=<gini = 0.4934<br/>samples = 633<br/>value = [353, 280]<br/>class = y<SUB>0</SUB>>, fillcolor="#e5813935"] ;
13 -> 15 ;
16 [label=<gini = 0.4999<br/>samples = 619<br/>value = [313, 306]<br/>class = y<SUB>0</SUB>>, fillcolor="#e5813906"] ;
12 -> 16 ;
17 [label=<DT_home_tPAr &le; 0.5<br/>gini = 0.4992<br/>samples = 2727<br/>value = [1310, 1417]<br/>class = y<SUB>1</SUB>>, fillcolor="#399de513"] ;
1 -> 17 ;
18 [label=<DT_home_reb &le; 0.5<br/>gini = 0.4982<br/>samples = 1933<br/>value = [908, 1025]<br/>class = y<SUB>1</SUB>>, fillcolor="#399de51d"] ;
17 -> 18 ;
19 [label=<DT_away_public &le; 0.5<br/>gini = 0.4993<br/>samples = 1277<br/>value = [615, 662]<br/>class = y<SUB>1</SUB>>, fillcolor="#399de512"] ;
18 -> 19 ;
20 [label=<gini = 0.4999<br/>samples = 587<br/>value = [298, 289]<br/>class = y<SUB>0</SUB>>, fillcolor="#e5813908"] ;
19 -> 20 ;
21 [label=<gini = 0.4967<br/>samples = 690<br/>value = [317, 373]<br/>class = y<SUB>1</SUB>>, fillcolor="#399de526"] ;
19 -> 21 ;
22 [label=<gini = 0.4943<br/>samples = 656<br/>value = [293, 363]<br/>class = y<SUB>1</SUB>>, fillcolor="#399de531"] ;
18 -> 22 ;
23 [label=<gini = 0.4999<br/>samples = 794<br/>value = [402, 392]<br/>class = y<SUB>0</SUB>>, fillcolor="#e5813906"] ;
17 -> 23 ;
24 [label=<DT_home_winner &le; 0.5<br/>gini = 0.4988<br/>samples = 4865<br/>value = [2551, 2314]<br/>class = y<SUB>0</SUB>>, fillcolor="#e5813918"] ;
0 -> 24 [labeldistance=2.5, labelangle=-45, headlabel="False"] ;
25 [label=<DT_away_ats &le; 0.5<br/>gini = 0.4996<br/>samples = 2699<br/>value = [1387, 1312]<br/>class = y<SUB>0</SUB>>, fillcolor="#e581390e"] ;
24 -> 25 ;
26 [label=<DT_away_movement &le; 0.5<br/>gini = 0.4981<br/>samples = 1583<br/>value = [840, 743]<br/>class = y<SUB>0</SUB>>, fillcolor="#e581391d"] ;
25 -> 26 ;
27 [label=<DT_home_reb &le; 0.5<br/>gini = 0.497<br/>samples = 1167<br/>value = [629, 538]<br/>class = y<SUB>0</SUB>>, fillcolor="#e5813925"] ;
26 -> 27 ;
28 [label=<gini = 0.499<br/>samples = 582<br/>value = [304, 278]<br/>class = y<SUB>0</SUB>>, fillcolor="#e5813916"] ;
27 -> 28 ;
29 [label=<gini = 0.4938<br/>samples = 585<br/>value = [325, 260]<br/>class = y<SUB>0</SUB>>, fillcolor="#e5813933"] ;
27 -> 29 ;
30 [label=<gini = 0.4999<br/>samples = 416<br/>value = [211, 205]<br/>class = y<SUB>0</SUB>>, fillcolor="#e5813907"] ;
26 -> 30 ;
31 [label=<DT_home_reb &le; 0.5<br/>gini = 0.4998<br/>samples = 1116<br/>value = [547, 569]<br/>class = y<SUB>1</SUB>>, fillcolor="#399de50a"] ;
25 -> 31 ;
32 [label=<gini = 0.4999<br/>samples = 648<br/>value = [320, 328]<br/>class = y<SUB>1</SUB>>, fillcolor="#399de506"] ;
31 -> 32 ;
33 [label=<gini = 0.4996<br/>samples = 468<br/>value = [227, 241]<br/>class = y<SUB>1</SUB>>, fillcolor="#399de50f"] ;
31 -> 33 ;
34 [label=<DT_home_public &le; 0.5<br/>gini = 0.4972<br/>samples = 2166<br/>value = [1164, 1002]<br/>class = y<SUB>0</SUB>>, fillcolor="#e5813923"] ;
24 -> 34 ;
35 [label=<DT_home_reb &le; 0.5<br/>gini = 0.4948<br/>samples = 1405<br/>value = [774, 631]<br/>class = y<SUB>0</SUB>>, fillcolor="#e581392f"] ;
34 -> 35 ;
36 [label=<DT_away_public &le; 0.5<br/>gini = 0.4932<br/>samples = 908<br/>value = [507, 401]<br/>class = y<SUB>0</SUB>>, fillcolor="#e5813935"] ;
35 -> 36 ;
37 [label=<gini = 0.4872<br/>samples = 400<br/>value = [232, 168]<br/>class = y<SUB>0</SUB>>, fillcolor="#e5813946"] ;
36 -> 37 ;
38 [label=<gini = 0.4966<br/>samples = 508<br/>value = [275, 233]<br/>class = y<SUB>0</SUB>>, fillcolor="#e5813927"] ;
36 -> 38 ;
39 [label=<gini = 0.4972<br/>samples = 497<br/>value = [267, 230]<br/>class = y<SUB>0</SUB>>, fillcolor="#e5813923"] ;
35 -> 39 ;
40 [label=<gini = 0.4997<br/>samples = 761<br/>value = [390, 371]<br/>class = y<SUB>0</SUB>>, fillcolor="#e581390c"] ;
34 -> 40 ;
}