digraph Tree {
node [shape=box, style="filled, rounded", color="black", fontname=helvetica] ;
edge [fontname=helvetica] ;
0 [label=<DT_away_ats &le; 0.5<br/>gini = 0.4999<br/>samples = 13847<br/>value = [7013, 6834]<br/>class = y<SUB>0</SUB>>, fillcolor="#e5813907"] ;
1 [label=<DT_home_ats &le; 0.5<br/>gini = 0.4996<br/>samples = 9152<br/>value = [4706, 4446]<br/>class = y<SUB>0</SUB>>, fillcolor="#e581390e"] ;
0 -> 1 [labeldistance=2.5, labelangle=45, headlabel="True"] ;
2 [label=<DT_away_movement &le; 0.5<br/>gini = 0.4999<br/>samples = 6003<br/>value = [3036, 2967]<br/>class = y<SUB>0</SUB>>, fillcolor="#e5813906"] ;
1 -> 2 ;
3 [label=<DT_home_tPAr &le; 0.5<br/>gini = 0.4995<br/>samples = 4043<br/>value = [2085, 1958]<br/>class = y<SUB>0</SUB>>, fillcolor="#e5813910"] ;
2 -> 3 ;
4 [label=<DT_home_reb &le; 0.5<br/>gini = 0.4988<br/>samples = 2840<br/>value = [1489, 1351]<br/>class = y<SUB>0</SUB>>, fillcolor="#e5813918"] ;
3 -> 4 ;
5 [label=<DT_home_public &le; 0.5<br/>gini = 0.4996<br/>samples = 1689<br/>value = [868, 821]<br/>class = y<SUB>0</SUB>>, fillcolor="#e581390e"] ;
4 -> 5 ;
6 [label=<gini = 0.4998<br/>samples = 1152<br/>value = [586, 566]<br/>class = y<SUB>0</SUB>>, fillcolor="#e5813909"] ;
5 -> 6 ;
7 [label=<gini = 0.4987<br/>samples = 537<br/>value = [282, 255]<br/>class = y<SUB>0</SUB>>, fillcolor="#e5813918"] ;
5 -> 7 ;
8 [label=<gini = 0.4969<br/>samples = 1151<br/>value = [621, 530]<br/>class = y<SUB>0</SUB>>, fillcolor="#e5813925"] ;
4 -> 8 ;
9 [label=<gini = 0.5<br/>samples = 1203<br/>value = [596, 607]<br/>class = y<SUB>1</SUB>>, fillcolor="#399de505"] ;
3 -> 9 ;
10 [label=<DT_home_tPAr &le; 0.5<br/>gini = 0.4996<br/>samples = 1960<br/>value = [951, 1009]<br/>class = y<SUB>1</SUB>>, fillcolor="#399de50f"] ;
2 -> 10 ;
11 [label=<DT_home_winner &le; 0.5<br/>gini = 0.498<br/>samples = 1374<br/>value = [644, 730]<br/>class = y<SUB>1</SUB>>, fillcolor="#399de51e"] ;
10 -> 11 ;
12 [label=<gini = 0.4994<br/>samples = 627<br/>value = [303, 324]<br/>class = y<SUB>1</SUB>>, fillcolor="#399de511"] ;
11 -> 12 ;
13 [label=<gini = 0.4962<br/>samples = 747<br/>value = [341, 406]<br/>class = y<SUB>1</SUB>>, fillcolor="#399de529"] ;
11 -> 13 ;
14 [label=<gini = 0.4989<br/>samples = 586<br/>value = [307, 279]<br/>class = y<SUB>0</SUB>>, fillcolor="#e5813917"] ;
10 -> 14 ;
15 [label=<DT_away_movement &le; 0.5<br/>gini = 0.4982<br/>samples = 3149<br/>value = [1670, 1479]<br/>class = y<SUB>0</SUB>>, fillcolor="#e581391d"] ;
1 -> 15 ;
16 [label=<DT_home_public &le; 0.5<br/>gini = 0.4993<br/>samples = 1991<br/>value = [1033, 958]<br/>class = y<SUB>0</SUB>>, fillcolor="#e5813913"] ;
15 -> 16 ;
17 [label=<gini = 0.4977<br/>samples = 1128<br/>value = [602, 526]<br/>class = y<SUB>0</SUB>>, fillcolor="#e5813920"] ;
16 -> 17 ;
18 [label=<gini = 0.5<br/>samples = 863<br/>value = [431, 432]<br/>class = y<SUB>1</SUB>>, fillcolor="#399de501"] ;
16 -> 18 ;
19 [label=<gini = 0.495<br/>samples = 1158<br/>value = [637, 521]<br/>class = y<SUB>0</SUB>>, fillcolor="#e581392e"] ;
15 -> 19 ;
20 [label=<DT_home_reb &le; 0.5<br/>gini = 0.4999<br/>samples = 4695<br/>value = [2307, 2388]<br/>class = y<SUB>1</SUB>>, fillcolor="#399de509"] ;
0 -> 20 [labeldistance=2.5, labelangle=-45, headlabel="False"] ;
21 [label=<DT_home_tPAr &le; 0.5<br/>gini = 0.5<br/>samples = 3208<br/>value = [1605, 1603]<br/>class = y<SUB>0</SUB>>, fillcolor="#e5813900"] ;
20 -> 21 ;
22 [label=<DT_home_public &le; 0.5<br/>gini = 0.4999<br/>samples = 2170<br/>value = [1067, 1103]<br/>class = y<SUB>1</SUB>>, fillcolor="#399de508"] ;
21 -> 22 ;
23 [label=<DT_home_winner &le; 0.5<br/>gini = 0.4995<br/>samples = 1625<br/>value = [787, 838]<br/>class = y<SUB>1</SUB>>, fillcolor="#399de510"] ;
22 -> 23 ;
24 [label=<gini = 0.4992<br/>samples = 1055<br/>value = [506, 549]<br/>class = y<SUB>1</SUB>>, fillcolor="#399de514"] ;
23 -> 24 ;
25 [label=<gini = 0.4999<br/>samples = 570<br/>value = [281, 289]<br/>class = y<SUB>1</SUB>>, fillcolor="#399de507"] ;
23 -> 25 ;
26 [label=<gini = 0.4996<br/>samples = 545<br/>value = [280, 265]<br/>class = y<SUB>0</SUB>>, fillcolor="#e581390e"] ;
22 -> 26 ;
27 [label=<gini = 0.4993<br/>samples = 1038<br/>value = [538, 500]<br/>class = y<SUB>0</SUB>>, fillcolor="#e5813912"] ;
21 -> 27 ;
28 [label=<DT_home_ats &le; 0.5<br/>gini = 0.4984<br/>samples = 1487<br/>value = [702, 785]<br/>class = y<SUB>1</SUB>>, fillcolor="#399de51b"] ;
20 -> 28 ;
29 [label=<gini = 0.497<br/>samples = 854<br/>value = [394, 460]<br/>class = y<SUB>1</SUB>>, fillcolor="#399de525"] ;
28 -> 29 ;
30 [label=<gini = 0.4996<br/>samples = 633<br/>value = [308, 325]<br/>class = y<SUB>1</SUB>>, fillcolor="#399de50d"] ;
28 -> 30 ;
}