digraph Tree {
node [shape=box, style="filled, rounded", color="black", fontname=helvetica] ;
edge [fontname=helvetica] ;
0 [label=<DT_home_ats &le; 0.5<br/>gini = 0.4999<br/>samples = 14434<br/>value = [7299, 7135]<br/>class = y<SUB>0</SUB>>, fillcolor="#e5813906"] ;
1 [label=<DT_home_winner &le; 0.5<br/>gini = 0.5<br/>samples = 9419<br/>value = [4681, 4738]<br/>class = y<SUB>1</SUB>>, fillcolor="#399de503"] ;
0 -> 1 [labeldistance=2.5, labelangle=45, headlabel="True"] ;
2 [label=<DT_away_ats &le; 0.5<br/>gini = 0.4999<br/>samples = 5963<br/>value = [3025, 2938]<br/>class = y<SUB>0</SUB>>, fillcolor="#e5813907"] ;
1 -> 2 ;
3 [label=<DT_away_movement &le; 0.5<br/>gini = 0.4995<br/>samples = 3713<br/>value = [1915, 1798]<br/>class = y<SUB>0</SUB>>, fillcolor="#e5813910"] ;
2 -> 3 ;
4 [label=<DT_home_tPAr &le; 0.5<br/>gini = 0.4991<br/>samples = 2836<br/>value = [1477, 1359]<br/>class = y<SUB>0</SUB>>, fillcolor="#e5813914"] ;
3 -> 4 ;
5 [label=<DT_home_reb &le; 0.5<br/>gini = 0.4982<br/>samples = 2004<br/>value = [1062, 942]<br/>class = y<SUB>0</SUB>>, fillcolor="#e581391d"] ;
4 -> 5 ;
6 [label=<gini = 0.4993<br/>samples = 1108<br/>value = [575, 533]<br/>class = y<SUB>0</SUB>>, fillcolor="#e5813913"] ;
5 -> 6 ;
7 [label=<gini = 0.4962<br/>samples = 896<br/>value = [487, 409]<br/>class = y<SUB>0</SUB>>, fillcolor="#e5813929"] ;
5 -> 7 ;
8 [label=<gini = 0.5<br/>samples = 832<br/>value = [415, 417]<br/>class = y<SUB>1</SUB>>, fillcolor="#399de501"] ;
4 -> 8 ;
9 [label=<gini = 0.5<br/>samples = 877<br/>value = [438, 439]<br/>class = y<SUB>1</SUB>>, fillcolor="#399de501"] ;
3 -> 9 ;
10 [label=<DT_home_reb &le; 0.5<br/>gini = 0.4999<br/>samples = 2250<br/>value = [1110, 1140]<br/>class = y<SUB>1</SUB>>, fillcolor="#399de507"] ;
2 -> 10 ;
11 [label=<DT_home_tPAr &le; 0.5<br/>gini = 0.4997<br/>samples = 1530<br/>value = [783, 747]<br/>class = y<SUB>0</SUB>>, fillcolor="#e581390c"] ;
10 -> 11 ;
12 [label=<DT_away_public &le; 0.5<br/>gini = 0.4999<br/>samples = 1033<br/>value = [523, 510]<br/>class = y<SUB>0</SUB>>, fillcolor="#e5813906"] ;
11 -> 12 ;
13 [label=<gini = 0.4995<br/>samples = 508<br/>value = [262, 246]<br/>class = y<SUB>0</SUB>>, fillcolor="#e5813910"] ;
12 -> 13 ;
14 [label=<gini = 0.5<br/>samples = 525<br/>value = [261, 264]<br/>class = y<SUB>1</SUB>>, fillcolor="#399de503"] ;
12 -> 14 ;
15 [label=<gini = 0.4989<br/>samples = 497<br/>value = [260, 237]<br/>class = y<SUB>0</SUB>>, fillcolor="#e5813917"] ;
11 -> 15 ;
16 [label=<gini = 0.4958<br/>samples = 720<br/>value = [327, 393]<br/>class = y<SUB>1</SUB>>, fillcolor="#399de52b"] ;
10 -> 16 ;
17 [label=<DT_home_reb &le; 0.5<br/>gini = 0.4991<br/>samples = 3456<br/>value = [1656, 1800]<br/>class = y<SUB>1</SUB>>, fillcolor="#399de514"] ;
1 -> 17 ;
18 [label=<DT_away_movement &le; 0.5<br/>gini = 0.4998<br/>samples = 2512<br/>value = [1231, 1281]<br/>class = y<SUB>1</SUB>>, fillcolor="#399de50a"] ;
17 -> 18 ;
19 [label=<DT_home_tPAr &le; 0.5<br/>gini = 0.5<br/>samples = 1388<br/>value = [695, 693]<br/>class = y<SUB>0</SUB>>, fillcolor="#e5813901"] ;
18 -> 19 ;
20 [label=<DT_away_public &le; 0.5<br/>gini = 0.5<br/>samples = 930<br/>value = [463, 467]<br/>class = y<SUB>1</SUB>>, fillcolor="#399de502"] ;
19 -> 20 ;
21 [label=<gini = 0.4999<br/>samples = 496<br/>value = [245, 251]<br/>class = y<SUB>1</SUB>>, fillcolor="#399de506"] ;
20 -> 21 ;
22 [label=<gini = 0.5<br/>samples = 434<br/>value = [218, 216]<br/>class = y<SUB>0</SUB>>, fillcolor="#e5813902"] ;
20 -> 22 ;
23 [label=<gini = 0.4999<br/>samples = 458<br/>value = [232, 226]<br/>class = y<SUB>0</SUB>>, fillcolor="#e5813907"] ;
19 -> 23 ;
24 [label=<DT_away_public &le; 0.5<br/>gini = 0.4989<br/>samples = 1124<br/>value = [536, 588]<br/>class = y<SUB>1</SUB>>, fillcolor="#399de517"] ;
18 -> 24 ;
25 [label=<gini = 0.5<br/>samples = 480<br/>value = [240, 240]<br/>class = y<SUB>0</SUB>>, fillcolor="#e5813900"] ;
24 -> 25 ;
26 [label=<gini = 0.4967<br/>samples = 644<br/>value = [296, 348]<br/>class = y<SUB>1</SUB>>, fillcolor="#399de526"] ;
24 -> 26 ;
27 [label=<gini = 0.495<br/>samples = 944<br/>value = [425, 519]<br/>class = y<SUB>1</SUB>>, fillcolor="#399de52e"] ;
17 -> 27 ;
28 [label=<DT_away_ats &le; 0.5<br/>gini = 0.499<br/>samples = 5015<br/>value = [2618, 2397]<br/>class = y<SUB>0</SUB>>, fillcolor="#e5813916"] ;
0 -> 28 [labeldistance=2.5, labelangle=-45, headlabel="False"] ;
29 [label=<DT_home_tPAr &le; 0.5<br/>gini = 0.4981<br/>samples = 3230<br/>value = [1714, 1516]<br/>class = y<SUB>0</SUB>>, fillcolor="#e581391d"] ;
28 -> 29 ;
30 [label=<DT_away_movement &le; 0.5<br/>gini = 0.497<br/>samples = 2256<br/>value = [1215, 1041]<br/>class = y<SUB>0</SUB>>, fillcolor="#e5813925"] ;
29 -> 30 ;
31 [label=<DT_home_reb &le; 0.5<br/>gini = 0.4986<br/>samples = 1440<br/>value = [758, 682]<br/>class = y<SUB>0</SUB>>, fillcolor="#e581391a"] ;
30 -> 31 ;
32 [label=<gini = 0.4998<br/>samples = 733<br/>value = [374, 359]<br/>class = y<SUB>0</SUB>>, fillcolor="#e581390a"] ;
31 -> 32 ;
33 [label=<gini = 0.4963<br/>samples = 707<br/>value = [384, 323]<br/>class = y<SUB>0</SUB>>, fillcolor="#e5813929"] ;
31 -> 33 ;
34 [label=<gini = 0.4928<br/>samples = 816<br/>value = [457, 359]<br/>class = y<SUB>0</SUB>>, fillcolor="#e5813937"] ;
30 -> 34 ;
35 [label=<DT_home_winner &le; 0.5<br/>gini = 0.4997<br/>samples = 974<br/>value = [499, 475]<br/>class = y<SUB>0</SUB>>, fillcolor="#e581390c"] ;
29 -> 35 ;
36 [label=<gini = 0.4971<br/>samples = 450<br/>value = [242, 208]<br/>class = y<SUB>0</SUB>>, fillcolor="#e5813924"] ;
35 -> 36 ;
37 [label=<gini = 0.4998<br/>samples = 524<br/>value = [257, 267]<br/>class = y<SUB>1</SUB>>, fillcolor="#399de50a"] ;
35 -> 37 ;
38 [label=<DT_home_winner &le; 0.5<br/>gini = 0.4999<br/>samples = 1785<br/>value = [904, 881]<br/>class = y<SUB>0</SUB>>, fillcolor="#e5813906"] ;
28 -> 38 ;
39 [label=<DT_home_reb &le; 0.5<br/>gini = 0.4997<br/>samples = 1108<br/>value = [541, 567]<br/>class = y<SUB>1</SUB>>, fillcolor="#399de50c"] ;
38 -> 39 ;
40 [label=<gini = 0.4998<br/>samples = 646<br/>value = [317, 329]<br/>class = y<SUB>1</SUB>>, fillcolor="#399de509"] ;
39 -> 40 ;
41 [label=<gini = 0.4995<br/>samples = 462<br/>value = [224, 238]<br/>class = y<SUB>1</SUB>>, fillcolor="#399de50f"] ;
39 -> 41 ;
42 [label=<gini = 0.4974<br/>samples = 677<br/>value = [363, 314]<br/>class = y<SUB>0</SUB>>, fillcolor="#e5813922"] ;
38 -> 42 ;
}