digraph Tree {
node [shape=box, style="filled, rounded", color="black", fontname=helvetica] ;
edge [fontname=helvetica] ;
0 [label=<DT_away_movement &le; 0.5<br/>gini = 0.4996<br/>samples = 1870<br/>value = [910, 960]<br/>class = y<SUB>1</SUB>>, fillcolor="#399de50d"] ;
1 [label=<DT_home_winner &le; 0.5<br/>gini = 0.4999<br/>samples = 937<br/>value = [474, 463]<br/>class = y<SUB>0</SUB>>, fillcolor="#e5813906"] ;
0 -> 1 [labeldistance=2.5, labelangle=45, headlabel="True"] ;
2 [label=<DT_away_public &le; 0.5<br/>gini = 0.4991<br/>samples = 610<br/>value = [318, 292]<br/>class = y<SUB>0</SUB>>, fillcolor="#e5813915"] ;
1 -> 2 ;
3 [label=<DT_home_public &le; 0.5<br/>gini = 0.4983<br/>samples = 340<br/>value = [180, 160]<br/>class = y<SUB>0</SUB>>, fillcolor="#e581391c"] ;
2 -> 3 ;
4 [label=<gini = 0.4955<br/>samples = 221<br/>value = [121, 100]<br/>class = y<SUB>0</SUB>>, fillcolor="#e581392c"] ;
3 -> 4 ;
5 [label=<gini = 0.5<br/>samples = 119<br/>value = [59, 60]<br/>class = y<SUB>1</SUB>>, fillcolor="#399de504"] ;
3 -> 5 ;
6 [label=<DT_home_public &le; 0.5<br/>gini = 0.4998<br/>samples = 270<br/>value = [138, 132]<br/>class = y<SUB>0</SUB>>, fillcolor="#e581390b"] ;
2 -> 6 ;
7 [label=<gini = 0.4989<br/>samples = 151<br/>value = [72, 79]<br/>class = y<SUB>1</SUB>>, fillcolor="#399de517"] ;
6 -> 7 ;
8 [label=<gini = 0.494<br/>samples = 119<br/>value = [66, 53]<br/>class = y<SUB>0</SUB>>, fillcolor="#e5813932"] ;
6 -> 8 ;
9 [label=<DT_home_public &le; 0.5<br/>gini = 0.4989<br/>samples = 327<br/>value = [156, 171]<br/>class = y<SUB>1</SUB>>, fillcolor="#399de516"] ;
1 -> 9 ;
10 [label=<gini = 0.4989<br/>samples = 189<br/>value = [90, 99]<br/>class = y<SUB>1</SUB>>, fillcolor="#399de517"] ;
9 -> 10 ;
11 [label=<gini = 0.4991<br/>samples = 138<br/>value = [66, 72]<br/>class = y<SUB>1</SUB>>, fillcolor="#399de515"] ;
9 -> 11 ;
12 [label=<DT_home_public &le; 0.5<br/>gini = 0.4979<br/>samples = 933<br/>value = [436, 497]<br/>class = y<SUB>1</SUB>>, fillcolor="#399de51f"] ;
0 -> 12 [labeldistance=2.5, labelangle=-45, headlabel="False"] ;
13 [label=<DT_away_public &le; 0.5<br/>gini = 0.4917<br/>samples = 521<br/>value = [227, 294]<br/>class = y<SUB>1</SUB>>, fillcolor="#399de53a"] ;
12 -> 13 ;
14 [label=<gini = 0.4926<br/>samples = 280<br/>value = [123, 157]<br/>class = y<SUB>1</SUB>>, fillcolor="#399de537"] ;
13 -> 14 ;
15 [label=<gini = 0.4906<br/>samples = 241<br/>value = [104, 137]<br/>class = y<SUB>1</SUB>>, fillcolor="#399de53d"] ;
13 -> 15 ;
16 [label=<DT_away_public &le; 0.5<br/>gini = 0.4999<br/>samples = 412<br/>value = [209, 203]<br/>class = y<SUB>0</SUB>>, fillcolor="#e5813907"] ;
12 -> 16 ;
17 [label=<gini = 0.4972<br/>samples = 201<br/>value = [108, 93]<br/>class = y<SUB>0</SUB>>, fillcolor="#e5813923"] ;
16 -> 17 ;
18 [label=<gini = 0.4991<br/>samples = 211<br/>value = [101, 110]<br/>class = y<SUB>1</SUB>>, fillcolor="#399de515"] ;
16 -> 18 ;
}