digraph Tree {
node [shape=box, style="filled, rounded", color="black", fontname=helvetica] ;
edge [fontname=helvetica] ;
0 [label=<DT_home_ats &le; 0.5<br/>gini = 0.4996<br/>samples = 1851<br/>value = [898, 953]<br/>class = y<SUB>1</SUB>>, fillcolor="#399de50f"] ;
1 [label=<DT_home_public &le; 0.5<br/>gini = 0.4972<br/>samples = 1061<br/>value = [491, 570]<br/>class = y<SUB>1</SUB>>, fillcolor="#399de523"] ;
0 -> 1 [labeldistance=2.5, labelangle=45, headlabel="True"] ;
2 [label=<DT_home_tPAr &le; 0.5<br/>gini = 0.4994<br/>samples = 534<br/>value = [258, 276]<br/>class = y<SUB>1</SUB>>, fillcolor="#399de511"] ;
1 -> 2 ;
3 [label=<DT_away_public &le; 0.5<br/>gini = 0.5<br/>samples = 341<br/>value = [172, 169]<br/>class = y<SUB>0</SUB>>, fillcolor="#e5813904"] ;
2 -> 3 ;
4 [label=<gini = 0.4993<br/>samples = 189<br/>value = [91, 98]<br/>class = y<SUB>1</SUB>>, fillcolor="#399de512"] ;
3 -> 4 ;
5 [label=<gini = 0.4978<br/>samples = 152<br/>value = [81, 71]<br/>class = y<SUB>0</SUB>>, fillcolor="#e581391f"] ;
3 -> 5 ;
6 [label=<gini = 0.4941<br/>samples = 193<br/>value = [86, 107]<br/>class = y<SUB>1</SUB>>, fillcolor="#399de532"] ;
2 -> 6 ;
7 [label=<DT_home_winner &le; 0.5<br/>gini = 0.4933<br/>samples = 527<br/>value = [233, 294]<br/>class = y<SUB>1</SUB>>, fillcolor="#399de535"] ;
1 -> 7 ;
8 [label=<DT_home_tPAr &le; 0.5<br/>gini = 0.4908<br/>samples = 375<br/>value = [162, 213]<br/>class = y<SUB>1</SUB>>, fillcolor="#399de53d"] ;
7 -> 8 ;
9 [label=<gini = 0.4835<br/>samples = 198<br/>value = [81, 117]<br/>class = y<SUB>1</SUB>>, fillcolor="#399de54e"] ;
8 -> 9 ;
10 [label=<gini = 0.4964<br/>samples = 177<br/>value = [81, 96]<br/>class = y<SUB>1</SUB>>, fillcolor="#399de528"] ;
8 -> 10 ;
11 [label=<gini = 0.4978<br/>samples = 152<br/>value = [71, 81]<br/>class = y<SUB>1</SUB>>, fillcolor="#399de51f"] ;
7 -> 11 ;
12 [label=<DT_away_movement &le; 0.5<br/>gini = 0.4995<br/>samples = 790<br/>value = [407, 383]<br/>class = y<SUB>0</SUB>>, fillcolor="#e581390f"] ;
0 -> 12 [labeldistance=2.5, labelangle=-45, headlabel="False"] ;
13 [label=<DT_home_tPAr &le; 0.5<br/>gini = 0.5<br/>samples = 580<br/>value = [290, 290]<br/>class = y<SUB>0</SUB>>, fillcolor="#e5813900"] ;
12 -> 13 ;
14 [label=<gini = 0.4997<br/>samples = 301<br/>value = [154, 147]<br/>class = y<SUB>0</SUB>>, fillcolor="#e581390c"] ;
13 -> 14 ;
15 [label=<gini = 0.4997<br/>samples = 279<br/>value = [136, 143]<br/>class = y<SUB>1</SUB>>, fillcolor="#399de50c"] ;
13 -> 15 ;
16 [label=<gini = 0.4935<br/>samples = 210<br/>value = [117, 93]<br/>class = y<SUB>0</SUB>>, fillcolor="#e5813934"] ;
12 -> 16 ;
}