digraph Tree {
node [shape=box, style="filled, rounded", color="black", fontname=helvetica] ;
edge [fontname=helvetica] ;
0 [label=<DT_home_winner &le; 0.5<br/>gini = 0.4995<br/>samples = 1823<br/>value = [884, 939]<br/>class = y<SUB>1</SUB>>, fillcolor="#399de50f"] ;
1 [label=<DT_away_movement &le; 0.5<br/>gini = 0.5<br/>samples = 1284<br/>value = [640, 644]<br/>class = y<SUB>1</SUB>>, fillcolor="#399de502"] ;
0 -> 1 [labeldistance=2.5, labelangle=45, headlabel="True"] ;
2 [label=<DT_home_public &le; 0.5<br/>gini = 0.4992<br/>samples = 596<br/>value = [310, 286]<br/>class = y<SUB>0</SUB>>, fillcolor="#e5813914"] ;
1 -> 2 ;
3 [label=<DT_away_public &le; 0.5<br/>gini = 0.4998<br/>samples = 363<br/>value = [185, 178]<br/>class = y<SUB>0</SUB>>, fillcolor="#e581390a"] ;
2 -> 3 ;
4 [label=<gini = 0.4977<br/>samples = 219<br/>value = [117, 102]<br/>class = y<SUB>0</SUB>>, fillcolor="#e5813921"] ;
3 -> 4 ;
5 [label=<gini = 0.4985<br/>samples = 144<br/>value = [68, 76]<br/>class = y<SUB>1</SUB>>, fillcolor="#399de51b"] ;
3 -> 5 ;
6 [label=<DT_away_public &le; 0.5<br/>gini = 0.4973<br/>samples = 233<br/>value = [125, 108]<br/>class = y<SUB>0</SUB>>, fillcolor="#e5813923"] ;
2 -> 6 ;
7 [label=<gini = 0.4999<br/>samples = 118<br/>value = [60, 58]<br/>class = y<SUB>0</SUB>>, fillcolor="#e5813908"] ;
6 -> 7 ;
8 [label=<gini = 0.4915<br/>samples = 115<br/>value = [65, 50]<br/>class = y<SUB>0</SUB>>, fillcolor="#e581393b"] ;
6 -> 8 ;
9 [label=<DT_home_public &le; 0.5<br/>gini = 0.4992<br/>samples = 688<br/>value = [330, 358]<br/>class = y<SUB>1</SUB>>, fillcolor="#399de514"] ;
1 -> 9 ;
10 [label=<DT_away_public &le; 0.5<br/>gini = 0.4969<br/>samples = 406<br/>value = [187, 219]<br/>class = y<SUB>1</SUB>>, fillcolor="#399de525"] ;
9 -> 10 ;
11 [label=<gini = 0.4968<br/>samples = 213<br/>value = [98, 115]<br/>class = y<SUB>1</SUB>>, fillcolor="#399de526"] ;
10 -> 11 ;
12 [label=<gini = 0.497<br/>samples = 193<br/>value = [89, 104]<br/>class = y<SUB>1</SUB>>, fillcolor="#399de525"] ;
10 -> 12 ;
13 [label=<DT_away_public &le; 0.5<br/>gini = 0.4999<br/>samples = 282<br/>value = [143, 139]<br/>class = y<SUB>0</SUB>>, fillcolor="#e5813907"] ;
9 -> 13 ;
14 [label=<gini = 0.4991<br/>samples = 138<br/>value = [72, 66]<br/>class = y<SUB>0</SUB>>, fillcolor="#e5813915"] ;
13 -> 14 ;
15 [label=<gini = 0.4999<br/>samples = 144<br/>value = [71, 73]<br/>class = y<SUB>1</SUB>>, fillcolor="#399de507"] ;
13 -> 15 ;
16 [label=<DT_away_public &le; 0.5<br/>gini = 0.4955<br/>samples = 539<br/>value = [244, 295]<br/>class = y<SUB>1</SUB>>, fillcolor="#399de52c"] ;
0 -> 16 [labeldistance=2.5, labelangle=-45, headlabel="False"] ;
17 [label=<DT_home_public &le; 0.5<br/>gini = 0.4999<br/>samples = 349<br/>value = [172, 177]<br/>class = y<SUB>1</SUB>>, fillcolor="#399de507"] ;
16 -> 17 ;
18 [label=<DT_away_movement &le; 0.5<br/>gini = 0.4961<br/>samples = 193<br/>value = [88, 105]<br/>class = y<SUB>1</SUB>>, fillcolor="#399de529"] ;
17 -> 18 ;
19 [label=<gini = 0.4999<br/>samples = 134<br/>value = [66, 68]<br/>class = y<SUB>1</SUB>>, fillcolor="#399de508"] ;
18 -> 19 ;
20 [label=<gini = 0.4677<br/>samples = 59<br/>value = [22, 37]<br/>class = y<SUB>1</SUB>>, fillcolor="#399de567"] ;
18 -> 20 ;
21 [label=<DT_away_movement &le; 0.5<br/>gini = 0.497<br/>samples = 156<br/>value = [84, 72]<br/>class = y<SUB>0</SUB>>, fillcolor="#e5813924"] ;
17 -> 21 ;
22 [label=<gini = 0.498<br/>samples = 96<br/>value = [51, 45]<br/>class = y<SUB>0</SUB>>, fillcolor="#e581391e"] ;
21 -> 22 ;
23 [label=<gini = 0.495<br/>samples = 60<br/>value = [33, 27]<br/>class = y<SUB>0</SUB>>, fillcolor="#e581392e"] ;
21 -> 23 ;
24 [label=<DT_home_public &le; 0.5<br/>gini = 0.4707<br/>samples = 190<br/>value = [72, 118]<br/>class = y<SUB>1</SUB>>, fillcolor="#399de563"] ;
16 -> 24 ;
25 [label=<DT_away_movement &le; 0.5<br/>gini = 0.4611<br/>samples = 86<br/>value = [31, 55]<br/>class = y<SUB>1</SUB>>, fillcolor="#399de56f"] ;
24 -> 25 ;
26 [label=<gini = 0.4861<br/>samples = 48<br/>value = [20, 28]<br/>class = y<SUB>1</SUB>>, fillcolor="#399de549"] ;
25 -> 26 ;
27 [label=<gini = 0.4114<br/>samples = 38<br/>value = [11, 27]<br/>class = y<SUB>1</SUB>>, fillcolor="#399de597"] ;
25 -> 27 ;
28 [label=<DT_away_movement &le; 0.5<br/>gini = 0.4776<br/>samples = 104<br/>value = [41, 63]<br/>class = y<SUB>1</SUB>>, fillcolor="#399de559"] ;
24 -> 28 ;
29 [label=<gini = 0.4494<br/>samples = 44<br/>value = [15, 29]<br/>class = y<SUB>1</SUB>>, fillcolor="#399de57b"] ;
28 -> 29 ;
30 [label=<gini = 0.4911<br/>samples = 60<br/>value = [26, 34]<br/>class = y<SUB>1</SUB>>, fillcolor="#399de53c"] ;
28 -> 30 ;
}