digraph Tree {
node [shape=box, style="filled, rounded", color="black", fontname=helvetica] ;
edge [fontname=helvetica] ;
0 [label=<DT_home_ats &le; 0.5<br/>gini = 0.4999<br/>samples = 13999<br/>value = [7080, 6919]<br/>class = y<SUB>0</SUB>>, fillcolor="#e5813906"] ;
1 [label=<DT_away_movement &le; 0.5<br/>gini = 0.5<br/>samples = 9110<br/>value = [4524, 4586]<br/>class = y<SUB>1</SUB>>, fillcolor="#399de503"] ;
0 -> 1 [labeldistance=2.5, labelangle=45, headlabel="True"] ;
2 [label=<DT_home_public &le; 0.5<br/>gini = 0.4999<br/>samples = 6325<br/>value = [3196, 3129]<br/>class = y<SUB>0</SUB>>, fillcolor="#e5813905"] ;
1 -> 2 ;
3 [label=<DT_home_winner &le; 0.5<br/>gini = 0.4997<br/>samples = 4373<br/>value = [2242, 2131]<br/>class = y<SUB>0</SUB>>, fillcolor="#e581390d"] ;
2 -> 3 ;
4 [label=<DT_away_public &le; 0.5<br/>gini = 0.4994<br/>samples = 3051<br/>value = [1579, 1472]<br/>class = y<SUB>0</SUB>>, fillcolor="#e5813911"] ;
3 -> 4 ;
5 [label=<gini = 0.498<br/>samples = 1409<br/>value = [749, 660]<br/>class = y<SUB>0</SUB>>, fillcolor="#e581391e"] ;
4 -> 5 ;
6 [label=<DT_away_ats &le; 0.5<br/>gini = 0.4999<br/>samples = 1642<br/>value = [830, 812]<br/>class = y<SUB>0</SUB>>, fillcolor="#e5813906"] ;
4 -> 6 ;
7 [label=<gini = 0.4998<br/>samples = 907<br/>value = [463, 444]<br/>class = y<SUB>0</SUB>>, fillcolor="#e581390a"] ;
6 -> 7 ;
8 [label=<gini = 0.5<br/>samples = 735<br/>value = [367, 368]<br/>class = y<SUB>1</SUB>>, fillcolor="#399de501"] ;
6 -> 8 ;
9 [label=<gini = 0.5<br/>samples = 1322<br/>value = [663, 659]<br/>class = y<SUB>0</SUB>>, fillcolor="#e5813902"] ;
3 -> 9 ;
10 [label=<DT_home_reb &le; 0.5<br/>gini = 0.4997<br/>samples = 1952<br/>value = [954, 998]<br/>class = y<SUB>1</SUB>>, fillcolor="#399de50b"] ;
2 -> 10 ;
11 [label=<gini = 0.5<br/>samples = 1144<br/>value = [572, 572]<br/>class = y<SUB>0</SUB>>, fillcolor="#e5813900"] ;
10 -> 11 ;
12 [label=<gini = 0.4985<br/>samples = 808<br/>value = [382, 426]<br/>class = y<SUB>1</SUB>>, fillcolor="#399de51a"] ;
10 -> 12 ;
13 [label=<DT_home_reb &le; 0.5<br/>gini = 0.4989<br/>samples = 2785<br/>value = [1328, 1457]<br/>class = y<SUB>1</SUB>>, fillcolor="#399de517"] ;
1 -> 13 ;
14 [label=<DT_away_public &le; 0.5<br/>gini = 0.4999<br/>samples = 1888<br/>value = [932, 956]<br/>class = y<SUB>1</SUB>>, fillcolor="#399de506"] ;
13 -> 14 ;
15 [label=<gini = 0.4996<br/>samples = 854<br/>value = [439, 415]<br/>class = y<SUB>0</SUB>>, fillcolor="#e581390e"] ;
14 -> 15 ;
16 [label=<gini = 0.4989<br/>samples = 1034<br/>value = [493, 541]<br/>class = y<SUB>1</SUB>>, fillcolor="#399de517"] ;
14 -> 16 ;
17 [label=<gini = 0.4931<br/>samples = 897<br/>value = [396, 501]<br/>class = y<SUB>1</SUB>>, fillcolor="#399de535"] ;
13 -> 17 ;
18 [label=<DT_home_public &le; 0.5<br/>gini = 0.499<br/>samples = 4889<br/>value = [2556, 2333]<br/>class = y<SUB>0</SUB>>, fillcolor="#e5813916"] ;
0 -> 18 [labeldistance=2.5, labelangle=-45, headlabel="False"] ;
19 [label=<DT_away_ats &le; 0.5<br/>gini = 0.4978<br/>samples = 3092<br/>value = [1648, 1444]<br/>class = y<SUB>0</SUB>>, fillcolor="#e5813920"] ;
18 -> 19 ;
20 [label=<DT_home_reb &le; 0.5<br/>gini = 0.4962<br/>samples = 1892<br/>value = [1029, 863]<br/>class = y<SUB>0</SUB>>, fillcolor="#e5813929"] ;
19 -> 20 ;
21 [label=<gini = 0.4978<br/>samples = 1089<br/>value = [581, 508]<br/>class = y<SUB>0</SUB>>, fillcolor="#e5813920"] ;
20 -> 21 ;
22 [label=<gini = 0.4933<br/>samples = 803<br/>value = [448, 355]<br/>class = y<SUB>0</SUB>>, fillcolor="#e5813935"] ;
20 -> 22 ;
23 [label=<DT_away_public &le; 0.5<br/>gini = 0.4995<br/>samples = 1200<br/>value = [619, 581]<br/>class = y<SUB>0</SUB>>, fillcolor="#e5813910"] ;
19 -> 23 ;
24 [label=<gini = 0.4994<br/>samples = 601<br/>value = [311, 290]<br/>class = y<SUB>0</SUB>>, fillcolor="#e5813911"] ;
23 -> 24 ;
25 [label=<gini = 0.4996<br/>samples = 599<br/>value = [308, 291]<br/>class = y<SUB>0</SUB>>, fillcolor="#e581390e"] ;
23 -> 25 ;
26 [label=<DT_home_winner &le; 0.5<br/>gini = 0.4999<br/>samples = 1797<br/>value = [908, 889]<br/>class = y<SUB>0</SUB>>, fillcolor="#e5813905"] ;
18 -> 26 ;
27 [label=<gini = 0.4998<br/>samples = 981<br/>value = [499, 482]<br/>class = y<SUB>0</SUB>>, fillcolor="#e5813909"] ;
26 -> 27 ;
28 [label=<gini = 0.5<br/>samples = 816<br/>value = [409, 407]<br/>class = y<SUB>0</SUB>>, fillcolor="#e5813901"] ;
26 -> 28 ;
}