digraph Tree {
node [shape=box, style="filled, rounded", color="black", fontname=helvetica] ;
edge [fontname=helvetica] ;
0 [label=<DT_away_movement &le; 0.5<br/>gini = 0.4997<br/>samples = 13711<br/>value = [7012, 6699]<br/>class = y<SUB>0</SUB>>, fillcolor="#e581390b"] ;
1 [label=<DT_away_ats &le; 0.5<br/>gini = 0.4993<br/>samples = 9406<br/>value = [4884, 4522]<br/>class = y<SUB>0</SUB>>, fillcolor="#e5813913"] ;
0 -> 1 [labeldistance=2.5, labelangle=45, headlabel="True"] ;
2 [label=<DT_home_tPAr &le; 0.5<br/>gini = 0.4988<br/>samples = 6051<br/>value = [3174, 2877]<br/>class = y<SUB>0</SUB>>, fillcolor="#e5813918"] ;
1 -> 2 ;
3 [label=<DT_away_reb &le; 0.5<br/>gini = 0.4979<br/>samples = 4278<br/>value = [2277, 2001]<br/>class = y<SUB>0</SUB>>, fillcolor="#e581391f"] ;
2 -> 3 ;
4 [label=<DT_home_reb &le; 0.5<br/>gini = 0.4963<br/>samples = 3230<br/>value = [1753, 1477]<br/>class = y<SUB>0</SUB>>, fillcolor="#e5813928"] ;
3 -> 4 ;
5 [label=<DT_home_winner &le; 0.5<br/>gini = 0.4983<br/>samples = 1410<br/>value = [746, 664]<br/>class = y<SUB>0</SUB>>, fillcolor="#e581391c"] ;
4 -> 5 ;
6 [label=<gini = 0.4999<br/>samples = 913<br/>value = [463, 450]<br/>class = y<SUB>0</SUB>>, fillcolor="#e5813907"] ;
5 -> 6 ;
7 [label=<gini = 0.4904<br/>samples = 497<br/>value = [283, 214]<br/>class = y<SUB>0</SUB>>, fillcolor="#e581393e"] ;
5 -> 7 ;
8 [label=<DT_home_winner &le; 0.5<br/>gini = 0.4943<br/>samples = 1820<br/>value = [1007, 813]<br/>class = y<SUB>0</SUB>>, fillcolor="#e5813931"] ;
4 -> 8 ;
9 [label=<gini = 0.4886<br/>samples = 1260<br/>value = [725, 535]<br/>class = y<SUB>0</SUB>>, fillcolor="#e5813943"] ;
8 -> 9 ;
10 [label=<gini = 0.5<br/>samples = 560<br/>value = [282, 278]<br/>class = y<SUB>0</SUB>>, fillcolor="#e5813904"] ;
8 -> 10 ;
11 [label=<DT_away_public &le; 0.5<br/>gini = 0.5<br/>samples = 1048<br/>value = [524, 524]<br/>class = y<SUB>0</SUB>>, fillcolor="#e5813900"] ;
3 -> 11 ;
12 [label=<gini = 0.4991<br/>samples = 622<br/>value = [324, 298]<br/>class = y<SUB>0</SUB>>, fillcolor="#e5813914"] ;
11 -> 12 ;
13 [label=<gini = 0.4981<br/>samples = 426<br/>value = [200, 226]<br/>class = y<SUB>1</SUB>>, fillcolor="#399de51d"] ;
11 -> 13 ;
14 [label=<DT_away_reb &le; 0.5<br/>gini = 0.4999<br/>samples = 1773<br/>value = [897, 876]<br/>class = y<SUB>0</SUB>>, fillcolor="#e5813906"] ;
2 -> 14 ;
15 [label=<DT_home_public &le; 0.5<br/>gini = 0.4996<br/>samples = 1126<br/>value = [547, 579]<br/>class = y<SUB>1</SUB>>, fillcolor="#399de50e"] ;
14 -> 15 ;
16 [label=<gini = 0.5<br/>samples = 660<br/>value = [331, 329]<br/>class = y<SUB>0</SUB>>, fillcolor="#e5813902"] ;
15 -> 16 ;
17 [label=<gini = 0.4973<br/>samples = 466<br/>value = [216, 250]<br/>class = y<SUB>1</SUB>>, fillcolor="#399de523"] ;
15 -> 17 ;
18 [label=<gini = 0.4966<br/>samples = 647<br/>value = [350, 297]<br/>class = y<SUB>0</SUB>>, fillcolor="#e5813927"] ;
14 -> 18 ;
19 [label=<DT_away_reb &le; 0.5<br/>gini = 0.4998<br/>samples = 3355<br/>value = [1710, 1645]<br/>class = y<SUB>0</SUB>>, fillcolor="#e581390a"] ;
1 -> 19 ;
20 [label=<DT_home_winner &le; 0.5<br/>gini = 0.5<br/>samples = 2193<br/>value = [1092, 1101]<br/>class = y<SUB>1</SUB>>, fillcolor="#399de502"] ;
19 -> 20 ;
21 [label=<DT_home_ats &le; 0.5<br/>gini = 0.4997<br/>samples = 1644<br/>value = [802, 842]<br/>class = y<SUB>1</SUB>>, fillcolor="#399de50c"] ;
20 -> 21 ;
22 [label=<DT_away_public &le; 0.5<br/>gini = 0.5<br/>samples = 1031<br/>value = [512, 519]<br/>class = y<SUB>1</SUB>>, fillcolor="#399de503"] ;
21 -> 22 ;
23 [label=<gini = 0.4996<br/>samples = 629<br/>value = [306, 323]<br/>class = y<SUB>1</SUB>>, fillcolor="#399de50d"] ;
22 -> 23 ;
24 [label=<gini = 0.4997<br/>samples = 402<br/>value = [206, 196]<br/>class = y<SUB>0</SUB>>, fillcolor="#e581390c"] ;
22 -> 24 ;
25 [label=<gini = 0.4986<br/>samples = 613<br/>value = [290, 323]<br/>class = y<SUB>1</SUB>>, fillcolor="#399de51a"] ;
21 -> 25 ;
26 [label=<gini = 0.4984<br/>samples = 549<br/>value = [290, 259]<br/>class = y<SUB>0</SUB>>, fillcolor="#e581391b"] ;
20 -> 26 ;
27 [label=<DT_home_tPAr &le; 0.5<br/>gini = 0.498<br/>samples = 1162<br/>value = [618, 544]<br/>class = y<SUB>0</SUB>>, fillcolor="#e581391f"] ;
19 -> 27 ;
28 [label=<gini = 0.499<br/>samples = 728<br/>value = [380, 348]<br/>class = y<SUB>0</SUB>>, fillcolor="#e5813915"] ;
27 -> 28 ;
29 [label=<gini = 0.4953<br/>samples = 434<br/>value = [238, 196]<br/>class = y<SUB>0</SUB>>, fillcolor="#e581392d"] ;
27 -> 29 ;
30 [label=<DT_home_ats &le; 0.5<br/>gini = 0.4999<br/>samples = 4305<br/>value = [2128, 2177]<br/>class = y<SUB>1</SUB>>, fillcolor="#399de506"] ;
0 -> 30 [labeldistance=2.5, labelangle=-45, headlabel="False"] ;
31 [label=<DT_home_tPAr &le; 0.5<br/>gini = 0.4988<br/>samples = 2685<br/>value = [1276, 1409]<br/>class = y<SUB>1</SUB>>, fillcolor="#399de518"] ;
30 -> 31 ;
32 [label=<DT_home_reb &le; 0.5<br/>gini = 0.4968<br/>samples = 1923<br/>value = [885, 1038]<br/>class = y<SUB>1</SUB>>, fillcolor="#399de526"] ;
31 -> 32 ;
33 [label=<DT_away_public &le; 0.5<br/>gini = 0.4982<br/>samples = 1228<br/>value = [577, 651]<br/>class = y<SUB>1</SUB>>, fillcolor="#399de51d"] ;
32 -> 33 ;
34 [label=<gini = 0.5<br/>samples = 542<br/>value = [272, 270]<br/>class = y<SUB>0</SUB>>, fillcolor="#e5813902"] ;
33 -> 34 ;
35 [label=<gini = 0.4939<br/>samples = 686<br/>value = [305, 381]<br/>class = y<SUB>1</SUB>>, fillcolor="#399de533"] ;
33 -> 35 ;
36 [label=<gini = 0.4935<br/>samples = 695<br/>value = [308, 387]<br/>class = y<SUB>1</SUB>>, fillcolor="#399de534"] ;
32 -> 36 ;
37 [label=<DT_away_public &le; 0.5<br/>gini = 0.4997<br/>samples = 762<br/>value = [391, 371]<br/>class = y<SUB>0</SUB>>, fillcolor="#e581390d"] ;
31 -> 37 ;
38 [label=<gini = 0.498<br/>samples = 382<br/>value = [203, 179]<br/>class = y<SUB>0</SUB>>, fillcolor="#e581391e"] ;
37 -> 38 ;
39 [label=<gini = 0.4999<br/>samples = 380<br/>value = [188, 192]<br/>class = y<SUB>1</SUB>>, fillcolor="#399de505"] ;
37 -> 39 ;
40 [label=<DT_home_winner &le; 0.5<br/>gini = 0.4987<br/>samples = 1620<br/>value = [852, 768]<br/>class = y<SUB>0</SUB>>, fillcolor="#e5813919"] ;
30 -> 40 ;
41 [label=<gini = 0.5<br/>samples = 703<br/>value = [355, 348]<br/>class = y<SUB>0</SUB>>, fillcolor="#e5813905"] ;
40 -> 41 ;
42 [label=<gini = 0.4965<br/>samples = 917<br/>value = [497, 420]<br/>class = y<SUB>0</SUB>>, fillcolor="#e5813928"] ;
40 -> 42 ;
}