digraph Tree {
node [shape=box, style="filled, rounded", color="black", fontname=helvetica] ;
edge [fontname=helvetica] ;
0 [label=<DT_home_ats &le; 0.5<br/>gini = 0.5<br/>samples = 1738<br/>value = [865, 873]<br/>class = y<SUB>1</SUB>>, fillcolor="#399de502"] ;
1 [label=<DT_home_winner &le; 0.5<br/>gini = 0.4991<br/>samples = 1018<br/>value = [488, 530]<br/>class = y<SUB>1</SUB>>, fillcolor="#399de514"] ;
0 -> 1 [labeldistance=2.5, labelangle=45, headlabel="True"] ;
2 [label=<DT_home_tPAr &le; 0.5<br/>gini = 0.4999<br/>samples = 724<br/>value = [356, 368]<br/>class = y<SUB>1</SUB>>, fillcolor="#399de508"] ;
1 -> 2 ;
3 [label=<DT_home_public &le; 0.5<br/>gini = 0.4999<br/>samples = 387<br/>value = [196, 191]<br/>class = y<SUB>0</SUB>>, fillcolor="#e5813907"] ;
2 -> 3 ;
4 [label=<gini = 0.4973<br/>samples = 192<br/>value = [103, 89]<br/>class = y<SUB>0</SUB>>, fillcolor="#e5813923"] ;
3 -> 4 ;
5 [label=<gini = 0.4989<br/>samples = 195<br/>value = [93, 102]<br/>class = y<SUB>1</SUB>>, fillcolor="#399de517"] ;
3 -> 5 ;
6 [label=<gini = 0.4987<br/>samples = 337<br/>value = [160, 177]<br/>class = y<SUB>1</SUB>>, fillcolor="#399de518"] ;
2 -> 6 ;
7 [label=<gini = 0.4948<br/>samples = 294<br/>value = [132, 162]<br/>class = y<SUB>1</SUB>>, fillcolor="#399de52f"] ;
1 -> 7 ;
8 [label=<DT_home_public &le; 0.5<br/>gini = 0.4989<br/>samples = 720<br/>value = [377, 343]<br/>class = y<SUB>0</SUB>>, fillcolor="#e5813917"] ;
0 -> 8 [labeldistance=2.5, labelangle=-45, headlabel="False"] ;
9 [label=<gini = 0.4963<br/>samples = 324<br/>value = [176, 148]<br/>class = y<SUB>0</SUB>>, fillcolor="#e5813929"] ;
8 -> 9 ;
10 [label=<DT_home_tPAr &le; 0.5<br/>gini = 0.4999<br/>samples = 396<br/>value = [201, 195]<br/>class = y<SUB>0</SUB>>, fillcolor="#e5813908"] ;
8 -> 10 ;
11 [label=<gini = 0.4998<br/>samples = 198<br/>value = [101, 97]<br/>class = y<SUB>0</SUB>>, fillcolor="#e581390a"] ;
10 -> 11 ;
12 [label=<gini = 0.4999<br/>samples = 198<br/>value = [100, 98]<br/>class = y<SUB>0</SUB>>, fillcolor="#e5813905"] ;
10 -> 12 ;
}