digraph Tree {
node [shape=box, style="filled, rounded", color="black", fontname=helvetica] ;
edge [fontname=helvetica] ;
0 [label=<DT_home_ats &le; 0.5<br/>gini = 0.4999<br/>samples = 14346<br/>value = [7284, 7062]<br/>class = y<SUB>0</SUB>>, fillcolor="#e5813908"] ;
1 [label=<DT_away_movement &le; 0.5<br/>gini = 0.5<br/>samples = 9336<br/>value = [4669, 4667]<br/>class = y<SUB>0</SUB>>, fillcolor="#e5813900"] ;
0 -> 1 [labeldistance=2.5, labelangle=45, headlabel="True"] ;
2 [label=<DT_away_ats &le; 0.5<br/>gini = 0.4998<br/>samples = 6366<br/>value = [3242, 3124]<br/>class = y<SUB>0</SUB>>, fillcolor="#e5813909"] ;
1 -> 2 ;
3 [label=<DT_home_tPAr &le; 0.5<br/>gini = 0.4994<br/>samples = 4161<br/>value = [2150, 2011]<br/>class = y<SUB>0</SUB>>, fillcolor="#e5813910"] ;
2 -> 3 ;
4 [label=<DT_home_reb &le; 0.5<br/>gini = 0.4988<br/>samples = 2934<br/>value = [1539, 1395]<br/>class = y<SUB>0</SUB>>, fillcolor="#e5813918"] ;
3 -> 4 ;
5 [label=<DT_away_public &le; 0.5<br/>gini = 0.4993<br/>samples = 1755<br/>value = [911, 844]<br/>class = y<SUB>0</SUB>>, fillcolor="#e5813913"] ;
4 -> 5 ;
6 [label=<gini = 0.4984<br/>samples = 1077<br/>value = [569, 508]<br/>class = y<SUB>0</SUB>>, fillcolor="#e581391b"] ;
5 -> 6 ;
7 [label=<gini = 0.5<br/>samples = 678<br/>value = [342, 336]<br/>class = y<SUB>0</SUB>>, fillcolor="#e5813904"] ;
5 -> 7 ;
8 [label=<gini = 0.4979<br/>samples = 1179<br/>value = [628, 551]<br/>class = y<SUB>0</SUB>>, fillcolor="#e581391f"] ;
4 -> 8 ;
9 [label=<gini = 0.5<br/>samples = 1227<br/>value = [611, 616]<br/>class = y<SUB>1</SUB>>, fillcolor="#399de502"] ;
3 -> 9 ;
10 [label=<DT_home_reb &le; 0.5<br/>gini = 0.5<br/>samples = 2205<br/>value = [1092, 1113]<br/>class = y<SUB>1</SUB>>, fillcolor="#399de505"] ;
2 -> 10 ;
11 [label=<DT_away_public &le; 0.5<br/>gini = 0.4997<br/>samples = 1604<br/>value = [822, 782]<br/>class = y<SUB>0</SUB>>, fillcolor="#e581390c"] ;
10 -> 11 ;
12 [label=<gini = 0.4997<br/>samples = 863<br/>value = [442, 421]<br/>class = y<SUB>0</SUB>>, fillcolor="#e581390c"] ;
11 -> 12 ;
13 [label=<gini = 0.4997<br/>samples = 741<br/>value = [380, 361]<br/>class = y<SUB>0</SUB>>, fillcolor="#e581390d"] ;
11 -> 13 ;
14 [label=<gini = 0.4948<br/>samples = 601<br/>value = [270, 331]<br/>class = y<SUB>1</SUB>>, fillcolor="#399de52f"] ;
10 -> 14 ;
15 [label=<DT_home_tPAr &le; 0.5<br/>gini = 0.4992<br/>samples = 2970<br/>value = [1427, 1543]<br/>class = y<SUB>1</SUB>>, fillcolor="#399de513"] ;
1 -> 15 ;
16 [label=<DT_home_reb &le; 0.5<br/>gini = 0.4976<br/>samples = 2089<br/>value = [972, 1117]<br/>class = y<SUB>1</SUB>>, fillcolor="#399de521"] ;
15 -> 16 ;
17 [label=<DT_away_public &le; 0.5<br/>gini = 0.4994<br/>samples = 1351<br/>value = [653, 698]<br/>class = y<SUB>1</SUB>>, fillcolor="#399de510"] ;
16 -> 17 ;
18 [label=<gini = 0.4999<br/>samples = 595<br/>value = [301, 294]<br/>class = y<SUB>0</SUB>>, fillcolor="#e5813906"] ;
17 -> 18 ;
19 [label=<gini = 0.4976<br/>samples = 756<br/>value = [352, 404]<br/>class = y<SUB>1</SUB>>, fillcolor="#399de521"] ;
17 -> 19 ;
20 [label=<gini = 0.4908<br/>samples = 738<br/>value = [319, 419]<br/>class = y<SUB>1</SUB>>, fillcolor="#399de53d"] ;
16 -> 20 ;
21 [label=<gini = 0.4995<br/>samples = 881<br/>value = [455, 426]<br/>class = y<SUB>0</SUB>>, fillcolor="#e5813910"] ;
15 -> 21 ;
22 [label=<DT_away_ats &le; 0.5<br/>gini = 0.499<br/>samples = 5010<br/>value = [2615, 2395]<br/>class = y<SUB>0</SUB>>, fillcolor="#e5813915"] ;
0 -> 22 [labeldistance=2.5, labelangle=-45, headlabel="False"] ;
23 [label=<DT_home_public &le; 0.5<br/>gini = 0.4976<br/>samples = 3230<br/>value = [1728, 1502]<br/>class = y<SUB>0</SUB>>, fillcolor="#e5813921"] ;
22 -> 23 ;
24 [label=<DT_home_reb &le; 0.5<br/>gini = 0.4963<br/>samples = 1974<br/>value = [1072, 902]<br/>class = y<SUB>0</SUB>>, fillcolor="#e5813928"] ;
23 -> 24 ;
25 [label=<gini = 0.4973<br/>samples = 1107<br/>value = [594, 513]<br/>class = y<SUB>0</SUB>>, fillcolor="#e5813923"] ;
24 -> 25 ;
26 [label=<gini = 0.4947<br/>samples = 867<br/>value = [478, 389]<br/>class = y<SUB>0</SUB>>, fillcolor="#e581392f"] ;
24 -> 26 ;
27 [label=<DT_home_reb &le; 0.5<br/>gini = 0.499<br/>samples = 1256<br/>value = [656, 600]<br/>class = y<SUB>0</SUB>>, fillcolor="#e5813916"] ;
23 -> 27 ;
28 [label=<gini = 0.4983<br/>samples = 603<br/>value = [319, 284]<br/>class = y<SUB>0</SUB>>, fillcolor="#e581391c"] ;
27 -> 28 ;
29 [label=<gini = 0.4995<br/>samples = 653<br/>value = [337, 316]<br/>class = y<SUB>0</SUB>>, fillcolor="#e5813910"] ;
27 -> 29 ;
30 [label=<DT_home_winner &le; 0.5<br/>gini = 0.5<br/>samples = 1780<br/>value = [887, 893]<br/>class = y<SUB>1</SUB>>, fillcolor="#399de502"] ;
22 -> 30 ;
31 [label=<gini = 0.4998<br/>samples = 1144<br/>value = [560, 584]<br/>class = y<SUB>1</SUB>>, fillcolor="#399de50a"] ;
30 -> 31 ;
32 [label=<gini = 0.4996<br/>samples = 636<br/>value = [327, 309]<br/>class = y<SUB>0</SUB>>, fillcolor="#e581390e"] ;
30 -> 32 ;
}