digraph Tree {
node [shape=box, style="filled, rounded", color="black", fontname=helvetica] ;
edge [fontname=helvetica] ;
0 [label=<DT_home_ats &le; 0.5<br/>gini = 0.4999<br/>samples = 16601<br/>value = [8441, 8160]<br/>class = y<SUB>0</SUB>>, fillcolor="#e5813908"] ;
1 [label=<DT_away_movement &le; 0.5<br/>gini = 0.5<br/>samples = 10768<br/>value = [5395, 5373]<br/>class = y<SUB>0</SUB>>, fillcolor="#e5813901"] ;
0 -> 1 [labeldistance=2.5, labelangle=45, headlabel="True"] ;
2 [label=<DT_home_public &le; 0.5<br/>gini = 0.4998<br/>samples = 7461<br/>value = [3808, 3653]<br/>class = y<SUB>0</SUB>>, fillcolor="#e581390a"] ;
1 -> 2 ;
3 [label=<DT_away_public &le; 0.5<br/>gini = 0.4995<br/>samples = 5136<br/>value = [2650, 2486]<br/>class = y<SUB>0</SUB>>, fillcolor="#e5813910"] ;
2 -> 3 ;
4 [label=<DT_home_winner &le; 0.5<br/>gini = 0.499<br/>samples = 2332<br/>value = [1217, 1115]<br/>class = y<SUB>0</SUB>>, fillcolor="#e5813915"] ;
3 -> 4 ;
5 [label=<DT_away_reb &le; 0.5<br/>gini = 0.4983<br/>samples = 1677<br/>value = [887, 790]<br/>class = y<SUB>0</SUB>>, fillcolor="#e581391c"] ;
4 -> 5 ;
6 [label=<gini = 0.4993<br/>samples = 1146<br/>value = [594, 552]<br/>class = y<SUB>0</SUB>>, fillcolor="#e5813912"] ;
5 -> 6 ;
7 [label=<gini = 0.4946<br/>samples = 531<br/>value = [293, 238]<br/>class = y<SUB>0</SUB>>, fillcolor="#e5813930"] ;
5 -> 7 ;
8 [label=<gini = 0.5<br/>samples = 655<br/>value = [330, 325]<br/>class = y<SUB>0</SUB>>, fillcolor="#e5813904"] ;
4 -> 8 ;
9 [label=<DT_home_reb &le; 0.5<br/>gini = 0.4998<br/>samples = 2804<br/>value = [1433, 1371]<br/>class = y<SUB>0</SUB>>, fillcolor="#e581390b"] ;
3 -> 9 ;
10 [label=<DT_away_ats &le; 0.5<br/>gini = 0.5<br/>samples = 2037<br/>value = [1025, 1012]<br/>class = y<SUB>0</SUB>>, fillcolor="#e5813903"] ;
9 -> 10 ;
11 [label=<gini = 0.5<br/>samples = 1157<br/>value = [574, 583]<br/>class = y<SUB>1</SUB>>, fillcolor="#399de504"] ;
10 -> 11 ;
12 [label=<gini = 0.4997<br/>samples = 880<br/>value = [451, 429]<br/>class = y<SUB>0</SUB>>, fillcolor="#e581390c"] ;
10 -> 12 ;
13 [label=<gini = 0.498<br/>samples = 767<br/>value = [408, 359]<br/>class = y<SUB>0</SUB>>, fillcolor="#e581391f"] ;
9 -> 13 ;
14 [label=<DT_away_reb &le; 0.5<br/>gini = 0.5<br/>samples = 2325<br/>value = [1158, 1167]<br/>class = y<SUB>1</SUB>>, fillcolor="#399de502"] ;
2 -> 14 ;
15 [label=<DT_away_ats &le; 0.5<br/>gini = 0.4997<br/>samples = 1721<br/>value = [838, 883]<br/>class = y<SUB>1</SUB>>, fillcolor="#399de50d"] ;
14 -> 15 ;
16 [label=<DT_home_winner &le; 0.5<br/>gini = 0.5<br/>samples = 1275<br/>value = [635, 640]<br/>class = y<SUB>1</SUB>>, fillcolor="#399de502"] ;
15 -> 16 ;
17 [label=<gini = 0.4998<br/>samples = 898<br/>value = [441, 457]<br/>class = y<SUB>1</SUB>>, fillcolor="#399de509"] ;
16 -> 17 ;
18 [label=<gini = 0.4996<br/>samples = 377<br/>value = [194, 183]<br/>class = y<SUB>0</SUB>>, fillcolor="#e581390e"] ;
16 -> 18 ;
19 [label=<gini = 0.496<br/>samples = 446<br/>value = [203, 243]<br/>class = y<SUB>1</SUB>>, fillcolor="#399de52a"] ;
15 -> 19 ;
20 [label=<gini = 0.4982<br/>samples = 604<br/>value = [320, 284]<br/>class = y<SUB>0</SUB>>, fillcolor="#e581391d"] ;
14 -> 20 ;
21 [label=<DT_home_tPAr &le; 0.5<br/>gini = 0.4992<br/>samples = 3307<br/>value = [1587, 1720]<br/>class = y<SUB>1</SUB>>, fillcolor="#399de514"] ;
1 -> 21 ;
22 [label=<DT_home_reb &le; 0.5<br/>gini = 0.4977<br/>samples = 2342<br/>value = [1092, 1250]<br/>class = y<SUB>1</SUB>>, fillcolor="#399de520"] ;
21 -> 22 ;
23 [label=<DT_away_public &le; 0.5<br/>gini = 0.4993<br/>samples = 1520<br/>value = [732, 788]<br/>class = y<SUB>1</SUB>>, fillcolor="#399de512"] ;
22 -> 23 ;
24 [label=<gini = 0.4998<br/>samples = 675<br/>value = [344, 331]<br/>class = y<SUB>0</SUB>>, fillcolor="#e581390a"] ;
23 -> 24 ;
25 [label=<gini = 0.4967<br/>samples = 845<br/>value = [388, 457]<br/>class = y<SUB>1</SUB>>, fillcolor="#399de527"] ;
23 -> 25 ;
26 [label=<DT_home_winner &le; 0.5<br/>gini = 0.4923<br/>samples = 822<br/>value = [360, 462]<br/>class = y<SUB>1</SUB>>, fillcolor="#399de538"] ;
22 -> 26 ;
27 [label=<gini = 0.4973<br/>samples = 412<br/>value = [191, 221]<br/>class = y<SUB>1</SUB>>, fillcolor="#399de523"] ;
26 -> 27 ;
28 [label=<gini = 0.4846<br/>samples = 410<br/>value = [169, 241]<br/>class = y<SUB>1</SUB>>, fillcolor="#399de54c"] ;
26 -> 28 ;
29 [label=<DT_home_winner &le; 0.5<br/>gini = 0.4997<br/>samples = 965<br/>value = [495, 470]<br/>class = y<SUB>0</SUB>>, fillcolor="#e581390d"] ;
21 -> 29 ;
30 [label=<gini = 0.4978<br/>samples = 435<br/>value = [232, 203]<br/>class = y<SUB>0</SUB>>, fillcolor="#e5813920"] ;
29 -> 30 ;
31 [label=<gini = 0.5<br/>samples = 530<br/>value = [263, 267]<br/>class = y<SUB>1</SUB>>, fillcolor="#399de504"] ;
29 -> 31 ;
32 [label=<DT_home_winner &le; 0.5<br/>gini = 0.499<br/>samples = 5833<br/>value = [3046, 2787]<br/>class = y<SUB>0</SUB>>, fillcolor="#e5813916"] ;
0 -> 32 [labeldistance=2.5, labelangle=-45, headlabel="False"] ;
33 [label=<DT_away_ats &le; 0.5<br/>gini = 0.4999<br/>samples = 3196<br/>value = [1621, 1575]<br/>class = y<SUB>0</SUB>>, fillcolor="#e5813907"] ;
32 -> 33 ;
34 [label=<DT_away_public &le; 0.5<br/>gini = 0.499<br/>samples = 1847<br/>value = [965, 882]<br/>class = y<SUB>0</SUB>>, fillcolor="#e5813916"] ;
33 -> 34 ;
35 [label=<DT_home_reb &le; 0.5<br/>gini = 0.4996<br/>samples = 1376<br/>value = [707, 669]<br/>class = y<SUB>0</SUB>>, fillcolor="#e581390e"] ;
34 -> 35 ;
36 [label=<gini = 0.4999<br/>samples = 683<br/>value = [345, 338]<br/>class = y<SUB>0</SUB>>, fillcolor="#e5813905"] ;
35 -> 36 ;
37 [label=<gini = 0.499<br/>samples = 693<br/>value = [362, 331]<br/>class = y<SUB>0</SUB>>, fillcolor="#e5813916"] ;
35 -> 37 ;
38 [label=<gini = 0.4954<br/>samples = 471<br/>value = [258, 213]<br/>class = y<SUB>0</SUB>>, fillcolor="#e581392c"] ;
34 -> 38 ;
39 [label=<DT_home_reb &le; 0.5<br/>gini = 0.4996<br/>samples = 1349<br/>value = [656, 693]<br/>class = y<SUB>1</SUB>>, fillcolor="#399de50e"] ;
33 -> 39 ;
40 [label=<DT_away_reb &le; 0.5<br/>gini = 0.4998<br/>samples = 827<br/>value = [405, 422]<br/>class = y<SUB>1</SUB>>, fillcolor="#399de50a"] ;
39 -> 40 ;
41 [label=<gini = 0.4997<br/>samples = 446<br/>value = [218, 228]<br/>class = y<SUB>1</SUB>>, fillcolor="#399de50b"] ;
40 -> 41 ;
42 [label=<gini = 0.4998<br/>samples = 381<br/>value = [187, 194]<br/>class = y<SUB>1</SUB>>, fillcolor="#399de509"] ;
40 -> 42 ;
43 [label=<gini = 0.4993<br/>samples = 522<br/>value = [251, 271]<br/>class = y<SUB>1</SUB>>, fillcolor="#399de513"] ;
39 -> 43 ;
44 [label=<DT_home_public &le; 0.5<br/>gini = 0.4967<br/>samples = 2637<br/>value = [1425, 1212]<br/>class = y<SUB>0</SUB>>, fillcolor="#e5813926"] ;
32 -> 44 ;
45 [label=<DT_away_movement &le; 0.5<br/>gini = 0.495<br/>samples = 1726<br/>value = [949, 777]<br/>class = y<SUB>0</SUB>>, fillcolor="#e581392e"] ;
44 -> 45 ;
46 [label=<DT_away_public &le; 0.5<br/>gini = 0.4939<br/>samples = 899<br/>value = [499, 400]<br/>class = y<SUB>0</SUB>>, fillcolor="#e5813933"] ;
45 -> 46 ;
47 [label=<gini = 0.4913<br/>samples = 463<br/>value = [262, 201]<br/>class = y<SUB>0</SUB>>, fillcolor="#e581393b"] ;
46 -> 47 ;
48 [label=<gini = 0.4962<br/>samples = 436<br/>value = [237, 199]<br/>class = y<SUB>0</SUB>>, fillcolor="#e5813929"] ;
46 -> 48 ;
49 [label=<DT_away_public &le; 0.5<br/>gini = 0.4961<br/>samples = 827<br/>value = [450, 377]<br/>class = y<SUB>0</SUB>>, fillcolor="#e5813929"] ;
45 -> 49 ;
50 [label=<gini = 0.4974<br/>samples = 401<br/>value = [215, 186]<br/>class = y<SUB>0</SUB>>, fillcolor="#e5813922"] ;
49 -> 50 ;
51 [label=<gini = 0.4947<br/>samples = 426<br/>value = [235, 191]<br/>class = y<SUB>0</SUB>>, fillcolor="#e5813930"] ;
49 -> 51 ;
52 [label=<DT_away_movement &le; 0.5<br/>gini = 0.499<br/>samples = 911<br/>value = [476, 435]<br/>class = y<SUB>0</SUB>>, fillcolor="#e5813916"] ;
44 -> 52 ;
53 [label=<gini = 0.5<br/>samples = 514<br/>value = [259, 255]<br/>class = y<SUB>0</SUB>>, fillcolor="#e5813904"] ;
52 -> 53 ;
54 [label=<gini = 0.4957<br/>samples = 397<br/>value = [217, 180]<br/>class = y<SUB>0</SUB>>, fillcolor="#e581392b"] ;
52 -> 54 ;
}