digraph Tree {
node [shape=box, style="filled, rounded", color="black", fontname=helvetica] ;
edge [fontname=helvetica] ;
0 [label=<DT_home_ats &le; 0.5<br/>gini = 0.4996<br/>samples = 1825<br/>value = [886, 939]<br/>class = y<SUB>1</SUB>>, fillcolor="#399de50e"] ;
1 [label=<DT_home_public &le; 0.5<br/>gini = 0.4977<br/>samples = 1051<br/>value = [490, 561]<br/>class = y<SUB>1</SUB>>, fillcolor="#399de520"] ;
0 -> 1 [labeldistance=2.5, labelangle=45, headlabel="True"] ;
2 [label=<DT_home_tPAr &le; 0.5<br/>gini = 0.4997<br/>samples = 534<br/>value = [261, 273]<br/>class = y<SUB>1</SUB>>, fillcolor="#399de50b"] ;
1 -> 2 ;
3 [label=<DT_away_public &le; 0.5<br/>gini = 0.4999<br/>samples = 332<br/>value = [168, 164]<br/>class = y<SUB>0</SUB>>, fillcolor="#e5813906"] ;
2 -> 3 ;
4 [label=<gini = 0.4999<br/>samples = 177<br/>value = [87, 90]<br/>class = y<SUB>1</SUB>>, fillcolor="#399de508"] ;
3 -> 4 ;
5 [label=<gini = 0.499<br/>samples = 155<br/>value = [81, 74]<br/>class = y<SUB>0</SUB>>, fillcolor="#e5813916"] ;
3 -> 5 ;
6 [label=<gini = 0.4969<br/>samples = 202<br/>value = [93, 109]<br/>class = y<SUB>1</SUB>>, fillcolor="#399de525"] ;
2 -> 6 ;
7 [label=<DT_away_ats &le; 0.5<br/>gini = 0.4935<br/>samples = 517<br/>value = [229, 288]<br/>class = y<SUB>1</SUB>>, fillcolor="#399de534"] ;
1 -> 7 ;
8 [label=<DT_home_tPAr &le; 0.5<br/>gini = 0.4938<br/>samples = 340<br/>value = [151, 189]<br/>class = y<SUB>1</SUB>>, fillcolor="#399de533"] ;
7 -> 8 ;
9 [label=<gini = 0.4877<br/>samples = 185<br/>value = [78, 107]<br/>class = y<SUB>1</SUB>>, fillcolor="#399de545"] ;
8 -> 9 ;
10 [label=<gini = 0.4983<br/>samples = 155<br/>value = [73, 82]<br/>class = y<SUB>1</SUB>>, fillcolor="#399de51c"] ;
8 -> 10 ;
11 [label=<gini = 0.493<br/>samples = 177<br/>value = [78, 99]<br/>class = y<SUB>1</SUB>>, fillcolor="#399de536"] ;
7 -> 11 ;
12 [label=<DT_away_movement &le; 0.5<br/>gini = 0.4997<br/>samples = 774<br/>value = [396, 378]<br/>class = y<SUB>0</SUB>>, fillcolor="#e581390c"] ;
0 -> 12 [labeldistance=2.5, labelangle=-45, headlabel="False"] ;
13 [label=<DT_away_ats &le; 0.5<br/>gini = 0.5<br/>samples = 584<br/>value = [294, 290]<br/>class = y<SUB>0</SUB>>, fillcolor="#e5813903"] ;
12 -> 13 ;
14 [label=<DT_home_tPAr &le; 0.5<br/>gini = 0.5<br/>samples = 348<br/>value = [173, 175]<br/>class = y<SUB>1</SUB>>, fillcolor="#399de503"] ;
13 -> 14 ;
15 [label=<gini = 0.4997<br/>samples = 178<br/>value = [87, 91]<br/>class = y<SUB>1</SUB>>, fillcolor="#399de50b"] ;
14 -> 15 ;
16 [label=<gini = 0.4999<br/>samples = 170<br/>value = [86, 84]<br/>class = y<SUB>0</SUB>>, fillcolor="#e5813906"] ;
14 -> 16 ;
17 [label=<gini = 0.4997<br/>samples = 236<br/>value = [121, 115]<br/>class = y<SUB>0</SUB>>, fillcolor="#e581390d"] ;
13 -> 17 ;
18 [label=<gini = 0.4973<br/>samples = 190<br/>value = [102, 88]<br/>class = y<SUB>0</SUB>>, fillcolor="#e5813923"] ;
12 -> 18 ;
}